<?xml version="1.0"?>
<opencv_storage>
<opencv_ml_ann_mlp>
  <format>3</format>
  <layer_sizes>
    120 40 65</layer_sizes>
  <activation_function>SIGMOID_SYM</activation_function>
  <f_param1>1.</f_param1>
  <f_param2>1.</f_param2>
  <min_val>-9.4999999999999996e-01</min_val>
  <max_val>9.4999999999999996e-01</max_val>
  <min_val1>-9.7999999999999998e-01</min_val1>
  <max_val1>9.7999999999999998e-01</max_val1>
  <training_params>
    <train_method>BACKPROP</train_method>
    <dw_scale>1.0000000000000001e-01</dw_scale>
    <moment_scale>1.0000000000000001e-01</moment_scale>
    <term_criteria>
      <epsilon>1.0000000000000000e-02</epsilon>
      <iterations>1000</iterations></term_criteria></training_params>
  <input_scale>
    2.2710693911497525e+01 -7.3774587376288281e-02
    6.1081713708636203e+00 -3.3721628558643357e-01
    2.8225657169835534e+00 -1.4989003156458474e+00
    4.1173245634007705e+00 -3.4892763875906927e+00
    4.2692377937292205e+00 -3.3909658328280790e+00
    4.1886274049687264e+00 -3.3571350794302148e+00
    4.3192797597327468e+00 -3.7402550242774044e+00
    2.5326435796687838e+00 -1.2830807872995995e+00
    5.1043926563581756e+00 -3.0817357961883818e-01
    2.4585706346215652e+01 -5.8836298285579590e-02
    4.1495349265122599e+00 -3.0631106907063188e+00
    4.8363972557813497e+00 -4.0934689857660027e+00
    4.1996079221668339e+00 -3.0323315687494592e+00
    4.3590741722327220e+00 -3.3316796575569629e+00
    4.8108857873913653e+00 -3.9191936606322151e+00
    4.5959108277063461e+00 -3.6130997678226691e+00
    4.1513922336541356e+00 -2.9804692583054839e+00
    4.5796551798521996e+00 -3.3930605308814172e+00
    4.7153107058529287e+00 -3.9326522085335394e+00
    4.1741003734540554e+00 -2.8544396242515231e+00
    3.4805631382934282e-01 -5.2398954432128018e-02
    6.5318252100952726e-02 -1.9925146493340953e-01
    1.5575453995346352e-02 -6.9460931408618842e-01
    1.1175608991514228e-02 -1.3413472304505192e+00
    1.0296126094861953e-02 -1.3935476906189501e+00
    1.0516759251242586e-02 -1.5180719135883121e+00
    1.1885398207287191e-02 -1.5491119455613691e+00
    1.4901431184258627e-02 -6.5178458378947079e-01
    4.8952934332394740e-02 -1.5853506559563321e-01
    3.9728519095853815e-01 -3.5811501551412717e-02
    2.5145162692966977e-01 -5.4316603830069567e-02
    4.5812439655092560e-02 -2.6355186977850914e-01
    1.2838445637219986e-02 -9.6870128556210655e-01
    1.1468282993630055e-02 -1.8648855934166408e+00
    1.1979372448624435e-02 -1.5278389221339730e+00
    1.1658281931064766e-02 -1.6113915630122773e+00
    1.1867758787376184e-02 -2.0059359343633276e+00
    1.2879151129607672e-02 -8.7898496467144838e-01
    4.3455078347340505e-02 -2.0379880686970694e-01
    3.6826083073272148e-01 -3.6082350263634544e-02
    2.8571986797776544e-01 -4.8650519808490500e-02
    4.5478135393229646e-02 -2.7106966649949904e-01
    1.1894782494293717e-02 -9.0080663127826832e-01
    1.0725636501361815e-02 -1.5053184185359376e+00
    1.0560981402221760e-02 -1.0508972031401396e+00
    1.0064750470642633e-02 -1.0772933789191335e+00
    1.1300025293560110e-02 -1.5635505210012688e+00
    1.2320821931017849e-02 -8.2016282739287616e-01
    4.1396610376396206e-02 -2.1617797802071742e-01
    3.2645656075602636e-01 -4.3367924198847829e-02
    2.3304867691199671e-01 -5.6580335591915089e-02
    4.8460723496825682e-02 -2.6388762699563051e-01
    1.2158594828471626e-02 -9.4602380846465051e-01
    1.1048082208757075e-02 -1.6464735906168453e+00
    1.0633729430129449e-02 -1.2698226565132402e+00
    1.0417047411254857e-02 -1.2804319746548678e+00
    1.1099944652835080e-02 -1.5373180724626929e+00
    1.2193108671430060e-02 -8.1714796774211307e-01
    3.8621779586097853e-02 -2.2104651384410071e-01
    3.5245189974698932e-01 -4.4376417884253685e-02
    1.8259380821066706e-01 -6.2379675943497512e-02
    5.5610687703428988e-02 -2.2842995589179749e-01
    1.2463724183002706e-02 -8.5672061987341930e-01
    1.0630608408768895e-02 -1.6544777773511055e+00
    1.1219769970884495e-02 -1.7130171624678729e+00
    1.1767670417253693e-02 -1.9496371431188166e+00
    1.1882951964720667e-02 -1.8915578218860090e+00
    1.2436912241976772e-02 -8.0332460058556998e-01
    3.8396438259423557e-02 -2.1038484854447181e-01
    3.0561585367868216e-01 -4.2895971369691102e-02
    1.5775731310725413e-01 -6.1007777719572533e-02
    5.7073005931835771e-02 -1.8762603785402163e-01
    1.2737223315574225e-02 -7.6500879621350049e-01
    1.0648726049420233e-02 -1.5594814808411503e+00
    1.1297082153096730e-02 -1.5351448576985716e+00
    1.1175626281954933e-02 -1.7062656631828357e+00
    1.1510305310141461e-02 -1.8595378742922992e+00
    1.2183902163459838e-02 -8.4557531142022246e-01
    3.8991139006480789e-02 -2.0321766368275296e-01
    2.7002711017670533e-01 -4.8222262567414090e-02
    1.8088871693796879e-01 -5.8869379752780907e-02
    5.1659064563077263e-02 -1.8887781324643166e-01
    1.2553510561845553e-02 -8.0301785132666281e-01
    1.0597104757995184e-02 -1.4919666047638966e+00
    1.1038733632449763e-02 -1.0980291635755548e+00
    1.0646932793050739e-02 -1.1774221374693801e+00
    1.0873529000437233e-02 -1.5691544562755684e+00
    1.1907144084808004e-02 -8.5339494097070590e-01
    3.5801862828415243e-02 -2.2577589358584882e-01
    2.5588039399230567e-01 -5.5069890784066072e-02
    2.0484741454609351e-01 -5.1620749176596051e-02
    4.6588602912306813e-02 -2.0139694729817723e-01
    1.2275175858565014e-02 -8.9298034978764296e-01
    1.1312290266026521e-02 -1.7386894912767947e+00
    1.1162033232492107e-02 -1.1310911422772516e+00
    1.0124277786848469e-02 -1.1344096159932147e+00
    1.0893209092427617e-02 -1.5688952364857807e+00
    1.1567399779345977e-02 -8.6784376098075533e-01
    3.4420381026167075e-02 -2.4737060712045983e-01
    2.6123735438125373e-01 -5.5335619377047243e-02
    2.1941640032962761e-01 -6.2608863391141259e-02
    4.7656971407906229e-02 -2.0513038464419017e-01
    1.3047289709271350e-02 -8.9425479764107185e-01
    1.0994000634471694e-02 -1.7502008916408538e+00
    1.2878861685329219e-02 -1.6426115886775352e+00
    1.2759700627369638e-02 -1.6472105537601061e+00
    1.0755248451544720e-02 -1.6637758132825953e+00
    1.2130943091820879e-02 -9.1283999078174105e-01
    3.5917224950599867e-02 -2.5974100698135127e-01
    2.4730643661608240e-01 -5.8889292378214497e-02
    4.2100758519343534e-01 -6.3351154027625936e-02
    1.0150147007355556e-01 -1.8391205343867043e-01
    2.7762900548714463e-02 -6.8249251852891291e-01
    2.0760120067265003e-02 -1.4408351361385270e+00
    1.9527843602129228e-02 -1.4649593690337381e+00
    1.9546141458194815e-02 -1.4413547437997662e+00
    2.0225779383788518e-02 -1.4364819252391643e+00
    2.5023403778781626e-02 -7.6687027526162899e-01
    7.3968078267084722e-02 -2.4012968708571233e-01
    6.4257964689734781e-01 -4.7429105770124706e-02</input_scale>
  <output_scale>
    5.2631578947368418e-01 4.9999999999999994e-01 5.2631578947368418e-01
    4.9999999999999994e-01 5.2631578947368418e-01 4.9999999999999994e-01
    5.2631578947368418e-01 4.9999999999999994e-01 5.2631578947368418e-01
    4.9999999999999994e-01 5.2631578947368418e-01 4.9999999999999994e-01
    5.2631578947368418e-01 4.9999999999999994e-01 5.2631578947368418e-01
    4.9999999999999994e-01 5.2631578947368418e-01 4.9999999999999994e-01
    5.2631578947368418e-01 4.9999999999999994e-01 5.2631578947368418e-01
    4.9999999999999994e-01 5.2631578947368418e-01 4.9999999999999994e-01
    5.2631578947368418e-01 4.9999999999999994e-01 5.2631578947368418e-01
    4.9999999999999994e-01 5.2631578947368418e-01 4.9999999999999994e-01
    5.2631578947368418e-01 4.9999999999999994e-01 5.2631578947368418e-01
    4.9999999999999994e-01 5.2631578947368418e-01 4.9999999999999994e-01
    5.2631578947368418e-01 4.9999999999999994e-01 5.2631578947368418e-01
    4.9999999999999994e-01 5.2631578947368418e-01 4.9999999999999994e-01
    5.2631578947368418e-01 4.9999999999999994e-01 5.2631578947368418e-01
    4.9999999999999994e-01 5.2631578947368418e-01 4.9999999999999994e-01
    5.2631578947368418e-01 4.9999999999999994e-01 5.2631578947368418e-01
    4.9999999999999994e-01 5.2631578947368418e-01 4.9999999999999994e-01
    5.2631578947368418e-01 4.9999999999999994e-01 5.2631578947368418e-01
    4.9999999999999994e-01 5.2631578947368418e-01 4.9999999999999994e-01
    5.2631578947368418e-01 4.9999999999999994e-01 5.2631578947368418e-01
    4.9999999999999994e-01 5.2631578947368418e-01 4.9999999999999994e-01
    5.2631578947368418e-01 4.9999999999999994e-01 5.2631578947368418e-01
    4.9999999999999994e-01 5.2631578947368418e-01 4.9999999999999994e-01
    5.2631578947368418e-01 4.9999999999999994e-01 5.2631578947368418e-01
    4.9999999999999994e-01 5.2631578947368418e-01 4.9999999999999994e-01
    5.2631578947368418e-01 4.9999999999999994e-01 5.2631578947368418e-01
    4.9999999999999994e-01 5.2631578947368418e-01 4.9999999999999994e-01
    5.2631578947368418e-01 4.9999999999999994e-01 5.2631578947368418e-01
    4.9999999999999994e-01 5.2631578947368418e-01 4.9999999999999994e-01
    5.2631578947368418e-01 4.9999999999999994e-01 5.2631578947368418e-01
    4.9999999999999994e-01 5.2631578947368418e-01 4.9999999999999994e-01
    5.2631578947368418e-01 4.9999999999999994e-01 5.2631578947368418e-01
    4.9999999999999994e-01 5.2631578947368418e-01 4.9999999999999994e-01
    5.2631578947368418e-01 4.9999999999999994e-01 5.2631578947368418e-01
    4.9999999999999994e-01 5.2631578947368418e-01 4.9999999999999994e-01
    5.2631578947368418e-01 4.9999999999999994e-01 5.2631578947368418e-01
    4.9999999999999994e-01 5.2631578947368418e-01 4.9999999999999994e-01
    5.2631578947368418e-01 4.9999999999999994e-01 5.2631578947368418e-01
    4.9999999999999994e-01 5.2631578947368418e-01 4.9999999999999994e-01
    5.2631578947368418e-01 4.9999999999999994e-01 5.2631578947368418e-01
    4.9999999999999994e-01 5.2631578947368418e-01 4.9999999999999994e-01
    5.2631578947368418e-01 4.9999999999999994e-01 5.2631578947368418e-01
    4.9999999999999994e-01</output_scale>
  <inv_output_scale>
    1.8999999999999999e+00 -9.4999999999999996e-01
    1.8999999999999999e+00 -9.4999999999999996e-01
    1.8999999999999999e+00 -9.4999999999999996e-01
    1.8999999999999999e+00 -9.4999999999999996e-01
    1.8999999999999999e+00 -9.4999999999999996e-01
    1.8999999999999999e+00 -9.4999999999999996e-01
    1.8999999999999999e+00 -9.4999999999999996e-01
    1.8999999999999999e+00 -9.4999999999999996e-01
    1.8999999999999999e+00 -9.4999999999999996e-01
    1.8999999999999999e+00 -9.4999999999999996e-01
    1.8999999999999999e+00 -9.4999999999999996e-01
    1.8999999999999999e+00 -9.4999999999999996e-01
    1.8999999999999999e+00 -9.4999999999999996e-01
    1.8999999999999999e+00 -9.4999999999999996e-01
    1.8999999999999999e+00 -9.4999999999999996e-01
    1.8999999999999999e+00 -9.4999999999999996e-01
    1.8999999999999999e+00 -9.4999999999999996e-01
    1.8999999999999999e+00 -9.4999999999999996e-01
    1.8999999999999999e+00 -9.4999999999999996e-01
    1.8999999999999999e+00 -9.4999999999999996e-01
    1.8999999999999999e+00 -9.4999999999999996e-01
    1.8999999999999999e+00 -9.4999999999999996e-01
    1.8999999999999999e+00 -9.4999999999999996e-01
    1.8999999999999999e+00 -9.4999999999999996e-01
    1.8999999999999999e+00 -9.4999999999999996e-01
    1.8999999999999999e+00 -9.4999999999999996e-01
    1.8999999999999999e+00 -9.4999999999999996e-01
    1.8999999999999999e+00 -9.4999999999999996e-01
    1.8999999999999999e+00 -9.4999999999999996e-01
    1.8999999999999999e+00 -9.4999999999999996e-01
    1.8999999999999999e+00 -9.4999999999999996e-01
    1.8999999999999999e+00 -9.4999999999999996e-01
    1.8999999999999999e+00 -9.4999999999999996e-01
    1.8999999999999999e+00 -9.4999999999999996e-01
    1.8999999999999999e+00 -9.4999999999999996e-01
    1.8999999999999999e+00 -9.4999999999999996e-01
    1.8999999999999999e+00 -9.4999999999999996e-01
    1.8999999999999999e+00 -9.4999999999999996e-01
    1.8999999999999999e+00 -9.4999999999999996e-01
    1.8999999999999999e+00 -9.4999999999999996e-01
    1.8999999999999999e+00 -9.4999999999999996e-01
    1.8999999999999999e+00 -9.4999999999999996e-01
    1.8999999999999999e+00 -9.4999999999999996e-01
    1.8999999999999999e+00 -9.4999999999999996e-01
    1.8999999999999999e+00 -9.4999999999999996e-01
    1.8999999999999999e+00 -9.4999999999999996e-01
    1.8999999999999999e+00 -9.4999999999999996e-01
    1.8999999999999999e+00 -9.4999999999999996e-01
    1.8999999999999999e+00 -9.4999999999999996e-01
    1.8999999999999999e+00 -9.4999999999999996e-01
    1.8999999999999999e+00 -9.4999999999999996e-01
    1.8999999999999999e+00 -9.4999999999999996e-01
    1.8999999999999999e+00 -9.4999999999999996e-01
    1.8999999999999999e+00 -9.4999999999999996e-01
    1.8999999999999999e+00 -9.4999999999999996e-01
    1.8999999999999999e+00 -9.4999999999999996e-01
    1.8999999999999999e+00 -9.4999999999999996e-01
    1.8999999999999999e+00 -9.4999999999999996e-01
    1.8999999999999999e+00 -9.4999999999999996e-01
    1.8999999999999999e+00 -9.4999999999999996e-01
    1.8999999999999999e+00 -9.4999999999999996e-01
    1.8999999999999999e+00 -9.4999999999999996e-01
    1.8999999999999999e+00 -9.4999999999999996e-01
    1.8999999999999999e+00 -9.4999999999999996e-01
    1.8999999999999999e+00 -9.4999999999999996e-01</inv_output_scale>
  <weights>
    <_>
      -2.1527405516269665e-01 3.7042040322465486e-01
      -7.1560507618758051e-01 -4.1030496937880773e-01
      2.5747402542114872e-01 -2.3068718883011513e-01
      -8.2680659872680792e-02 -4.8328942120766666e-01
      6.0562886071312838e-01 -1.0507573881494636e+00
      -6.7873413196472976e-01 -7.8648299966391755e-01
      -1.9513436518476901e+00 1.6924022088243004e-01
      -2.7076385011535004e-01 -4.4863013812078689e-01
      -2.7135254407818606e-02 3.3053052883813816e-01
      2.1847805669649106e-01 9.2666595674958363e-01
      3.4845305636931256e-01 -3.8507653424652621e-01
      -8.9035887437107120e-01 -1.3728058704626783e-01
      2.2254879264748562e-01 1.5229542411985417e+00
      6.8816398677525692e-01 3.7333311650697143e-01
      -7.3625254371765070e-01 1.3972402408206860e-01
      1.3143524141537959e+00 3.7408311396018151e-01
      -8.6011469055888834e-01 5.7339610443044109e-01
      2.5808440712702485e-01 4.4626182899454492e-01
      -2.3529783534041707e-01 -4.7583353673960571e-01
      -6.4492830676589763e-01 -1.4479016959360322e+00
      8.5290387575101295e-02 -5.7842448940230373e-01
      -1.1519469576003700e+00 5.2976647411739952e-01
      -8.7075858925017358e-01 9.3890073832523291e-01
      -1.1372679496072075e-03 -8.0715812549197699e-02
      -3.1080447431982788e-01 4.0840006720536323e-02
      -4.2796042015417823e-01 -1.6104721167619135e-01
      5.7892824419395382e-02 -1.8593307677341223e-01
      3.0982139906219669e-01 -2.7712437242763732e-01
      5.1600389709597672e-01 -2.7832193164472147e-01
      -9.6614010422895469e-01 6.1331267191065664e-01
      3.9880513365088183e-01 5.8146288065504759e-01
      -1.9981310745305042e-01 5.3028474802483982e-01
      -5.5099359436798268e-01 8.7151297058898181e-01
      -5.6007539064119261e-01 4.7700758992195913e-01
      -1.5090028974273972e+00 -3.5994980178276365e-01
      1.9852404199101861e-01 -2.5547688774563804e-01
      -4.1835192580368837e-02 -5.0169286437103733e-01
      2.3185184018087838e-02 1.1246873478750878e+00
      -3.9733181604466108e-02 3.5086692169225037e-01
      -2.1168032405605480e-01 2.2761401414721730e-01
      -2.6443045116993374e-01 -2.9877457478996533e-01
      3.6299279198372852e-01 -1.5916134540777078e+00
      3.0353901179796864e-02 -1.6888299776844443e-01
      -1.6059639213588633e-01 4.8981747527103070e-01
      5.1035891792247060e-02 1.3725042582467519e+00
      1.1255373822518719e+00 -2.8857919729575654e-01
      6.8367262790498351e-01 4.5211813120514666e-01
      -8.4700922758576921e-02 -1.0995147557389262e+00
      1.2511640041215452e-02 -3.6441376802264273e-02
      -3.8659679954663312e-01 -1.1861786416279640e-01
      -7.9868265206848854e-01 -3.0653401440254296e-01
      2.1913182077651153e-01 -1.3325930459411103e-01
      -1.3102236494818924e+00 2.5635843331705738e-02
      4.0810690595696232e-02 1.1436501676969020e+00
      -8.1291062640786049e-01 -3.0720551483238978e-01
      1.0646815503595495e+00 4.4695444663127570e-01
      -8.8804165865029172e-01 8.8500084286677239e-01
      2.2335854148404061e-01 -2.3323029596815598e-01
      -2.3071797490314880e-01 4.6346861514206000e-01
      1.5464648453689064e-01 -7.4081268927380217e-01
      -4.6400129704072191e-01 -1.1667894277335411e+00
      -2.6543374693621585e-01 1.1470313527786362e+00
      1.7741353641302049e+00 -1.3255713634925625e+00
      -5.7100017064606567e-01 5.6951125910048661e-01
      5.3809553732589122e-01 1.0620150086215934e+00
      2.5199965952732206e-01 1.2098962793513470e+00
      7.5441655099259475e-01 -7.4179749829847041e-01
      -3.2773748081398879e-02 5.2765828874039866e-01
      -6.7021437720056753e-02 -1.2788555351032473e+00
      2.8145051784251267e+00 7.9309817937248206e-01
      -1.1249338909873707e+00 1.2460447009667590e+00
      6.2783809447814798e-01 9.9050847874804310e-02
      -1.1304255846207087e+00 -1.2095339084686765e-01
      3.3537497842611863e-01 -1.2730758546693048e+00
      1.8246211373794980e+00 -1.1559113502576825e+00
      3.5989393580870738e-01 8.9406742374974191e-01
      -1.0613516355529560e+00 7.5342849283065338e-01
      2.2361464580933630e+00 -4.3658847768444831e-01
      -6.7357335183861899e-01 5.9324543538344299e-01
      1.5850122250617940e+00 6.9025942272224938e-01
      5.7505953043527658e-01 7.1901225741624575e-01
      1.7056028806936205e-01 -1.2178068440597183e+00
      9.6253076332333487e-01 6.3076352432619764e-01
      7.1448675262394368e-01 1.0866751563220875e-01
      1.3366788463059323e-01 5.2685822657807324e-01
      -4.5196588261663595e-01 1.7875593309188717e-01
      -1.4574033309219436e-01 -3.7024545310885609e-01
      -2.2378036689682929e-02 -3.3817867319191858e-01
      -1.6964365452532787e-01 -1.3410585897382559e+00
      -4.2359807292998583e-02 1.5978544410831355e-01
      -2.0963446878058432e+00 8.0028462243989587e-02
      6.4528764652325610e-01 -2.3797430664541389e-02
      2.7659534664917856e-01 3.3943260255706958e-01
      -7.8163700405357650e-01 2.1288221394000109e-01
      3.0453358865268260e-02 -6.0798835804581886e-01
      1.5723810130326377e+00 -1.8716844618505302e-01
      3.6049324903320634e-01 6.2886926376227814e-01
      -6.2806173853041636e-01 -6.2950797422419758e-01
      -2.7388858233472119e-01 -4.8987969695811823e-01
      9.5867343773932456e-01 7.3266867100792207e-02
      2.6788847283651823e-01 -1.9333758930086384e+00
      6.4290981394229361e-03 -1.1792470094530179e+00
      1.0763798354905172e+00 5.2677632702630639e-01
      8.6789566140610996e-01 6.9018772266658768e-01
      1.8463608332433323e+00 -1.7302532885673181e+00
      -1.3764522188344390e+00 -4.2423206936018948e-01
      -3.4385657171391726e-01 -8.5705257154176873e-01
      5.6586226923377625e-01 -9.6275890180108725e-01
      -2.5405355366758231e-01 -1.7298594038840542e+00
      3.7417562365910212e-01 -3.2755164466487596e-01
      -2.5544514830359846e-03 1.1533645968242736e+00
      2.7690641058324456e-01 -1.8274166454397842e-01
      8.5931945372706331e-01 7.8710798754878042e-01
      -1.1808986024568970e+00 2.9355684327222464e-01
      -1.2953433394150513e-01 1.3029936185074339e-01
      1.4131120995368658e+00 -1.1223035145318307e+00
      -1.4590265541355940e-01 9.2532665969930838e-01
      8.6048545713942581e-01 -1.7121089090831146e-01
      -6.1327747409866551e-01 4.8167171847315435e-02
      1.4289915570348768e+00 -4.2689509355715327e-01
      3.7197701797588084e-01 2.4025277788362512e-01
      -1.1793238784462694e+00 4.9254846981002887e-01
      1.1271035927447384e+00 5.2762180478032189e-02
      2.2331023681995603e+00 -3.3180264214795596e-01
      1.8751748385973519e+00 -2.9189139209269555e+00
      1.3176685624851216e-02 1.4265541833847388e+00
      1.4624426413951007e-02 4.5531425664900183e-01
      -7.1482208056642371e-01 4.9337014520092359e-01
      -6.0964112071690635e-01 -1.8724683480753479e-01
      -2.7703179294590152e-01 6.8572025249959101e-01
      -5.3947374223041789e-01 2.6196105772533657e-01
      -2.7740795473813573e-01 -2.9247727716540939e-01
      -6.3587505740452521e-01 2.0317456340116538e-01
      1.2119227812183460e+00 2.4119106287750994e-01
      1.3551148832737869e+00 -1.4879966983337169e+00
      -1.3355731433408075e-01 1.4250266628121822e+00
      -1.5291056172154120e+00 4.1125475640136788e-01
      1.0653237989843023e+00 -1.7765297905928079e+00
      -6.4956142720528365e-01 -4.3660614490454591e-01
      2.2233678636204530e+00 7.7614720021544770e-01
      -5.2324901653413292e-01 8.2844694864075613e-02
      -3.4129480897515191e-01 -1.1431084979891692e+00
      -5.5093670567337294e-01 4.1433425739731283e-01
      -1.3965997678720317e+00 1.1444035923439787e-01
      5.9318568148113315e-01 1.5828530005464575e-01
      7.3339718243085250e-01 -3.2794860364082734e-01
      -2.4544209759564378e-01 2.1502872525195704e-01
      2.5426418232755460e-01 -1.2012325573510974e+00
      -3.3486682943519092e-01 -8.7557206995337283e-02
      9.0689067984558025e-01 7.2089834689139515e-02
      -9.4433030765384840e-01 -4.1133143671864814e-01
      5.3218189398473248e-01 1.1905510368550695e-01
      -1.5352273495545254e-01 6.5342519823394374e-01
      2.9645922444932976e-01 4.5096234327615653e-01
      -1.2487518263968786e-01 -1.6152518029463652e+00
      3.0214809505534451e-01 -4.5625417513299249e-01
      -9.4441259974566294e-01 1.3604397723096584e-01
      5.9080040139125503e-02 4.2919357504744793e-01
      -1.1552023812054188e+00 -3.2451252670680392e-01
      9.1296925813948593e-01 -2.7654672659881807e-01
      -8.4678951690342208e-01 -1.3471664885620432e-01
      -4.4835337435449811e-04 8.5470269867785076e-01
      4.1446239795077902e-02 1.0596146451148614e+00
      -4.3072257193079881e-02 6.0764525931085245e-01
      -6.8701827958449513e-01 7.8047282654636307e-01
      -1.7408670631733458e+00 -7.3877663455638165e-01
      -1.1526247253266368e+00 2.7822133278488259e-01
      2.4270607763491139e-01 -5.0096333129286486e-01
      4.2449717315281438e-01 -1.2804764067776571e+00
      -6.6278455876926712e-01 3.2067784723602999e-01
      -5.3339647071483776e-01 7.8571918035128852e-01
      4.9188848443655053e-01 2.9091784782690505e-01
      2.1175216154706011e-01 3.3970431423234643e-01
      -1.0940896130150730e+00 5.5902489195484420e-02
      -1.6168404405898510e-02 -1.0316472141887829e+00
      8.3558933766918897e-01 8.1459318983352802e-01
      3.0241822069634000e-01 1.3941177924705968e+00
      -5.3714584170866431e-01 3.0582932887593611e-01
      6.6666949693489097e-01 -1.0303508535955948e+00
      -2.2060449399059034e-01 -3.2173930813915297e-01
      -7.1788665254280060e-01 7.7007959390232128e-01
      -3.9977484947454456e-01 -1.4223623009349326e-01
      1.1786938867984160e+00 -7.8750252225285511e-01
      -1.2314457037300204e-01 -1.8776828444324009e-01
      1.5335333645540465e+00 -1.8430467146807133e-01
      8.1410060914727134e-01 -8.5611351533077495e-01
      -2.3374258417352206e-01 6.2885102362841561e-01
      -4.7317808422835339e-01 -5.8169669415075431e-01
      2.2609731820337373e-01 5.6094120044442641e-01
      -6.9499642549080254e-01 -1.6700471163667430e-01
      5.0596475475203329e-01 -1.8489359019610399e-01
      -6.2961538261378458e-01 4.2140069580151318e-01
      3.9470874698818520e-01 3.0809882408694840e+00
      1.1064168881212838e-01 3.7395204727362519e-01
      -1.8302462086372143e-01 -9.0079447863070472e-01
      5.6393645928409508e-01 4.2387865168574690e-01
      -3.9096017255100873e-01 3.8199859227763222e-01
      7.2497139134613109e-01 -4.3106585861316118e-02
      -1.3984053853006320e+00 -1.1385649743967396e-01
      -6.7322165509522258e-01 -5.0871869477146781e-01
      1.2815681140322259e+00 -1.3604858119094057e-01
      -4.5391830362868335e-01 9.9636595867907823e-03
      -5.6898924921834837e-01 3.1606386097677064e-01
      -6.6558260173345252e-01 -2.0220539866311643e-01
      3.8316622311672677e-01 -5.1361333671046228e-01
      -2.5011159963827445e-01 1.2709392166949036e+00
      -2.4573832752507604e-01 7.0966588707986533e-01
      -1.8354880058783488e-01 3.9826000857427801e-01
      -1.6787204392991570e-01 9.2608491170481555e-01
      1.3757086044372109e+00 4.7534437333708435e-01
      -4.0479320479384812e-01 1.2792218447506729e+00
      -2.6652860294259750e-01 5.4337651763731976e-01
      -1.1610427934113636e+00 -6.8310382917328238e-01
      -7.0007417858335988e-02 9.2223089986241480e-01
      7.5635234800103623e-01 1.8077954213042055e-01
      -1.4893637984072200e-01 1.3003816533503357e-01
      -3.8548329992321662e-01 1.1239808320420173e+00
      -1.2547715840402243e-01 -1.3008230250153610e+00
      -1.6839565720526969e-01 3.9861946183790070e-01
      -1.0266526376615912e+00 6.2138836754688354e-01
      7.3530282588293680e-02 -1.1744132781206107e+00
      -8.0873033267612648e-01 7.6916640250563439e-01
      4.7428049659392763e-01 -1.1080077241340587e-01
      -5.8785220835109442e-01 -3.1611471722459117e-01
      -4.1147576308488237e-01 6.7496829604206310e-01
      -1.1633294296664685e+00 5.7862382285322807e-03
      4.9863591507676448e-02 4.2074912672428905e-01
      -2.4514860055079643e-01 1.5355236312167883e-01
      -3.1769104839924150e-02 -1.6292430271978879e+00
      1.1421885054565030e-01 8.1183109765024231e-01
      1.6575782425861087e-02 7.7555578090507082e-01
      5.3691388033290255e-01 -4.8074635931967263e-01
      -5.5178038878247271e-01 5.7949130699367535e-01
      -2.9796717040031145e-01 -8.3880121406418345e-02
      6.2675762741807339e-01 9.2312608517267053e-02
      3.0642786788934277e-02 1.1884619982697350e-01
      -1.5923305802009186e-01 -4.5591057062204371e-01
      5.8027932554153838e-02 -6.1435950405486406e-01
      -2.3153551237239328e-01 8.3363022004329865e-02
      -5.0359068960670605e-01 8.7660375740492513e-02
      1.8274662442570799e-01 -7.0900311608924604e-01
      -8.8086078516459498e-01 3.9936509971301354e-01
      1.0432763488855235e+00 -2.3745032020711285e-01
      -1.5967293548567449e-01 -1.0525304617991125e+00
      -1.8232992747405519e-01 -3.6774671823408811e-01
      -5.1809826627869515e-01 2.2888220386205255e-01
      -7.7733624971338688e-01 7.1582227439579246e-02
      -5.5495107298709871e-02 -2.1626688175069679e+00
      -6.8132518353133692e-02 -1.7232326345670979e-01
      -6.5597947000788881e-01 -1.4860565322073588e-01
      -1.0012370387259739e+00 1.0489062877323281e+00
      -9.6867935065646982e-01 3.9819959038008190e-01
      -6.3698332017682413e-01 1.3540945331700704e+00
      -6.9020481494971930e-01 -2.4554104288470324e-02
      3.8850914759975830e-01 8.2756422236877347e-01
      -8.0734140358238138e-01 -4.8658097804974204e-01
      2.3935063053655764e-01 7.7794612139588859e-01
      5.7742020645296122e-01 -1.7304311426498353e+00
      -1.0387676913679349e+00 -3.2490887540879193e-01
      -5.5703403319234968e-01 -3.8385909823616404e-01
      1.3800301490030209e+00 1.1025335337647121e-01
      -6.4814313594659378e-01 -1.5175751073699761e-01
      3.6931123135727617e-01 5.1287733020566040e-01
      2.6024613510502725e-01 -5.1085639489421875e-01
      -1.0759902360494660e+00 -6.6900094973150437e-01
      3.1313101809582444e-01 -2.2454367092963909e-01
      1.1326485054295419e+00 -8.3994651522279251e-01
      1.9327814746385838e-01 6.9246937357786065e-01
      -9.3198170188060564e-02 -2.5800026082576116e-01
      -1.5276377669073621e-01 -5.1582982592697280e-01
      2.5110517245956826e-01 -3.0684076659515774e-01
      -6.6988264585691359e-01 2.6786043824037481e-01
      -7.9141052565023406e-01 4.0390194418096492e-01
      -8.4301689640538899e-02 1.2788761580144501e+00
      1.0102215641855439e+00 -9.2285051528610740e-01
      -1.2398373099126452e+00 4.8328596516711914e-01
      -9.8135222383697163e-01 4.4875387638173542e-01
      1.2018009095881426e+00 -1.6331381668170686e-01
      -1.6943362430912179e-01 2.4298049393934387e-01
      -5.0979150758670966e-01 1.2483976334706490e+00
      -7.4524853541716207e-01 -1.1143745408297288e+00
      -3.0487548502037820e-01 -4.2977841376937320e-01
      -5.1434345619118726e-01 -4.6097118077697691e-01
      8.0256328500540919e-01 -8.4579419206671635e-01
      3.0579544681234133e-01 -9.1953204375673447e-01
      4.7263464609960765e-01 8.7866388113002469e-01
      1.0654767838799679e+00 -1.1081880027376312e-02
      -4.3890199561432131e-01 1.3218694516453741e-01
      1.9174154529384760e-01 2.2968027716111581e+00
      2.7875001045543413e-01 5.7395289545712502e-01
      -1.4388656422377266e-01 -4.0926869381400555e-01
      -1.1894368987746211e-01 -3.5738328038466988e-01
      1.8556411303590215e-01 -3.7082606566085724e-01
      6.8564073736996967e-01 -7.2321998522304776e-01
      6.6808068689162470e-01 -5.5100530027671724e-01
      -5.4374865393210292e-01 1.0245342639856819e-01
      -4.7241262359427311e-01 5.4872487080469678e-01
      3.2162733997598092e-01 6.8753702670363348e-01
      3.6578557354364445e-02 4.5923859801021255e-01
      5.3226964417124389e-01 9.1186581154278001e-01
      -7.5443652117726900e-01 1.0330434516225018e+00
      5.1977064347215818e-01 -4.7743824793182721e-01
      1.4928383432118220e+00 2.8361680852112775e-01
      2.6410550944450737e+00 -1.5266387722227823e+00
      -5.2922510397700140e-01 2.1403195937592651e-01
      -4.4634629908847373e-01 -5.3806283881220596e-01
      5.9425993246246200e-01 -4.3112678934333681e-01
      -8.8979870219303720e-03 2.2814254565177933e-01
      3.9390091185210674e-01 5.4913299868552079e-01
      1.3810371700389529e-01 5.3029168010597572e-01
      5.7527019743021979e-01 8.4925859799884063e-01
      -1.5756935265825506e-01 1.7139247501622187e-01
      -1.5357982719031629e-01 1.8808413251835479e-01
      5.3980242798607669e-01 -8.1301332831311923e-01
      2.4582422096506491e+00 1.4563465784443557e+00
      -2.8037577609682307e-01 -5.9766744732309218e-01
      3.9247918827986816e-01 -1.1798318994536054e-01
      1.3954738467300931e+00 8.7267884576441779e-01
      -7.9048830279678262e-01 1.3783993309035401e-02
      -5.2192432826933532e-01 5.4743693277097016e-01
      7.1428265233724575e-01 7.1716465123238127e-01
      1.8593080969932872e-02 1.1449397922175822e-02
      8.9204783548001254e-01 1.3308090213783772e+00
      -3.9878080997763360e-01 -3.9699839525378305e-01
      7.3450862715283116e-01 -1.2491380796661589e+00
      6.4818145246594161e-01 4.3837336907453411e-01
      -1.0349766874460069e+00 -1.0094514922516056e+00
      -9.2657621261121689e-02 1.9870754229646018e-01
      -2.4171786127866232e-01 -1.2327653386997812e+00
      -8.7984972753406010e-01 3.5003668205964927e-01
      1.3292868970333251e+00 4.7115234053991711e-01
      -1.1477765345498686e-01 -3.4918165697519454e-01
      2.7016775265457321e-01 9.8247191625878960e-01
      7.7201400862087377e-01 3.9815740459448962e-01
      2.4442890482982491e-01 2.5416729013114148e-01
      6.1999561016611437e-01 -6.2853928897477673e-01
      1.0408533618560063e+00 3.1954952830675704e-01
      8.1558054412281800e-01 3.6764089369882824e-01
      8.4019669215028714e-01 8.9957269221279634e-01
      3.1726231492364965e-01 1.6138078461471111e-01
      -8.2231026838320398e-01 1.1854176718589393e+00
      1.0539179289279683e+00 8.0309742187660738e-01
      -8.4214587169606628e-02 -3.4300182885584801e-01
      -2.2969179842956006e-01 -4.2450323020280828e-01
      1.4138068262784109e-01 1.2943930722484862e-01
      -4.3376772700522270e-01 9.5431634101199458e-01
      -2.0453247568509228e-01 -9.0445213136836744e-01
      3.9895099383568849e-01 -1.6705670799599900e-01
      3.2061203939222865e-01 -1.5037608015640747e+00
      -3.0288695433527141e-01 8.4153695902822534e-01
      2.8867837800728469e-01 -3.4467674017620042e-01
      -5.0161058130044711e-01 -1.1992263226759198e-01
      -3.4941528935682264e-01 1.4476344108344199e+00
      6.5498406234037909e-01 6.5773403071764247e-01
      7.1943064223899145e-01 -1.0174707595492711e+00
      3.6012905639124326e-01 9.3513584905778838e-02
      -2.4972185344504139e+00 -2.2145639388289762e-01
      6.0254118940638512e-01 4.5606197042792840e-01
      3.5223771034498846e-01 5.5118135151723802e-01
      1.1500160237327841e+00 -5.8581983899325552e-01
      2.0313912063601159e-02 1.0048213028078625e+00
      7.7869054816017969e-01 3.7289840267412983e-01
      1.1504150120211293e-01 -4.4825358259314713e-01
      4.1965211346570652e-01 -1.0187776797144570e+00
      2.9218462273379703e-01 5.5529437826721522e-03
      3.9010290796870362e-01 8.7054052525010561e-01
      -3.6120362774950732e-01 -1.2815185483307607e+00
      -2.9265606708668068e-01 -8.7134007039872896e-01
      -1.4193385115913729e-01 -4.7874519748167926e-01
      -7.4339051950079379e-02 -8.1914706794849246e-01
      2.7021822406936108e-01 -7.6471032425399932e-02
      -1.7414544235209584e-01 -1.1586533532681800e-01
      2.5076219269669259e-01 9.0769611117851889e-01
      -1.8065931718548167e-01 -2.8083108497546683e-01
      1.4499782983180629e+00 2.7562945051548110e-01
      1.9572909508732186e+00 -3.1398069306077092e-01
      2.2193149364946976e-01 -1.2694342323874500e-01
      1.7401485297672337e+00 -6.3804516285241464e-01
      2.1947424714408164e+00 1.0721258104680707e+00
      -4.5592104261262345e-01 5.6063556288948813e-01
      -9.8660907402436548e-01 6.3850611977373062e-01
      3.0311514303661963e-01 1.0552136853655867e+00
      -1.0757845182101828e+00 4.6293491079235477e-01
      6.6335593150169403e-01 -3.7017347904393483e-01
      1.1482578085558428e+00 9.2033049237692521e-01
      9.4917786621284764e-02 8.7348917205022869e-01
      1.1874346521418930e-01 -8.8798175102602437e-03
      -2.1597216925447180e-01 -4.5899539558730407e-01
      -1.3749096912912562e-01 4.4851177135821779e-01
      1.0464130826753901e+00 -5.4353774756815620e-01
      -1.0365182088056381e-01 -1.1289402435511402e+00
      -7.2316657988698418e-01 1.0523006872988652e-01
      9.8067589164640456e-01 5.2149834612774067e-02
      4.1185926689429184e+00 8.9668769220273659e-01
      7.3839103510894888e-01 1.2402303433735237e-01
      2.2850881479721022e-01 -2.9130641238664279e-01
      2.2107867014938890e-01 5.8613193362230154e-01
      -4.5977171595063165e-01 3.4426512885056981e-01
      -6.3873776451087397e-02 -2.7055486429020337e-01
      1.7327970657580800e-02 4.2000719226109318e-01
      -1.2425774586804650e-01 5.1135803424208892e-01
      -1.1911285939190666e+00 -3.6571487661105845e-01
      1.9791167735923887e+00 -5.4365479756817825e-01
      -7.8706386842632536e-01 1.9903530541581980e-02
      4.3503956296503587e-03 -2.4893180428438638e-01
      -8.8281777576533382e-01 -2.3597895233600436e-01
      3.6700949618620626e-01 2.4567763333533399e-01
      -4.1451287835830541e-01 -1.2467091339315397e+00
      2.4636034614635111e-01 -4.5214954826681358e-01
      4.6957125015014139e-01 -5.7165385225735532e-01
      4.6632213043689447e-02 -4.9274572080644741e-01
      -1.0348459302271469e+00 7.2189264520106000e-01
      -3.6832354882970192e-01 -9.8843888610182548e-02
      8.2133949522492633e-01 2.2629379659675913e-01
      -2.9834763110228746e+00 -3.6159300285530160e-01
      -1.9109740073046116e-01 5.5890445927760035e-01
      -2.3101748103659536e-01 4.8282366376146901e-01
      7.0431094330737032e-01 -1.1431997629448507e+00
      -9.1840907981773512e-01 6.6701175746358449e-02
      -3.6510850057346958e-02 -1.2522647020992348e+00
      8.0617568759483316e-01 9.5597979960804236e-01
      -8.8808394826356230e-01 3.0978529461093290e-01
      7.6538998969797112e-01 -9.3215033198221564e-01
      1.1793918387666637e-01 -1.4956913302771548e+00
      -1.0781338259038593e-01 -2.4382429552195528e-01
      -1.2857186785440394e-01 -1.2953222371265657e-01
      1.4924831088338758e-01 1.8453785583989848e-01
      8.0295994710686414e-01 -2.2214717209836490e-01
      7.0460915395211973e-02 -5.8876713882394582e-01
      -1.1891315601866659e-01 1.9041793952226126e-02
      -1.1131483975936682e+00 3.0761454362827279e-01
      -3.9443041500703618e-01 -2.3511696114435393e-01
      1.3402876397803893e+00 -5.9910580912578941e-02
      2.2873019520606697e-01 6.4594106385520911e-01
      -6.0905965844828680e-01 -4.8465530321255229e-01
      -4.9654793860184632e-01 1.3887654219730755e-01
      -3.8706413661562744e-01 3.0040255371066169e-02
      7.7039069378964364e-01 -3.7174880664324156e-01
      -9.8328231931491217e-01 2.4475936763208350e-01
      5.7080329201796587e-01 -4.8768270171449052e-01
      2.2811951190499005e-01 9.5292965989833178e-01
      2.6316654519526161e-01 4.5413267410542191e-02
      -1.7988409953368401e-01 -9.2925276863908043e-02
      -9.1063093181235599e-01 -5.5148027117712983e-01
      -1.8372782589248404e-01 2.3818991487223315e-01
      -6.5899507522620215e-01 -2.7195834712731598e-01
      4.3811922835083988e-01 -1.0212110137575496e+00
      1.6626780953613424e-01 7.5371387874727191e-01
      1.3907351249018260e-01 -9.2451998250848755e-01
      -2.6316741524719522e-01 8.6440810017978403e-02
      -2.5520959434246699e+00 1.6582345938035301e-01
      -8.8248649020163705e-01 -3.3493789921581252e-01
      2.4075199807967240e+00 -3.0188390705448046e-02
      -1.5448922822614791e-01 1.3506097108132005e+00
      4.7381406198668335e-01 5.1904375526357438e-01
      -8.6604677582087869e-02 2.8842635048021309e-01
      -1.2362897650364373e-01 -6.1238862892377899e-01
      -6.0560397597313598e-01 -1.9333694361787177e+00
      -2.1639180625711232e+00 -7.9664605002157196e-01
      1.1141650543297447e-01 4.0585402000879628e-01
      7.7414195124692942e-02 -5.2506521032035391e-01
      -3.6927668117972434e-01 6.6381696588528005e-01
      -4.7693196663198889e-01 3.3169967482136198e-01
      -2.0804764436027182e-01 3.3805827954370837e-01
      -8.6873961125817523e-01 1.0486469598921917e+00
      -1.6045331610855174e-01 1.2035076173891444e+00
      -2.1118499876391603e-01 1.4514531202703880e+00
      -3.2082718106192587e-01 1.2519271632842812e+00
      -1.1731477153922321e-01 8.6866136970198193e-01
      5.5748348718400276e-01 2.2761535739195124e-01
      -2.7732477770161243e+00 4.7472295728508923e-01
      -3.0182893236168989e-01 -2.3232704457958847e-01
      2.7114386788954117e+00 -7.8549671891812212e-01
      4.3350258269924247e-01 1.3517419018762484e+00
      -4.9988096507217472e-01 3.9535461174763598e-01
      -6.6801692670953472e-01 5.6036269395125471e-01
      -1.1980366507665859e-01 -6.3682800206901857e-01
      -1.7212805095930068e+00 -1.6863105048004003e+00
      -1.9640406576053449e+00 4.2208528414101448e-01
      -7.9924634166489850e-01 -5.0342649943294926e-01
      -8.8651717441509092e-01 -2.8519251130434413e+00
      -1.9841495783516847e-01 -3.3061705799245217e-01
      -7.7515788170298816e-01 -3.5941343740463962e-02
      3.2073943061466097e+00 1.8936498095058996e-01
      2.9917486295315241e+00 7.9068416373362960e-01
      -4.9186951981726884e-01 6.7376925740549465e-01
      -2.9839816866947082e+00 2.6644536677169985e+00
      6.7664971587047407e-01 7.6771369056163427e-02
      7.2880565969102751e-02 -2.1458545129755202e-01
      1.7885871901185089e+00 -9.9130613764246769e-04
      1.3017977826460012e+00 4.9851868080146522e-01
      2.6482329786476004e+00 -1.0073985339926664e-02
      -2.0172181631464863e+00 -1.2000790023630694e+00
      3.8170961669482512e-01 1.4003188773050701e-01
      -6.6369211247807458e-01 -2.2147169644981451e-02
      9.5522860535540843e-01 -8.4746921115793716e-01
      -1.1262768227596767e+00 -5.7986499739729980e-01
      -7.5383252252283595e-01 3.0634806311375171e+00
      1.1395492285043385e+00 1.6819372736802194e+00
      -5.4851369130573480e-01 -1.5711866755173525e+00
      -8.1459107217733606e-01 3.5974523510337392e-01
      6.4475621278620387e-01 -8.0257886015187485e-01
      6.5302553760210214e-01 5.0017571691017015e-01
      1.8494305322851161e+00 -2.8416493747765609e-01
      1.7848767231663278e+00 -2.1255206416085404e-01
      1.8792613922041150e+00 1.0311620169034090e+00
      -1.8282344601537812e+00 1.9876381023927823e+00
      6.3045795735735422e-01 -3.4392217359445465e-01
      1.7364202575803689e-01 3.6352557829705556e-01
      1.5051673544221040e+00 -6.1654653853718189e-01
      1.0931899696019485e+00 -5.4027897152013747e-02
      3.3334183573109488e+00 2.0219941643616271e-01
      -1.9433731910711891e+00 -1.0774141660826984e+00
      1.1324152297255501e+00 -7.7801222685728677e-01
      4.7062328964387096e-01 -4.4117556701452260e-02
      -4.4672624258125793e-01 1.0142035499587834e-01
      -7.4483706479742862e-01 -4.0807237843666694e-01
      -7.8730186247211009e-01 9.7920870189682796e-01
      1.3023027326041254e+00 4.4908682707601744e-01
      -2.0923094700533107e-01 -4.6325013525217501e-01
      4.8425631114841156e-01 1.4095614631708864e+00
      -7.3252456388307274e-01 -5.9619993241262637e-01
      -4.6284503026688073e-01 -6.2117284150551055e-01
      1.0850233653728437e-01 1.2157366575213637e+00
      -1.8324151775443640e+00 -5.1283790597999901e-01
      2.0260841912286756e+00 3.4404290275758703e-01
      5.8967805619658398e-01 9.8912822162593339e-01
      7.0795539804437291e-01 2.5901986505430896e-01
      -1.2933863952870048e-01 6.2299249100726295e-01
      2.6123546476461468e-01 -1.1090207761085962e+00
      -8.9840954214300073e-01 6.8219185462050513e-01
      -1.4519323791344123e+00 -1.2646031967610702e-01
      -4.0671515521996704e-01 -2.4336917677583503e-01
      -1.0909627076241319e+00 8.2971225067865906e-01
      1.4521320112564458e+00 1.3564281902369213e+00
      -1.1114578197372391e-01 1.1727506067422824e+00
      9.8200417007128116e-01 6.7538168309213020e-01
      -6.2824944958097961e-01 5.6595671544042481e-01
      -1.3372597138546882e+00 -1.0152764072223106e+00
      2.4134971346999584e-01 -9.3726387968849556e-01
      2.2877103818793265e-02 -7.1101755883026485e-01
      -4.6815652098527610e-01 -1.0368507235323050e+00
      1.1009901660753761e-01 3.4219315466772338e-01
      -9.4337314202350653e-01 9.0457511279563474e-01
      -1.4202350928388798e+00 1.0240741480011046e+00
      -4.4583058360442207e-01 -1.0192851198979023e+00
      1.6839845166227123e+00 -8.1072288092900391e-01
      -3.7083925590060615e-02 1.5720838150987329e+00
      6.6403167211244452e-02 7.4430641947303533e-01
      -6.1418012743394113e-01 1.0562114459953542e+00
      -1.4198798443517013e-01 8.6875284532258734e-01
      8.5172823652136923e-02 7.9505812702984707e-02
      1.1594347943243515e+00 -9.1206475937901321e-01
      -4.6895891210999702e-01 1.1859982912424889e+00
      4.7245868579916528e-01 -6.1503090950408110e-02
      -1.5857679172597205e-01 8.0867145623709913e-01
      1.3700200541186813e+00 2.2676567950024162e-01
      1.0536778468960707e-01 1.0693827188720104e+00
      -1.9175953153296978e+00 -5.1646102879992428e-01
      1.2171413670559143e-01 7.3444680863148495e-02
      2.6374216044589632e-01 -6.8175018604524351e-01
      3.3882661184922219e-01 -1.4645296914948513e-01
      7.3633925297209427e-02 -6.2617329870009808e-01
      -9.7755893588298937e-01 5.4374629159833643e-01
      -1.0741023173462945e-01 -3.4330772189625314e-01
      3.5901142168562628e-01 -1.4238595928254841e-01
      -4.7347298715630953e-01 8.0147739613663338e-01
      8.5279307968636220e-01 -1.2080753290531385e-01
      3.9737812399957974e-02 1.5889658551425020e-01
      -2.3175265901904274e-01 1.2673625669188293e+00
      2.7073127884265230e-01 5.2966972505412802e-01
      1.6620504316432003e-01 9.4474261926726888e-01
      1.7079628317480493e+00 3.8485244397996227e-01
      6.5474520284139603e-01 -1.2812066205740530e-01
      -6.4444310309118635e-01 -2.7599918684824054e-01
      3.9848963428071243e-01 8.2894371263014566e-01
      -4.4399461693607790e-02 -2.4185696173034632e-01
      2.4195855496699603e-01 1.8001631062867967e+00
      -7.7105535531571290e-01 -1.4756904923724676e-01
      5.9879250293384811e-01 3.5312817726106205e-01
      -3.1875338477686289e-02 1.4856541911775347e+00
      2.5456217324491326e-01 1.0972694950920513e-01
      2.5039394036468234e+00 -1.0848688677176461e+00
      -5.7678093138481337e-02 -3.2205025112303262e-02
      3.2537918542684854e+00 4.0331836899183615e-01
      1.0165445943122451e+00 9.4860953013459509e-02
      1.3421666940462709e-01 4.2073376212241476e-01
      -2.5170266282233311e-01 -1.5807352891207685e-01
      -2.3217754790423495e-01 5.8708168650530268e-01
      -1.1862187378185429e+00 1.7778352554220930e-01
      1.3792814677496640e-01 -2.4653818015300094e-01
      -1.5098510886307517e-01 1.2178135224218477e-01
      1.3179878178290910e-01 1.2483467493147591e+00
      3.3712301401907757e-01 2.3495261144884383e-01
      -7.1965107902545261e-02 1.3496176609001891e-02
      -1.4496701597281961e-01 1.5228388923935143e-01
      -1.8479629407423193e-01 2.1678300848706883e-01
      1.0109746375290187e+00 6.9151724744755383e-01
      -2.2078312514829905e+00 -6.1949169741424337e-02
      -2.8763126249313253e-01 6.7564811336002484e-01
      5.4846471400343537e-02 2.9997110708690122e-01
      -6.7549598156061263e-01 -8.0352733166658097e-01
      1.2265603224426351e+00 -1.7094436473424490e-01
      -6.1482221839673024e-01 -2.9203489893139245e-01
      5.9065293076377490e-01 -9.9050222189660322e-02
      -6.3694473952484021e-01 -1.5649321447797238e-01
      2.6316187380642936e-01 9.6000885721027707e-01
      -4.2004755538655059e-01 1.6928491019136305e-01
      1.6471804356170511e-01 3.5190991781358177e-02
      -2.1994937179179358e-01 -1.7997827169705510e-01
      6.3032949305171926e-01 8.4384494187341363e-01
      -1.7386084549177097e-01 1.6467638762922948e-01
      4.7649523961962209e-01 -5.9151869941344554e-02
      -8.5751997662123713e-02 3.7719630418561961e-01
      -3.3889828995187412e+00 -1.7166209003404262e-01
      -2.8557279874211838e-01 2.7537777186540319e-01
      2.1421683897645225e-01 5.7565923826785059e-01
      4.6682923447036978e-01 6.9229782909837917e-02
      -8.0017719712279356e-01 2.6273471136910953e-01
      2.0573885816386431e-02 -1.8229636580405599e+00
      1.3697610926101794e-01 2.5181291946427032e-02
      -1.5013437534770430e-01 -4.1319031028025155e-01
      -7.6132090207716119e-01 -8.5659767259772668e-01
      3.5100247172098986e-01 -1.0879744090800554e+00
      1.1252847562564381e+00 4.4752914948582095e-01
      -1.0725950045861479e+00 1.7532200576860918e-01
      2.2959746015793162e-01 8.9607247211522156e-01
      8.6880101145078004e-01 2.6144415903498580e-01
      -1.7834262494968117e-01 -2.3351099256366100e-03
      -1.3426745959801861e-01 6.5243519017063420e-02
      -1.4876204195829723e+00 1.2713399023810625e+00
      1.0148336954068988e+00 -9.6710452515056146e-03
      8.7106666980331338e-01 -1.7109992147015832e-01
      9.4035886735751945e-02 -1.9129574956419568e-01
      -2.2803395370418766e-01 -7.5143814958813826e-01
      4.6695330323406836e-01 -2.2910096842834321e-01
      1.2189292383944275e+00 5.2202096084105731e-01
      1.2986635826725570e+00 3.9034789725307534e-01
      9.8223173076319947e-02 -3.0051676937963256e-01
      4.6048295679781981e-01 -7.4953349522653845e-01
      2.2229573007364245e-01 -1.1869653358767678e+00
      5.2039840375667623e-01 4.8328094994034376e-01
      -4.9163198449606610e-01 -4.4617701138646337e-01
      6.4465353887584631e-01 2.4889237847548590e-01
      3.7044336217629809e-01 2.0476888611567751e-01
      3.0741765370073393e-01 5.6113472161877853e-01
      4.4255949548167486e-02 -1.0333179505415076e-01
      3.0411078638818090e-01 -9.3113163037661886e-02
      -8.6811114982866186e-02 -4.6424816503010730e-01
      2.4625465737589952e-01 -2.1022204344925265e-02
      -1.2312582868475141e+00 4.1047980527742223e-02
      1.0506668585901515e+00 3.4376523411860604e-01
      -1.1715253644473154e-01 2.5158623866191543e-01
      -4.9489652202060655e-02 2.0408405829386264e-01
      6.2692096753811410e-01 -1.5928515924982339e-01
      6.2404541075243602e-01 5.2315138488813995e-01
      1.2614367319383684e+00 -1.7761879653250978e-01
      -1.6724942527048184e-01 -1.2887619763162685e+00
      -4.2060077258688333e-01 -6.6377866349848047e-01
      3.6297969689371150e-02 1.9895397030031750e-02
      2.9000567152656204e-01 -1.6705024923931926e+00
      -1.0536143727422842e+00 1.6368283596377962e+00
      -9.0735392308605473e-02 -9.2498310086081559e-01
      1.4354252507409155e+00 -4.7615091617864197e-01
      -1.4082989973970668e+00 1.8733626065653514e-01
      1.2238936332992565e+00 1.5913336741291602e+00
      -5.4260157862191849e-01 1.2941406132800410e+00
      -6.8941904265253399e-03 -3.6668943530305947e-01
      -1.8847469084927104e-01 3.4348212286575441e-01
      -1.0940254806243648e+00 1.6989853189181175e-01
      5.7065728134812943e-01 1.0455295802165303e+00
      -6.5956142502199766e-01 -6.7384614552553027e-02
      -6.4945284416936963e-02 -1.0063371492052421e-02
      -1.1099888725768927e+00 -5.4252031783819532e-01
      1.3139354274123807e+00 7.4304364613348217e-01
      5.4827195626773584e-01 -8.3330775337464608e-02
      4.2930859719893116e-01 -6.1646426177288438e-01
      -1.0401394930545094e+00 -1.7117049529860678e-01
      -6.3368585467344618e-01 3.9751521023315345e-01
      -3.8034942854509851e-01 8.0684707515146459e-01
      -1.2291073611119571e-01 -1.6812426989974108e-01
      2.4998846331890576e-01 -1.3305922739164691e+00
      6.4618941240616035e-01 -2.1145325169893363e-02
      9.8488078967450077e-01 -1.8991491786638917e-01
      -9.9111385258530504e-01 4.1282678680035967e-01
      6.6619298932819582e-01 9.7149862530765396e-01
      2.7694538551157183e-01 7.7239060449311270e-01
      -9.0039478121782673e-02 2.6033231161087693e+00
      -1.5453189562479644e-01 3.8331395967109627e-01
      4.4109696361145795e-01 7.4193411867835721e-02
      4.6001610046782654e-01 1.9578381634051614e-01
      2.6730439074780312e+00 -4.6513473258890006e-02
      5.6133888757953410e-01 1.9873438658181228e-01
      -4.0254222432126369e-01 -6.4109607021056697e-02
      -9.3046240767935939e-01 -4.7792116922248445e-01
      2.2012697784780930e+00 -1.0125253895614077e+00
      -1.5401602703194153e-01 -3.8724335076126305e-03
      -1.6531790884369346e+00 6.5227954736329774e-01
      4.5026935083200414e-01 1.9358668473336119e-01
      -1.2860718418463923e+00 -1.1152169122470443e+00
      -8.5144205254302030e-01 2.9564097747295720e-01
      -4.9417499865978848e-01 -1.6070685783939904e+00
      1.3085083983970933e+00 8.0834417023322735e-01
      8.9254398324306417e-01 5.9641328955429973e-01
      -3.2403851694064262e-01 1.4107149580524410e+00
      3.8926312597703550e-01 2.2355077731215045e-01
      4.9285306544678625e-01 1.1651762431193786e+00
      -2.1588240919123709e-02 7.0718672777648650e-01
      -2.7925827000541026e-01 -1.8313921017122764e-01
      -2.9753281799984149e-01 1.4346387774455647e+00
      -1.7090462073661785e+00 -2.0093382449794117e-01
      2.5153367975243368e+00 -1.7959540479107758e-01
      1.8284095567171110e+00 -7.3324801327533706e-01
      2.5534615620302925e-01 -5.3821109054623983e-01
      -3.7392807999490518e-01 4.9824269778960600e-01
      -1.8630981330845087e-01 1.3080422595094626e-01
      1.4208831374841360e-01 7.8199946895313358e-02
      -6.9930774265201590e-01 1.1430800164710102e+00
      1.8467552526028286e+00 -8.9778063471992642e-01
      -3.4736001307251124e-01 -7.0682352534219728e-01
      -8.5832024267631846e-01 -7.4667434450460035e-01
      -4.8452296427029057e-01 4.0959485792845668e-01
      5.0798081983765186e-01 1.1195139257879128e+00
      -2.0070464150568825e+00 -1.6230384026588163e-01
      1.1295039710358017e+00 3.0549635914554074e-01
      7.3100411167842150e-01 1.4016795409712575e+00
      -3.0115903587933962e-01 1.6316129025654607e+00
      2.0844254413341295e-02 -1.4065297653201674e+00
      -7.3350850987497898e-02 -4.7327649484141643e-01
      -1.7552390401001353e-01 -2.7717910987962391e-01
      1.0392373686525822e+00 4.7597904267028235e-01
      -1.6610621360285582e+00 -1.0864777948313236e-02
      -3.7156013241750795e-02 -5.9782838292427176e-01
      -7.7843910635085467e-01 3.6758654708760580e-01
      -2.0292661831948138e+00 6.8710978345269269e-01
      -7.8509909404857725e-01 2.0227277214656709e+00
      2.9023468823464543e-01 4.9881915148112527e-01
      -7.0709450451704070e-01 -7.9355177749365480e-01
      5.7267414790386029e-01 6.6998166432169692e-01
      -4.7666950381817547e-01 4.2185510088658179e-01
      -2.6915181040238317e-01 -9.7475075840474457e-01
      8.5658010896855930e-01 -2.5196086214611235e-01
      9.4880298354082362e-02 6.6927415339170571e-01
      -1.9284025856240525e+00 -1.0109209908914529e+00
      1.6233062032186316e+00 -3.8935675439480649e-01
      1.8302391423715603e+00 -8.7271390881617827e-01
      2.3663830454676957e-01 1.4395234515319397e+00
      2.7202555851168947e-01 -1.4961775994563306e-01
      1.0817425987269191e-01 -8.9815239028790894e-01
      -5.5850001858815979e-01 -5.7878332573175828e-01
      2.1158336892130132e+00 6.8395576741108050e-02
      3.9943511667149589e-01 2.7715316621188013e-01
      -1.0508436635798359e+00 -6.3471253517236925e-01
      2.0352845858977625e-01 7.6946712725352528e-01
      -9.4633466218843798e-01 -2.3290472710449014e-01
      -8.6610890662500095e-01 9.1018583701078171e-01
      5.8047031843415331e-01 -2.0704113332115029e-01
      -2.4708916828935146e-01 -5.6610509507697204e-01
      5.1780474706333213e-01 1.0816916477201126e+00
      -1.7026152453829368e-01 -7.9858268987546066e-01
      -1.2524645059762493e-01 -8.0299226298343984e-01
      5.4030469517803448e-01 5.2313286110135604e-01
      1.2037559104076744e-01 -5.8487936269866170e-01
      -9.9452805196544436e-01 -5.2129828473143824e-01
      1.1324522991170718e+00 -1.4705197087298721e-01
      7.4322844564009127e-01 1.7641180975869997e-01
      -8.6094899263588887e-01 9.0351735227996710e-01
      5.9393659702399104e-01 -4.4780149772757405e-02
      2.2441573860174999e-01 -5.5009131359409769e-01
      -3.0217057697808011e-02 -8.1571039898892761e-01
      6.7218959791504684e-01 9.1316540824427628e-01
      -1.8530891519264464e-01 1.6829299752113688e-01
      7.7242863664626982e-01 1.5053593007715671e-03
      2.6166035430270237e-02 4.4563840538566729e-01
      -1.0502076910690958e+00 -1.6962317823615847e-01
      -3.0494593881850268e-01 -2.0693130886669142e-01
      5.4349128733026519e-01 8.2386006757938823e-01
      8.3791722150372255e-02 6.9910116899793517e-01
      7.7819306135220334e-01 5.5036589062118779e-01
      2.3614016368541124e-01 -8.4872149123104229e-02
      -1.7856020797891564e-01 1.3465056968275730e+00
      1.1820622399256182e-01 -4.7180541932840925e-01
      2.4607328600418641e+00 -1.0981032364657735e+00
      -1.8034458946777565e-01 -3.2526393237798865e-02
      2.9768381314732411e+00 2.6150524017879773e-01
      7.8379416165834837e-01 9.8465914008242797e-02
      1.4452501817185304e-01 8.9739640214078542e-01
      -2.5532066355009148e-01 -1.6277820310230540e-01
      -2.5139659177611756e-01 6.5985572586022945e-01
      -1.2075462907869188e+00 1.1013316408919632e-01
      7.1510185448254182e-01 -1.1374804101829258e-01
      -1.6774069719200838e-01 1.5003954125896088e-01
      2.3508628685312305e-01 8.9133022603490475e-01
      3.8592308241801848e-01 2.1440687905750608e-01
      -3.5937997507505731e-01 2.1010045627302368e-02
      -6.9141174312844902e-02 4.2121616559330649e-01
      -8.4722766193710830e-03 2.2796362517549990e-01
      1.0326173170135160e+00 8.9810550085523799e-01
      -1.9075862455212822e+00 -1.9148466233000906e-02
      -2.8938501202572042e-01 5.5615923974930115e-01
      9.2793433545425505e-02 1.2046876909503139e-01
      -7.6300984800228555e-01 -2.6190721156698760e-01
      7.0981928191694599e-01 -4.1024841167577458e-01
      4.8296438306351858e-02 -3.2788912623102245e-01
      7.5935007242786556e-01 1.7515619426761575e-01
      -4.5339147206575614e-01 -1.7924803920873017e-01
      1.0193827708112828e-01 3.3156822735970420e-01
      -3.0248205183074867e-01 6.4512489767607373e-01
      1.7091777051063842e-01 1.4932244307406212e-01
      2.3598105842458006e-01 -5.1689924264237153e-01
      9.9044014392891588e-01 7.5690906011448555e-01
      -2.1035374983369506e-01 -1.3881518060173090e-01
      6.5266371649388466e-01 -1.5945498098740793e-01
      -2.3081330494113764e-01 7.3633273023508994e-01
      -3.3744306879594355e+00 6.4883406602249975e-03
      -2.6135779682437124e-03 2.6860841260290247e-01
      -7.5747621404852777e-02 4.2712925058667506e-01
      2.8439416593384820e-01 5.9669043555776091e-01
      -4.5026557814074991e-01 -2.9964866908976154e-02
      -2.5993282868481193e-01 -1.8903994070831043e+00
      9.5238842288807662e-02 -9.0136285344346878e-01
      -3.0235345988362217e-01 -1.9881202181653390e-01
      -6.9294582657101556e-01 -1.2421291417592006e+00
      -4.8035066828641976e-01 -2.7164635651075913e-01
      3.4352405522731772e-01 -3.3755241670340841e-01
      1.0362529967116747e+00 -1.1722011425780450e-02
      -1.2903100124246161e-01 3.2479935876622040e-01
      6.8723051048173023e-01 -5.8970352216411281e-01
      3.9939040766984107e-01 2.6468735069027038e-01
      -3.0009920787977384e-01 7.2393302805900672e-02
      1.5806514556045446e+00 2.2009835801080696e-01
      -1.3282161134987764e+00 -1.1882478298843471e-01
      4.8944695153334067e-01 5.3135321947670155e-01
      -2.0817232645953421e-01 1.1624967940062192e+00
      8.3147041822813217e-01 -6.4466371366066344e-01
      -2.1636423799257704e-01 -3.7145502971891786e-01
      -1.0981700149838505e-02 2.5938504622067426e-01
      2.0876103460562376e-01 4.9757739942698631e-01
      -6.1608608299996659e-01 -9.5978445228392162e-01
      -3.4633004874407375e-01 -1.2444442929610473e+00
      -3.5942919122652200e-01 -6.1040795921080782e-01
      2.6699057214064958e-01 4.4463421476742726e-01
      1.9060004382889167e-01 -1.1688141353674057e+00
      5.7665136719306398e-01 -1.5469784448223303e-01
      4.2279257249067509e-01 -1.0029749090466806e+00
      -1.0027875884830645e-01 -1.8579096799507056e-01
      -4.7673908103391555e-01 2.0012762226731648e-01
      1.1547353147844468e-01 -1.9870575826041794e+00
      -2.8471582025428131e-03 -1.1870685306410398e+00
      1.2505733125990365e-01 1.0400916618617975e+00
      1.5932418621283466e+00 3.0349363672945034e-01
      -1.1032177114831256e+00 -4.0573322413376534e-01
      -1.3765070315487102e+00 5.5642212112283984e-01
      2.3564818752545472e-01 -3.6843956425160213e-01
      1.4582871227317546e+00 -1.2879288445099060e-01
      -1.9011852743112520e-01 -1.0034912203109451e-01
      4.2243082976553059e-01 1.8171801950485356e-01
      5.0200564610282750e-01 5.1281971869311804e-01
      -1.3181256561505492e+00 7.2676459688870348e-02
      6.4926236510462998e-01 4.5946297489781129e-01
      2.5494989982060384e-01 -7.9531873860947189e-01
      -1.5855716599456851e-01 1.7096392181145212e+00
      1.0093799131845773e+00 -1.8989745351004086e+00
      7.7230821772749036e-01 4.6793893728032387e-01
      -9.5472727836958954e-02 3.8597420315074737e-02
      3.2897067733127638e-01 8.1107761660090989e-03
      -1.0071124069298509e+00 6.6135644037773489e-01
      1.2944251884185770e-01 -1.9086248252709295e+00
      6.8990189552919179e-01 -1.5475098054306811e+00
      1.7037021968853989e+00 -5.1808659513084765e-01
      -2.8290521897357174e-01 -4.4737737776982012e-01
      -5.1699815236684044e-01 2.3927221806177104e-04
      -9.9125427354770002e-01 6.6728670798908996e-01
      1.3847102728587575e+00 -1.6978666142905169e-01
      2.9216435983047586e+00 1.1608233515224642e+00
      4.0860954159202817e-01 3.2628987988824226e-01
      -1.1847795366611018e+00 -9.0782890349452738e-01
      -2.5147148450690854e-02 -6.5423235859974038e-01
      -7.4467658057302155e-01 -1.0341244298050389e+00
      5.3254060677540516e-01 1.8327730296730602e+00
      -1.6253062057161400e+00 1.5571473161552403e+00
      3.7681559074725052e-01 -1.0824639327328651e+00
      2.4417385353865306e+00 -5.8787087707715113e-01
      2.2632120434639957e-01 2.7549707025467063e+00
      -2.3788534889996553e+00 1.4442616166845734e-01
      -1.8840854517483105e+00 -3.0924188830782973e-01
      2.5572816269454918e-01 6.0735809763786675e-01
      1.8734139968763508e-01 -6.0037970424091014e-01
      -1.9804388589182520e-01 -1.3536943382632638e+00
      -1.3225497386301037e+00 -4.9536184295648750e-01
      7.8339234250037382e-01 -1.0843273183279569e+00
      -1.5383390607138823e+00 -1.8384025246900601e-01
      7.5985762797158896e-01 1.2684329226986411e+00
      9.2514744298859941e-01 2.1883431950587302e+00
      5.2524625725929308e-01 -4.7886784331027127e-01
      -1.1485185256451411e+00 -4.5085499289846126e-01
      -2.1853020242177230e+00 9.0793830325826858e-02
      8.2912419281758465e-01 -1.0905321582570436e-01
      2.1531787162537985e-01 -2.7489129905967831e+00
      -8.3461452889141619e-01 1.7203527719338054e+00
      3.9730731106610750e-01 7.1371115247662542e-01
      1.5583169994144472e+00 -1.9180259563656654e+00
      1.4274965806627249e-01 1.0334990475956749e+00
      5.8738222907411808e-01 3.8284452442816983e+00
      -2.6190173746459355e+00 1.5391354045002728e+00
      -1.0462316389167425e+00 -1.0608307856571479e+00
      -1.0571534233044337e+00 1.6143038688258946e-01
      1.2139086044262065e-02 1.4017382379614499e-01
      1.9411884460304973e-01 -1.8857496372865932e+00
      -3.0352431465533276e+00 -1.2247672228439053e+00
      -1.8879292305181332e+00 -1.0108619457514414e+00
      -1.1767926002408544e+00 -3.0701907325426367e-02
      -2.1960847891089332e+00 -1.7656798684491845e-01
      1.5793115401417739e+00 1.5823756379573573e+00
      -4.2340288333430254e-01 5.1112496099178817e-01
      -1.4727793649140670e+00 -6.5539422287331861e-01
      1.1448126063324282e+00 -1.5161084386316220e-01
      1.5488544109119042e+00 -1.9440298190773107e+00
      1.1984182806617443e+00 -2.9958751551836738e-01
      -9.4332265078215150e-01 7.9524815066655186e-01
      1.3812487735963179e+00 -5.2724158625299633e-01
      2.1933395257904384e-01 -8.2376370097714646e-02
      5.7856341266860611e-01 3.7505211082402967e-01
      -6.5961155526021853e-01 -1.4316100088308028e+00
      2.5138617865117761e+00 2.0379661296969775e+00
      -1.1091957611357364e+00 1.7976302145830964e-01
      -1.8332207317037863e+00 1.3727146159185937e+00
      9.5966360921701938e-02 -1.8189231681386471e+00
      3.2606755274538413e-01 8.9538945648480761e-01
      -4.9437333686209917e-01 2.4189504905875225e-01
      2.0358987561336250e-01 1.3085527443843801e+00
      1.9030457168676304e-01 -1.7281587415900006e-02
      -2.2106344425412434e+00 7.0930963280817452e-02
      7.1733459476977779e-01 3.8271955018956400e-01
      -9.3526378186369585e-01 1.8153512657489124e-01
      -1.4462407752194801e+00 9.6537869060590575e-01
      1.2024996650021049e+00 -2.6390755850613573e-01
      1.1575341269470796e+00 -3.1377678880881295e+00
      -3.4914519205309152e-01 1.5715954659750053e+00
      -7.9898720424146297e-01 -1.1032964076096681e+00
      1.4950854494732193e+00 -7.5244944631026900e-01
      -6.0103432670632961e-01 6.6470112293647243e-01
      3.7774380471194474e-01 1.4905066514264556e-01
      -6.0216974243681276e-01 -2.7182052950085285e+00
      6.4277908448223309e-01 1.5257375873802764e-01
      -1.3386074992894170e+00 -6.9930254501148081e-01
      -1.0764444991064666e+00 1.7845968107620214e+00
      1.0652008664414638e-01 -2.7796766002641737e+00
      6.3399406324385010e-02 8.1013079636539170e-02
      -2.3637088056806088e-01 -4.6787197620677129e-01
      1.1735732864250104e+00 5.5904672739214889e-01
      -3.3164606338435526e-01 7.7526084255603853e-02
      -1.2587214305617205e+00 -5.4067582078838627e-01
      -7.1381111700606859e-01 2.9420119170514902e-01
      -1.5442569789157004e+00 -2.8047379103714937e-01
      -2.7238779436918759e-01 1.6016408521896117e+00
      -1.3483036150193026e+00 -1.2039035406777948e-01
      6.1997638650122877e-01 -1.3074081520461727e+00
      -2.8419642717921673e-01 -2.2285615556371915e-01
      -5.0980179604826248e-01 -1.8529846575389850e+00
      -5.0413341147080515e-01 1.4291792370809084e-01
      -6.0301049112404866e-02 3.6750656592683073e-01
      -4.1593658029802455e-01 -9.5744836773986752e-01
      6.4210749489363816e-01 -4.4128146668534829e-01
      4.3321511963749471e-01 -1.5743536430036958e-01
      -4.7079106872025278e-01 -5.5184120936433512e-01
      -7.1475334291001480e-01 6.4319853541418470e-01
      1.1386644170455593e+00 -6.5923810756750156e-01
      1.9777828338536393e-01 -4.4741562502754612e-01
      1.0956020734413743e-01 -2.7470315249742772e-01
      5.7649425632216877e-01 2.9912562154592742e-01
      -7.4919014089228997e-01 4.8183604100878585e-01
      -6.0053663265551627e-01 3.8870321463505525e-01
      -1.1083761917715051e-01 -4.9877701010800235e-01
      -1.8492615701081247e-01 -6.9136154392247828e-01
      3.9401160588585443e-01 7.2524549246950676e-01
      -2.0866567235216874e-01 1.3027837312890147e+00
      3.1689847766209300e-01 -1.4531209841827175e-01
      2.8516553614681306e-01 4.2742695987096119e-01
      3.5787114479591986e-01 -1.4111472374630931e+00
      -1.1994937350911872e-01 1.2098247812334404e+00
      9.7493254485806868e-02 -5.5305122271394211e-02
      1.7689278115363527e+00 -1.0427715873757435e+00
      -1.4750075944341642e-01 -5.0669524664699948e-02
      2.5554133848754299e+00 4.9097503597931047e-01
      5.8355357641270367e-01 1.2765226482589487e-01
      1.4729843322249545e-01 8.0484438333501029e-01
      -3.2402671792629817e-01 -2.3389535590822805e-01
      -2.8979872873304358e-01 8.7889556893170895e-01
      -1.1620792368191712e+00 1.3276513162545139e-01
      6.0044698172092759e-01 -3.8189915914863232e-02
      -2.1738199372423589e-01 1.6279732853708295e-01
      1.7863017827775413e-01 2.1503881799193034e+00
      1.2264102005135903e-01 2.6831830650338773e-01
      -8.4733553716313903e-01 5.3539678640311415e-02
      5.8528533615554623e-01 3.1515619712470311e-01
      -2.4082569507814164e-01 2.8078375796132665e-01
      9.5664405542203579e-01 5.4533397300900854e-01
      -1.4397980634409255e+00 7.4559003103134930e-02
      -3.7155627408282166e-01 9.3667634755588869e-02
      3.9317061911631407e-01 2.3982612195842923e-01
      -5.2392911226467531e-01 2.0966047047297093e-01
      5.1594078476272121e-01 -2.3244503400072083e-02
      -3.8330950923767199e-01 -2.8957374603639047e-01
      3.2210746950218738e-01 -1.0153743529416398e-02
      -1.2292279499202417e-01 2.3209919058865592e-02
      1.2243462175483540e-01 1.6699032845086503e-01
      -4.7384395869666429e-01 -4.8226697772529459e-01
      -8.7104187364675165e-02 2.6611277589471372e-01
      2.2529445416344090e-01 4.2170415289784817e-02
      9.0168462767359325e-01 -6.8046285561465403e-01
      -7.0339190078555169e-01 3.4570951059163485e-01
      3.1694102203129140e-02 1.5465329903071539e+00
      2.7526088535118609e-01 4.6731768280240704e-01
      -2.5261227373336963e+00 4.2740801928979798e-02
      1.1668192706639247e+00 1.2508810428912628e-01
      -2.7732330888983980e-01 4.4356640438450995e-01
      1.3947363258522363e-01 2.6048673968561120e-01
      -6.8896326420370732e-02 -2.6606251145476795e-01
      -5.9491277813369237e-01 -7.4279485275379187e-01
      2.1220017725903086e+00 -6.0778799185054433e-01
      1.3896447115180793e-01 1.5716992953541512e-02
      9.8341829140857595e-01 -1.7742508593403490e-02
      -1.2583447331408075e+00 4.8885559655586549e-03
      -8.1262848463366302e-03 7.8451314824861074e-01
      -3.8217188790686546e-01 8.9300018735286049e-02
      -2.1131009001961887e-01 -4.6609525837952009e-03
      8.0959263668606651e-01 -1.8252513369141762e-01
      7.3371208539078103e-01 8.3019997215925068e-02
      9.1214330071391414e-01 -5.1653425074168799e-02
      7.9823589512646498e-01 -9.4122274909049131e-01
      -3.3506676653147083e-01 1.0863943092997430e+00
      -1.0318441852027960e+00 1.0271382790030768e-01
      3.5979790319193794e-01 -4.1490511071290759e-01
      -1.2459058077115054e-01 -1.4416989261309365e-01
      -4.8600058969071308e-01 8.7142994649959082e-01
      -9.9521097347096921e-01 3.9892858333787161e-02
      2.2479788467015030e-01 -5.6544506558231056e-01
      -1.3422387773687430e-01 -5.4804820786969945e-02
      -1.0079969147409351e+00 6.2855183942867765e-01
      1.3915152960592181e-01 8.4426245894030527e-02
      -5.6262949743976631e-01 -2.1247271002684495e-01
      7.3327909261033802e-02 -2.4108913827222195e-01
      -1.2150170887872214e+00 3.6085189233121762e-01
      1.1763249443772539e+00 1.1312556771902498e-02
      3.5022754773878945e-01 -5.0136310871275780e-01
      7.4974432973959015e-01 4.2300567989920858e-02
      2.4595433477415804e-01 -4.3776851783521092e-01
      1.9188976621377851e-01 5.2936674712727827e-01
      1.3976885811003119e+00 -1.7495462115996494e+00
      4.3820691048743859e-01 4.9160922797466450e-01
      -9.1443677789563038e-01 1.1040731141319397e-01
      -2.0658111913790203e+00 -1.7068550549983610e-01
      1.0647137607199073e+00 -6.8527927761372218e-02
      7.6294533750624027e-01 -2.0284994409098184e-01
      -5.6207132667237114e-01 9.0033763796886812e-01
      -2.3412088355024854e+00 1.0172825754010466e-01
      -5.7373080469104318e-02 1.9194265032383612e-02
      5.7063746252887959e-02 2.3409035419718829e-01
      6.6197828791972335e-01 8.4556902614805729e-01
      -5.7614605587064804e-01 1.8060032016028573e+00
      -2.0575205940522243e-01 -1.4905418596113132e-01
      1.0006407232481773e+00 -2.3036444280017104e-01
      -5.1104041238939502e-01 -1.0617522703145346e+00
      6.2309039115266684e-01 4.4785266856761086e-01
      5.3520360087760632e-01 -1.3349773657527020e-01
      5.1410719590132214e-01 -9.6607945221861691e-01
      5.7900365025758882e-01 -7.0332689388293856e-01
      -3.5053956076715775e-01 1.0660999283679369e+00
      1.6801408540982701e+00 -1.8263511615281174e+00
      -1.4100577579723903e+00 1.7053578196858468e-01
      -2.2253608524164985e+00 -6.9156042522995301e-02
      -1.8965875216294574e+00 8.5859221158397492e-01
      1.4619680908882451e+00 -9.4453129001948888e-01
      1.9315943493145671e+00 2.5544497954368850e-01
      -7.5419814113635783e-02 -1.0794098302186719e+00
      -9.0470397852445716e-01 7.7717662757698910e-02
      3.6553937765331335e-01 6.8335959115170652e-01
      2.7609612446538828e-01 -2.0441034957036708e+00
      6.4228258226964974e-01 -7.4743584441950964e-02
      -1.1035961630087596e+00 -5.3633404482970970e-01
      -1.4816872548624413e-01 2.0066203792058313e-01
      9.4097216172444897e-01 -2.4756757043915537e-01
      3.1365688861269112e-03 -5.4100758675359784e-01
      -2.8010319062061879e+00 -2.0087065499754395e+00
      -1.3990288765443220e+00 4.1869486039966280e-01
      -1.2774143541890017e+00 -8.2800241690985565e-01
      -2.6809145082338320e-01 4.4358035996829820e-01
      -1.7388116146792221e-01 2.9657923173472973e+00
      -3.1035586987533179e+00 -1.7346196873738571e+00
      8.3066873171781563e-01 -1.4634449644030167e+00
      -4.0158633333164589e-01 -1.9678474756782435e-01
      2.8832153626868257e-01 1.3451507146357107e+00
      2.8344131614934126e-01 -7.5485396845396291e-01
      6.5108191766270318e-01 -3.7314260148633449e-01
      -5.2814221765536518e-01 -2.5035195076063305e-01
      -1.4397381604105861e+00 5.0489847442032743e-01
      4.6201125074299187e-01 5.3616692637130903e-01
      -5.3874026730425684e-01 -6.8656378430600129e-01
      -1.9382566264199280e-01 -2.2752844604668665e+00
      1.3604419908346050e+00 -2.7289510055992244e-01
      -5.5995847341685341e-02 -7.6432353373569384e-01
      8.3949478414546308e-01 1.7339124930494718e+00
      -3.1676940626166394e-01 1.7203096179913004e+00
      -1.1217515317822029e+00 -9.9275186455139908e-01
      -8.6810970274588461e-01 9.5620469388897056e-01
      -1.7061234059951389e+00 -7.1101201476463949e-01
      -2.0133982822895122e-01 -3.0690634550875823e-01
      1.3901923003150768e-01 2.9709559735697100e-01
      -2.1695158108716850e+00 1.3148052747881231e+00
      -1.5757753673250563e+00 -1.1319538168512391e+00
      -1.7808641766548070e+00 4.4141445890187161e-02
      9.0042908257105536e-01 3.2296439404251115e-01
      -8.0237096049793100e-01 -4.2883102526517719e-01
      2.3814569764526555e-01 5.9677314687038940e-01
      -1.0024342528847012e+00 -5.6508947389464004e-01
      -1.3704562528260189e-01 -3.0390357560166109e-01
      7.9349444188438867e-01 -8.2225226550988351e-01
      -1.7499061362599869e-01 1.5029608032193775e+00
      -2.6834708496961535e-01 -2.3687080713163460e+00
      1.9863749446822945e+00 1.3766016893469033e+00
      1.0840740136810445e+00 8.9288017046860790e-01
      6.8805403239635202e-02 -1.7583898138572676e-01
      2.6026027958279121e+00 -2.9688747445918868e+00
      2.9544470579701509e+00 1.4783150757859012e-01
      -1.2349272340048185e+00 -2.6399171212132169e+00
      -1.8977667148241815e+00 -2.5908964401465318e-01
      1.2602094545629539e-01 1.4973024265155077e+00
      5.0219997889411283e-02 1.3430153067034551e+00
      1.6185784551748590e+00 -9.1953442207936831e-01
      -1.5055946545902132e+00 2.0077892680316993e+00
      -1.3606466031298758e+00 3.0357564046624250e-02
      -1.8813536232635417e+00 1.2679820053056137e+00
      2.2090421615843436e-01 1.2654660734563392e+00
      4.6090978781515179e-01 1.1437871877520150e-01
      -6.8150100219980347e-01 -6.0930419830865379e-01
      -1.2515884506981561e+00 -5.4365845817042113e-01
      6.3386260402748429e-01 -1.4638513629939527e+00
      -1.6743119188959132e-01 1.0234704128160370e+00
      -8.0688849868475920e-01 -1.2988771332241291e+00
      -3.5229209662993871e-01 8.3438220502668370e-01
      -1.4464895527826951e-01 1.3701040528449022e+00
      -6.5585005712923708e-02 1.3042298378781786e-01
      2.1295515936500622e+00 -1.1158043008676504e+00
      1.0692703095369589e+00 7.3811608596666067e-01
      -1.8303204332965384e+00 -1.3940646642338579e+00
      -2.0804795183185636e+00 8.0426365434419922e-01
      2.2877637992914590e-01 1.4875326525981574e+00
      -6.4207999100635363e-02 6.5273633759021932e-01
      1.0833386676599546e+00 -1.4057474971191863e-01
      -1.5454054598028359e+00 5.3569058738133490e-01
      -1.0963493137443674e+00 -8.9012254893645518e-02
      -2.6003742896954556e+00 2.0528343797436835e-01
      -8.9536304153316398e-02 3.7177056209607245e-01
      2.2327919694905471e+00 -1.4272049426886277e+00
      5.4806597942966849e-02 -1.2144157571349716e+00
      -4.3025784175235771e-01 1.7649569172244300e-01
      3.1226764920964800e-01 -4.7172352348055402e-01
      -1.6090014055917529e-01 2.1655058479162088e+00
      -3.9744542821123696e-01 -5.0796569201876129e-01
      -3.2846864208510115e-02 2.3218085920530007e-01
      -7.8867448653394595e-02 6.2140949785367039e-01
      6.3215523343496172e-01 -8.5231700654255027e-01
      -3.0226345735693435e-02 5.7863476086827104e-01
      1.2168855389568850e-01 -4.7039169397541675e-01
      -1.7952361234691261e+00 -1.3777328573730921e-01
      -5.9160337790902362e-01 3.4341671855593431e-01
      5.5443338700778844e-01 -2.7986181369005786e-01
      -2.8491721844213437e-03 -7.0452569707859361e-02
      8.4636334913545641e-01 -5.1891007057391270e-01
      3.7614981949750098e-01 -7.1052752203722180e-01
      -2.2296503907534901e-01 8.5342627407533733e-01
      -9.9070887749981618e-01 8.9297279749660285e-01
      3.7638674283525320e-01 2.2614511781894207e+00
      9.2169283766304189e-01 -1.0551123182256210e+00
      4.4197978595809873e-01 1.2342685219011860e-01
      -1.4618819916401007e+00 1.8674402862110531e+00
      2.2977927937324216e-01 5.9461714713343224e-02
      2.1625152314320292e-01 -3.4815890073918991e-02
      -6.2418336375042360e-01 1.5128960373558711e-01
      2.7729323062999151e-01 1.2943084662139190e+00
      -2.2567540880652125e-02 -1.4140353072571568e-02
      2.6531782633932615e+00 -1.2790605025882391e+00
      -1.8635369726459881e-02 -5.5629534974932844e-02
      2.7628159326267010e+00 3.4002272574165632e-01
      2.1939884172207591e-01 1.1094029492721177e-01
      1.6672334696462082e-01 -7.8775238949661999e-02
      -3.3154472958439479e-01 -7.0508930194084096e-01
      -3.1958574080001595e-01 -6.3183240903915083e-02
      -1.3460380126935791e+00 -2.6414390206876004e-01
      2.9907085046203707e-01 -9.5703528517957315e-01
      -3.9119348831456591e-01 5.2785652310085607e-01
      1.1994990348745171e-01 1.7657918698340562e+00
      4.7123097957014207e-02 2.8297927866876127e-01
      -7.7683361013420507e-02 4.8220984799313006e-02
      2.3922532194241053e-01 -1.2078046887697713e-01
      -9.9911851766823379e-02 2.7665439344936299e-01
      1.1662233832179434e+00 -4.6193322426445971e-01
      -1.6598401802568088e+00 5.6612581786170686e-02
      -5.7923717601430480e-01 -9.5291495383004979e-02
      3.2139942181666398e-01 8.6591280360443212e-01
      -4.5993151837849844e-01 3.4244587581917292e-02
      -5.8826917013305613e-01 -2.0204782728102899e-01
      -3.7141754438586416e-01 -2.7450866789411477e-01
      1.5357836416245616e+00 -4.1160586105895774e-01
      -1.0660831931298080e+00 -6.9296349163159288e-01
      -2.1224016078696990e+00 3.6171180904417961e-02
      -4.3225884882123095e-01 -8.6185109182648079e-01
      -2.8730277257208797e-01 5.2292241741486090e-01
      -3.6129960653878451e-01 3.5544150614767972e-01
      8.0939601366396374e-01 -7.1768702075525304e-01
      -3.0599857188078416e-01 1.2044259891734799e-01
      -2.7448564381318802e-01 2.1068014818082008e+00
      1.5614597189359880e-01 5.8544965657256043e-01
      -1.3983187173195635e+00 1.0096873075084063e-01
      2.0564655643588972e+00 8.2814126020709394e-02
      -6.2007194590963677e-01 4.1532924938933896e-01
      5.4934679201010939e-01 3.6965794121411821e-01
      1.3611960581281919e+00 -1.1375633709489357e+00
      -8.4194103853491187e-01 -2.5401040921583212e-01
      1.0814948923789067e+00 8.7872669046268156e-02
      -3.7709725789698034e-01 4.1767330744474235e-01
      8.7910352269068504e-01 -5.9846387848177818e-01
      -5.5601541831942114e-01 5.7831316459936588e-01
      1.5774385545702238e-01 3.0965914216018103e-01
      6.3397635804174712e-01 3.3657590654285259e-02
      -2.4830336565236105e-01 4.3217580057989591e-01
      -2.7886732864882313e-01 -5.6828064258549493e-01
      4.0266909156795982e-01 -4.0952910088401578e-01
      5.2927534111420182e-01 -1.7762464830514014e-02
      -3.4806729689779345e-03 -1.1005879401339071e+00
      -4.0635233635023763e-02 1.4379885916627546e+00
      1.5268663999262604e+00 4.5536568387165011e-01
      -1.1486839793492372e+00 8.8057503604882714e-01
      1.4599955907244351e+00 5.2541885955717726e-01
      7.6041333543998457e-01 -4.6691328044546218e-02
      -9.1133338782651441e-01 -1.2348476057758166e-01
      -3.8181407267832457e-01 2.1636463913089896e+00
      7.4601927256661593e-01 -2.5877345901070803e-01
      1.1821219099161864e-02 9.8321524273194227e-01
      4.2949848719944511e-01 1.7763564029329237e-01
      -1.7564029546492219e+00 -1.3520918759855649e-01
      2.4647798473275415e+00 -6.6186991731204725e-01
      -1.4472727650486041e+00 5.9733041983708257e-01
      1.9609968756534885e-01 -3.7895245149417384e-01
      1.2817078198378673e+00 4.0786949206023648e-01
      -6.2474103368722403e-02 3.0451920258704857e-01
      1.3096166110945481e-01 9.1868381419092326e-01
      1.2859471877367487e-01 1.2945609571107777e+00
      1.4018001170261929e-01 -5.4827982769086514e-01
      -7.2569038057309987e-01 -6.4670152625937172e-01
      8.5268426896951655e-01 5.2208502893256947e-01
      1.8628954190681981e+00 -2.4664325166690834e-01
      -6.4081951607338894e-01 1.5956523671681080e-01
      1.8538717111147336e+00 -5.6981019739068395e-01
      -4.4740862527050529e-01 -5.3219493761602710e-01
      2.5411755823778054e-01 -2.5544114881744473e-01
      -1.7534638996844094e+00 2.3408946323806519e+00
      3.0825541086810876e-01 -3.9494371421267527e-01
      2.9607249808709729e-01 1.1549069347376668e+00
      -6.5288134265124850e-02 3.9828595955569079e-01
      -6.7256831672384820e-01 5.5255312217596619e-01
      2.9488295602009966e+00 -1.5932529706584115e+00
      -2.6349371545457685e+00 -1.6629282507216259e+00
      7.5419610926809988e-01 -1.7929575140051746e+00
      2.5200508264183763e+00 -1.6535492740578900e-01
      4.0509215178267854e-01 -8.3683595196071256e-02
      1.0766749548139672e-01 -3.2565328569670343e-01
      -1.7234863607993203e-01 1.1597285433198286e+00
      1.0521693859721282e+00 7.0660313015648701e-01
      -1.1266970030701562e+00 -1.3862778704431209e+00
      1.0119963658041542e+00 7.1074716548013755e-02
      2.0408396728922562e+00 5.7914125035311304e-01
      -1.3165175419178940e-01 -4.6384083801316915e-02
      1.4458781336761442e+00 -5.5121670543701151e-01
      -1.1376971019035327e-01 -4.0268124511165314e-02
      1.2965340951718443e-01 3.9522248041297330e-02
      -9.2676045569391408e-01 2.3346048101857946e+00
      -3.8335322215362755e-01 -9.9438802927190040e-01
      2.4060084668370516e-01 -9.2850628246233058e-01
      -3.0736895488450611e-01 -2.9207035389209740e-01
      1.0451292039600573e+00 8.6171907588559221e-02
      -1.8136046535392087e+00 1.0175134723322663e+00
      -3.2779433209360342e-01 -9.5876854424675584e-01
      -2.7825138770942694e+00 -2.5136435365588858e+00
      9.4292959083332983e-01 2.2323299734099439e-01
      -1.7906341315562044e+00 -1.6676671050042507e-01
      -1.8397688835992995e-01 -1.6945164204465619e+00
      -4.0165660832474315e-01 1.5059939551324497e+00
      1.3927251461702999e+00 1.3377507562992750e+00
      2.6926579889554680e-01 -1.3024648456842491e+00
      -4.6206951888430370e-01 -8.5294338068856349e-02
      8.0832294221748180e-01 -5.5786119611774831e-01
      1.7945953359579890e-04 -8.4159172498820800e-01
      3.2852197562782576e-01 4.7398969008747716e-01
      -3.4370024851707159e-01 4.3605768079829549e-01
      2.2676608442013377e-01 4.0986047046794416e-01
      1.7429844882899039e+00 -7.1163183370658722e-01
      -1.8454713340739023e-01 -5.6398354101487391e-01
      -6.6682706968704819e-01 -1.8395551111440964e+00
      6.3342839131643291e-01 -1.3878368839415902e+00
      3.4881429507225253e-01 1.0020814815294794e-01
      -3.7439585699764844e+00 2.8346005016380942e+00
      -4.6898867820272139e-01 -1.8079989952913189e-01
      -1.1951581418125985e+00 -1.8336221714425904e-01
      -1.9468801052925493e+00 9.5346658125811723e-01
      3.7130919719670785e-01 6.5780551355939876e-01
      -1.4915981130875866e-01 -4.1078025371031901e-01
      3.3308907092186180e-01 1.3424511639612573e+00
      -6.7444621591716714e-01 1.3066483419851675e+00
      -2.2497806346152610e-01 1.1187342692027220e+00
      -7.4704727179475974e-02 2.4803515328645251e-01
      1.2022168632511887e+00 -1.0611624574207208e+00
      8.2483496250190816e-02 -9.6995520097976251e-01
      -3.8795467547998985e-01 1.8730215225683669e-03
      -1.7681395005755954e-01 8.5734711352954851e-01
      5.6982163655752305e-01 3.6836462098474471e-01
      -5.0058682088469186e-01 -8.7948800044078401e-01
      -4.7043495093401466e-01 7.5728575002353449e-01
      3.2046508624036631e+00 -2.8390604593678050e+00
      -3.6325659212964695e-01 -9.3129084337355894e-01
      9.5713022111508742e-02 1.5226976846267368e+00
      -1.2087248987408470e+00 -6.8427812096824858e-02
      8.4123340560654192e-01 1.1949052918494690e-01
      -3.1244770011572420e-01 -1.3253336626237200e-01
      -3.8304252726963695e-01 -1.4471259683223676e+00
      2.9727677262634855e+00 1.5733147023671290e+00
      -3.8515608571420645e-01 2.7147116379297747e+00
      -2.6268136741392117e-01 4.9311382436407641e-01
      -1.5702947097694739e+00 1.3404833970745254e+00
      -1.5149769274445672e+00 6.3385685251508572e-01
      1.9369807169881115e+00 -2.2214741668413701e-01
      -1.7682199228997979e+00 -1.9010368747198411e-01
      -4.1477932277689772e-01 -2.4139766785890031e+00
      1.8863938722416700e+00 1.0574283128177808e+00
      9.2798803763253523e-01 -9.1971177329385501e-01
      -1.5738239269789295e-01 -1.8742716337086376e-01
      -3.2102534678154576e-01 8.2997951055115005e-01
      -8.6673746808642926e-01 8.1170512625444835e-01
      1.1304776652936757e+00 1.0042967963119656e+00
      -5.6643870229465501e-02 5.9758448826760915e-02
      3.1732423101422813e-01 3.8933667599043886e-01
      -1.0644170637649510e+00 -1.1070926978327251e+00
      1.1476483781500102e+00 1.3598759278021566e+00
      6.5291850587066558e-01 -8.8732594486799887e-01
      8.0026928195124425e-01 -3.1181934535465528e-01
      -5.1455026013838678e-01 1.1034919897103084e+00
      -3.2265826146558374e-01 2.3456102381626418e+00
      1.2198726523701779e-01 1.2606236702008178e+00
      -1.2043486782216590e+00 9.8580146068404817e-02
      -1.6141023601680995e+00 7.7180913523988259e-01
      7.0957438493025793e-01 1.7160635585774281e-01
      -4.2591919801346212e-01 3.6060429834580804e-01
      -1.5481541839351989e+00 -7.2295406811623386e-01
      3.1437304592486243e-01 -1.4441436433477337e+00
      1.2436175892231693e+00 -6.5210109833339536e-01
      -6.6137223823776270e-01 3.9586237946763303e-01
      -6.0198344929158676e-01 3.9323820969630907e-01
      -1.0668472760300785e+00 2.1825826452781873e+00
      -3.8171420296524622e-02 2.8358954067707116e+00
      -1.2876992584524147e+00 1.0396801497728145e-01
      -2.0650880321902699e-02 -7.6410535796886825e-01
      -1.1868820558543713e+00 -5.3212262957099787e-01
      1.6572845162564701e-01 4.7875168423180314e-01
      3.0993533440303539e-01 5.4097041633154408e-01
      2.3746684148730597e+00 -1.5031735836414566e+00
      -4.6054728299812087e-01 -9.9287331904806361e-02
      -3.5860947617774713e-01 4.5154061068022178e-01
      1.3562082284652960e-01 6.0754286762223619e-01
      2.7197749291052076e-01 1.0702790739929442e+00
      1.8377418147088526e-01 -5.7723240476179782e-01
      -3.8211899751586670e-01 -5.4435268956937115e-02
      -1.2590761366458930e-01 1.3777122235596875e+00
      9.0334724769870145e-02 1.1473594650531436e+00
      1.6717927568501892e-01 -5.7435653298400924e-01
      1.0702015634268038e+00 9.3488884767072111e-01
      -5.4433914778735742e-02 2.2497077602094615e+00
      1.2216864343837208e-01 8.1328136630457848e-01
      -1.1341297224204876e+00 5.2750581151195175e-01
      -1.0573921694740389e+00 2.1282585627667925e+00
      1.8125010359367280e-01 1.1363629915023503e+00
      1.2576465925315344e-01 -5.5413247084222544e-02
      2.5260419873768631e+00 -1.1519912587183350e+00
      -9.3650585385112298e-02 -4.6172959456740367e-02
      2.4890432972304799e+00 1.7662524677856575e-01
      2.7245255725649831e-01 1.1024075911871199e-01
      1.9034988413204526e-01 5.6935511989970777e-01
      -3.3956997293651525e-01 -4.8749587202484485e-01
      -3.3387602953157985e-01 6.1212376658407552e-01
      -1.2453098803008722e+00 1.1119344397591508e-02
      1.4249571490887800e-01 -7.0104823460725629e-01
      -2.5866118153295942e-01 2.6600027832965961e-01
      1.8645025017337283e-01 2.2726043864534220e+00
      1.8987815993409182e-01 2.5020941636362148e-01
      5.1093605202092918e-01 6.3164502063872877e-02
      -1.3084176212007520e-01 2.1903297526079346e-01
      -2.0746890221204625e-01 2.7446511213294039e-01
      1.0359836723459463e+00 6.0351254252749376e-01
      -1.7160067117336946e+00 -1.8270721503490333e-02
      -4.8935766401561426e-01 3.4054123887957427e-01
      1.9287505885541126e-01 4.2813043608445978e-01
      -1.1507743958929595e-01 -4.1350206317838444e-02
      -1.2703135054974244e+00 -1.9506417857537781e-01
      -6.5138417744863647e-02 -5.1133581928824401e-01
      4.1819976478328369e-01 -3.6546357905358295e-01
      -1.0608189365432052e+00 -1.4877606514048489e+00
      -3.2540489025490826e+00 -6.1051103684514019e-01
      -5.0581109373535993e-01 -3.8555513474602199e-01
      -2.9316747941349169e-01 4.3393610137937927e-01
      -6.6455920704034144e-01 9.3622735680651248e-01
      4.4788409639132254e-01 -3.7629734436801232e-01
      1.5049931472733441e-01 -4.9085815335813987e-01
      2.7880918241630626e-01 2.0212563641341519e+00
      1.1680091806104410e-01 4.3872539669700578e-01
      -7.0382688151504308e-02 9.1246777413836300e-02
      2.5125925744961917e+00 1.2645533491173594e-01
      -3.7853325936706128e-01 3.8579673973200740e-01
      -7.1534591394353919e-02 4.9544890693535087e-01
      1.6823099676214390e+00 -4.3513166774721879e-01
      -7.6549510195407200e-01 -1.9905110892356687e-01
      3.9933778025133260e-02 1.6718048222268362e+00
      5.8606265931278745e-01 -2.0846451787138912e-01
      1.2415576718122592e+00 -4.7045170641909068e-01
      7.9431898159729930e-01 -7.4895094874724522e-01
      1.5846473337950300e+00 5.3570928145778440e-01
      1.1809475316513740e+00 -4.5190974961531877e-01
      -6.7426716986713564e-01 -2.6913975428116382e-01
      -9.1926285092902438e-01 -1.4151685961005050e-02
      5.9376027398243392e-01 -6.7112025962248606e-02
      -8.3691230370351311e-02 1.6516829243188169e+00
      -3.7809720879330921e-01 -4.4588574830688961e-02
      8.0513038775891810e-01 7.2987995804268468e-01
      8.7509704997922166e-01 3.1465520038860406e-01
      1.8150520745732315e-01 -1.3328523641290206e+00
      2.3590291520603188e-02 6.0750485852579117e-01
      6.9149954975515515e-01 4.1806252579432485e-01
      -2.3223696731002608e-02 -5.4866160017058201e-03
      -4.2528031520393866e-01 1.6788041028388641e+00
      5.0389652134302210e-01 4.8185741524291781e-01
      -1.6299545295782911e-01 -4.6832865057940759e-01
      9.5737832295941599e-02 5.9361480855004056e-01
      4.1250126380198321e-01 7.3419030032636001e-02
      2.2243313049709381e+00 6.2374883683993465e-01
      5.7476273912185127e-01 -2.5350336195984979e-01
      -4.8624368282009267e-01 2.9195952094450656e-01
      8.9577080964194555e-01 -3.1552096147408432e-01
      3.0034641511311383e-02 4.2052095359113012e-01
      -3.3127719283961721e-01 -1.6775371166697228e-01
      -2.3925929308215934e-02 1.9013936682036783e-01
      -1.8945915121512522e-01 3.4459932143806897e+00
      5.2065602095847596e-02 1.5721940045913902e+00
      -2.5560840712651217e-01 -5.5053658910700846e-02
      5.1746930299986305e-01 -5.9442129022260429e-03
      6.7789898076834443e-01 -1.3900506403770150e+00
      2.7536393069973741e-01 8.3017880333845107e-01
      -6.0887517220714948e-01 -5.9586969428388603e-01
      1.0322547586032098e+00 -1.1884304392325253e-01
      -4.8363020102793314e-01 2.3243649606012671e+00
      -2.0140984228342432e-01 -4.0948232598501923e-02
      -1.4823259106662975e-01 8.8935165626961438e-02
      3.5813243898670299e-01 1.1479359905584312e+00
      -1.3603193151880140e+00 1.3118368072749484e-01
      2.7301749720937429e-01 7.7925685698188485e-01
      2.1233864301591415e-01 -1.4119634945469253e+00
      -5.4400233912008245e-01 -3.4191006675477781e-01
      6.9637325077481627e-01 -1.1598654179838213e+00
      4.0375201888102852e-01 4.5337764071380092e-02
      -1.8682073731174748e-01 3.0220756926559017e-01
      -1.4375899491006314e-01 1.6750617958696365e+00
      3.2870657208291876e-01 2.3876031969881195e+00
      -7.7173220019783662e-01 1.1337951198858345e+00
      -5.7927388600973095e-01 -2.9327899643499683e-01
      1.7621798450193904e+00 -8.1908128309458494e-01
      5.9923092880582374e-01 6.8787560348208099e-01
      1.4069445648967931e+00 5.9420952527228177e-01
      8.7896292318534464e-01 -6.2048075855654461e-01
      8.7534804763470953e-01 4.8789883862306177e-01
      1.8730230148214295e+00 1.7111753288077027e+00
      -7.8767975198005658e-01 -3.8444621440491294e-02
      -4.5632288942950799e-01 -1.3282409799853037e-01
      -6.4062587790649717e-01 -3.0782364897275888e-01
      -4.1932451737688503e-01 -8.9231718160636742e-01
      -2.2876546651237639e+00 1.9538198412042998e-01
      -1.3110119648427876e+00 -7.8258878962601985e-01
      -1.7145448513993092e-01 -6.6514195535430776e-01
      6.1347569949437830e-01 -1.2780429097141563e+00
      9.9684945020673688e-01 -8.6064393743201606e-01
      2.1192497290780880e-02 -7.7323549659793867e-01
      1.0420639507358133e-01 1.8938595855204474e+00
      1.4692427221558331e+00 1.0989613096373068e+00
      -3.4522605114595684e-01 -1.7564124765155096e+00
      -7.1475835857504766e-01 3.1381573778708849e-01
      -1.9283330028963284e+00 -7.3924710896678389e-02
      3.1298308936119712e-01 5.8966926067533065e-01
      1.5367253855450891e+00 9.3776389724968967e-01
      7.8793565170433733e-01 -7.6443703227689697e-01
      -1.1115406095625135e+00 -6.8734032081515251e-01
      2.1977899041503015e+00 4.0839549007273046e-01
      -1.2989359097626929e+00 -1.6220067770456867e+00
      -7.3689477748419729e-01 -3.4241170700501539e-01
      -6.5915590036597949e-01 -2.0229263029956410e-01
      2.8854756224247258e-01 6.1259671903087864e-01
      -3.2625213130340747e+00 2.5145003617329248e-01
      -1.3501139270197771e+00 -9.9315088059296586e-01
      1.6274212900927447e+00 -1.2265677575025393e+00
      1.3244325754190049e+00 -1.7133603916887508e+00
      1.9918126075616660e+00 -5.2104432047763449e-01
      -2.5938459020449361e-01 -8.4289310878647561e-01
      8.7511644236980379e-02 4.5776241341640468e-02
      -1.2591932998103320e-01 -1.7826240768290749e+00
      1.3658728481334461e+00 -2.8607029856449068e-01
      -2.6217297918486600e-02 -6.4494870894532472e-02
      -1.5731517751344375e+00 -7.9683812433687351e-01
      1.3766632629795922e-01 4.2944732380291512e-01
      3.1938399614299195e-01 2.0327961212136300e-01
      -3.9236090674558377e-01 -1.8756619308690012e-01
      -2.3780075657741375e+00 -2.0216349000439626e-01
      5.0280169957164300e-01 -1.6083667429586999e+00
      -2.2304220374026227e+00 -1.3443709326324633e+00
      1.9442698491955046e+00 -1.3286941389384668e+00
      -9.7849427351062868e-01 4.8425782510006887e-01
      -7.4547654993159229e-01 9.4241119971559362e-01
      -9.6026711782028229e-01 1.3165304232096482e+00
      3.4779077905872216e-02 1.0879052223366741e+00
      5.4471480097614121e-02 -1.2886228121889851e+00
      -3.0109378932216650e-02 -1.6409486827984779e-01
      3.3844808688606037e-01 7.2187201142985580e-01
      7.1002781082714406e-02 1.1168537290303777e+00
      3.6374404468876333e-03 1.5823372051097082e+00
      6.3259683510242404e-01 -2.1525980563424660e+00
      4.4306547962943016e-01 -1.1041832678258201e+00
      5.9388056360008468e-01 1.1146026809162810e-01
      4.4653519527418306e-01 -7.1645705347790578e-01
      5.0436298109618549e-01 -8.7648484524395542e-01
      1.6072618818199529e+00 4.4337273345066119e-01
      -1.2253572164104336e+00 -1.7725857321841179e+00
      -6.8913699002748963e-01 -9.5052318381499046e-01
      1.9436537964465220e-01 -9.9685859956540357e-01
      7.3702497962952429e-01 -2.0388407430074600e+00
      1.5143891732552852e+00 1.5920172264402710e+00
      -1.4674042614113303e+00 1.1001362829928965e+00
      6.6744540016597659e-03 -4.6286319642800677e-01
      1.6242789752839792e-01 8.6081705162710553e-01
      1.6222083564306786e+00 5.2268772620049553e-01
      -8.0728468447993584e-01 1.3975144637188663e+00
      -4.3303033982621958e-01 2.9209662341790010e-01
      3.0041971097751702e-01 1.2154905146301624e+00
      -8.3658489672784386e-02 4.4635869445532755e-01
      -2.2152278025547062e-01 -7.6491123461259092e-01
      -1.3204064880755588e+00 6.3502051487637690e-01
      -2.3997038644462229e-01 -7.4423661225777427e-01
      -5.0645714079063542e-01 6.8162830834590307e-02
      1.1504281338397870e+00 6.7495768116083765e-01
      4.3139414133428122e-01 -1.4613598566994035e+00
      -6.7581048939464525e-03 -9.7800412271590387e-01
      2.0118482277685903e-01 -6.7106841397688011e-01
      -1.1590772299323533e-01 -1.5370353246233662e-01
      -1.6257002178117785e+00 6.4598957247214511e-02
      3.1399886880160044e-01 -6.6936088824319362e-01
      4.6974905676422990e-01 2.5326175806894526e+00
      -1.1361170471373159e+00 2.0676847722330979e-01
      -5.8990139442594369e-01 -1.4506585481196990e-01
      2.5623323169288836e-01 6.2608959654599849e-01
      9.5491787672078654e-01 -4.7897059610165754e-01
      -5.1761706057181156e-01 1.2532993211135262e+00
      1.6127032179788525e+00 -1.1042920457863108e+00
      -1.0172696162297699e+00 -1.8529714383597215e-01
      1.7096910737751050e-01 1.2646286481453710e+00
      1.9039355829145846e-01 2.9930879771631475e-01
      -4.3125845705431359e-01 -3.3240093104348209e-02
      -2.1264394086231048e-01 -5.4599879768647896e-01
      -3.5909358683413667e-01 -7.5696947848755280e-01
      1.3389675655290642e-01 1.3143495377522565e+00
      1.0391572485756153e+00 -1.1532437465639995e+00
      1.8267831728018654e-02 -6.3012977053502683e-01
      6.0668810613744173e-01 6.0791027781011631e-01
      3.0395353293973265e-01 1.4564829889324364e+00
      -9.3576346381436593e-01 5.0248699684222253e-01
      5.4788128611270248e-01 5.6108153661762521e-02
      9.4022185055029420e-02 1.5638282802151811e+00
      -3.1701713519570734e-01 1.1192284882311070e+00
      -1.1011024568211727e-01 1.1899842343228234e-01
      2.2604169362453339e+00 -1.0515629484624405e+00
      1.5560378653528570e-01 -1.2010451781728330e-01
      2.3098261440016383e+00 3.4537098881287437e-01
      1.0716333258081046e+00 4.4699878232764959e-02
      1.3325219117879689e-01 -1.2872959028758477e-01
      -2.6210307917096259e-01 -2.2297026103934378e-01
      6.3500169957787322e-01 5.2138722659373482e-01
      -1.1671480173864082e+00 3.2951937934412745e-01
      4.1475956993579843e-01 -3.5610540626906989e-01
      -8.6512178365430326e-01 1.3164955691691296e-01
      2.2596268726018909e-01 2.4903486941746249e+00
      2.8154970393639400e-01 2.8657292086973868e-01
      3.3346885010417210e-01 -5.9979380665013002e-02
      1.2316684136394464e-01 4.1030982241625702e-01
      -5.3405593139439633e-01 2.9574491853950602e-01
      1.0274426953460358e+00 4.9540884729703466e-01
      -1.3435295976888932e+00 -1.6648260831428799e-01
      -4.1715487016118880e-01 -1.8237653855963334e-01
      -2.4983855714588299e-01 2.4706351896741247e-01
      8.2772812056176190e-02 -8.4336845679876520e-03
      -1.1044388448809708e+00 -7.4088792861593353e-02
      3.3544121823037421e-01 -3.6605347487313061e-01
      -1.8099194773346827e-01 -4.0231278911379464e-01
      -1.2667163379680952e-02 -9.1073655372861839e-01
      -1.7130917397634173e+00 -4.8430879269464139e-01
      -7.4776918876834597e-01 -1.5164168112953116e-01
      1.8055764659988398e+00 3.1174863129768887e-01
      1.8833623496852472e-01 6.8356717515476761e-01
      3.3823843312040303e-01 -4.0441855273171873e-01
      -4.3879363292878254e-01 -2.7983603453385991e-01
      4.7202836378432622e-01 2.0257180139533655e+00
      2.6675636754513438e-01 3.2460219705987325e-01
      2.9140880354931070e-01 1.0201654263938539e-01
      2.6409670464030608e+00 1.2044605103128962e+00
      -1.5465691821612211e+00 3.8328211907378468e-01
      -6.8184556065966712e-02 4.8676988162584717e-01
      1.7335737178959114e+00 -3.6769394879329492e-01
      -9.4853756332048345e-01 -2.0317833957059828e-01
      3.1946311208893513e-01 -1.0860850845575973e-01
      -1.7207811692059505e-01 -2.7311070529181568e-03
      4.4791874658488101e-01 1.1076446959719004e+00
      7.0546180561004268e-01 7.3385020941053071e-03
      1.2135920627530747e+00 -7.0266577522997875e-01
      -5.1791460774369391e-01 -5.7049020691917096e-01
      1.8507917366491355e-01 2.9675780521663392e-01
      1.9237684506424052e-01 5.5551284873248707e-01
      9.5857162372218430e-01 -3.4207839317417249e-01
      4.0173944466825634e-01 -1.7765970285957691e+00
      1.1488250818641912e+00 -4.9260924872256182e-02
      -4.5685255625563231e-01 5.1992020652495119e-01
      -1.0169825435672308e-01 4.3430632185193628e-02
