<?xml version="1.0"?>
<opencv_storage>
<opencv_ml_ann_mlp>
  <format>3</format>
  <layer_sizes>
    704 64 31</layer_sizes>
  <activation_function>SIGMOID_SYM</activation_function>
  <f_param1>1.</f_param1>
  <f_param2>1.</f_param2>
  <min_val>-9.4999999999999996e-01</min_val>
  <max_val>9.4999999999999996e-01</max_val>
  <min_val1>-9.7999999999999998e-01</min_val1>
  <max_val1>9.7999999999999998e-01</max_val1>
  <training_params>
    <train_method>BACKPROP</train_method>
    <dw_scale>1.0000000000000001e-01</dw_scale>
    <moment_scale>1.0000000000000001e-01</moment_scale>
    <term_criteria>
      <iterations>30000</iterations></term_criteria></training_params>
  <input_scale>
    1.0137496033472280e+01 1.1892066625608040e+00 1.1174453712457829e+01
    1.3359976385481200e+00 1.1661712438756346e+01 1.4289656391362553e+00
    1.2116508002495630e+01 1.4811961513868834e+00 1.1582610830908219e+01
    1.3913384048161765e+00 1.1110250909986606e+01 1.2988306597363115e+00
    1.0770175241536881e+01 1.2054784145152917e+00 1.0458037574779830e+01
    1.1185147145034942e+00 1.0276172173765477e+01 1.0511810526404102e+00
    1.0073569881020354e+01 9.8421976763325614e-01 9.6189265235494794e+00
    8.9814198882047847e-01 9.4539300279882053e+00 8.4912987160995390e-01
    9.3777181044309881e+00 8.0671935859794519e-01 9.1105429146210550e+00
    7.4700412968805729e-01 9.0383296100700505e+00 6.9511626097815515e-01
    8.7956542736708396e+00 6.2988856619475464e-01 8.4374088090873816e+00
    5.6357257660178706e-01 8.5694944051842850e+00 5.7269328820777510e-01
    8.5976627424356220e+00 6.0285722802511077e-01 8.9041674436604481e+00
    6.8211171099606205e-01 9.0105253163013082e+00 7.6044000345134166e-01
    9.3075410957309241e+00 8.5189562858421553e-01 9.7064233888654208e+00
    9.7080393540283427e-01 1.0041587897161774e+01 1.0870734836413936e+00
    1.0527632367440376e+01 1.2243664603417337e+00 1.1167557676192711e+01
    1.3787273422141901e+00 1.1683637527440123e+01 1.5223426787269456e+00
    1.2317654596035599e+01 1.6844530957572117e+00 1.2819153978012354e+01
    1.8058979146972964e+00 1.3145918771705338e+01 1.8803929328423039e+00
    1.3834405722813747e+01 1.9413243607241488e+00 1.3926619861264392e+01
    1.9220014875594651e+00 9.2276313270249748e+00 9.6864402450861364e-01
    1.0053614497862267e+01 1.0413275864123976e+00 1.0043547883367470e+01
    1.0121413780850559e+00 9.9910594312032384e+00 9.2319993471493855e-01
    9.2769399614342092e+00 7.5505090540880204e-01 8.6851891029754285e+00
    5.8978596785677029e-01 8.5263757615582367e+00 4.4924409826702288e-01
    8.1838614356441060e+00 3.0641555229403550e-01 8.0229878457227422e+00
    2.0641414833483354e-01 7.8932839116346791e+00 1.2643190837346605e-01
    7.5875127978508319e+00 5.9632350422924425e-02 7.5550702984514215e+00
    1.2537846561174524e-02 7.4981371198693108e+00
    -3.0668321110780095e-02 7.3167159385870564e+00
    -7.1596859864756099e-02 7.3756366260700412e+00
    -1.2763298616646521e-01 7.1763429966519343e+00
    -1.8601793591625715e-01 7.1752734687827209e+00
    -2.3495181153495609e-01 7.3797604360945259e+00
    -2.4829084803611517e-01 7.2953202627512104e+00
    -2.2215191025400996e-01 7.4239939206566401e+00
    -1.6223322994049641e-01 7.2976910890233713e+00
    -7.2351405158020951e-02 7.2087297983887009e+00
    2.2572365444532241e-02 7.4279246601137290e+00 1.4724727908280716e-01
    7.6596861529427738e+00 2.8444380167464506e-01 8.1296890687413885e+00
    4.5198663466150379e-01 8.8870306017400065e+00 6.6383543791691613e-01
    9.6379808296416822e+00 9.0698045668242921e-01 1.0869322481723540e+01
    1.2161095943178237e+00 1.1981472142641797e+01 1.5036143097807306e+00
    1.2602757528905160e+01 1.7043736894932540e+00 1.3391520366350885e+01
    1.8191455019704268e+00 1.3336165458432960e+01 1.8056233795244101e+00
    8.5566832662229135e+00 7.6236054113896268e-01 9.2460006425899177e+00
    7.7978769742149523e-01 8.9708121175935922e+00 6.7101856069531796e-01
    8.8433630751480194e+00 5.0097578017290989e-01 8.3576683846470488e+00
    2.9200411871213516e-01 8.0170336522058481e+00 7.3524025589153191e-02
    8.0211559489524955e+00 -1.2254402516531010e-01
    7.6710231015379726e+00 -2.8132659252149295e-01
    7.4873676881152189e+00 -3.9224093891721823e-01
    7.5258972099681314e+00 -4.6989061058149523e-01
    7.3056609253469924e+00 -5.0562887481545249e-01
    7.2610813156819578e+00 -5.2632089636746571e-01
    7.1976645908549735e+00 -5.4680987788962787e-01
    6.9830497070780897e+00 -5.6798074875624927e-01
    6.9186499832177022e+00 -6.2289247427576155e-01
    6.8279426948616990e+00 -6.6974429192207274e-01
    6.8151173796945042e+00 -7.1861898850079187e-01
    7.1441923086491190e+00 -7.7473455061462526e-01
    7.2734308626282349e+00 -7.7727303775688450e-01
    7.4239267885427260e+00 -7.4037491095864094e-01
    7.3110865856875513e+00 -6.4363409625930301e-01
    7.0798043166116180e+00 -5.1378374450752828e-01
    7.1774837632923969e+00 -3.6844367638544379e-01
    7.1629879286692155e+00 -2.0347094604613994e-01
    7.4172094288884169e+00 -1.7352272757539502e-02
    7.9475914113668837e+00 2.1503997980250353e-01 8.5019896379955675e+00
    4.9403560433412336e-01 9.6574038235452910e+00 8.4396009632381741e-01
    1.0824015232583388e+01 1.1932112493057170e+00 1.1601459722989741e+01
    1.4795355824682754e+00 1.2625996809352074e+01 1.6589531535954039e+00
    1.2656122935461189e+01 1.6683501730738022e+00 8.4082706695505465e+00
    7.1676715515442735e-01 9.2689218045283592e+00 7.2038880947856176e-01
    9.1274625446713706e+00 6.0255754674178308e-01 9.0253555726612120e+00
    4.0336384591629260e-01 8.4397615192235875e+00 1.6952931406257588e-01
    8.0231426019828849e+00 -5.9481317673079293e-02
    8.2443053946809961e+00 -2.7238585235173091e-01
    7.9584825087610884e+00 -4.4141283688307048e-01
    7.6579012972833524e+00 -5.4209849177880742e-01
    7.5558353878631186e+00 -5.8827648229504137e-01
    7.3183701259229954e+00 -5.9332630303191514e-01
    7.5190857920567149e+00 -6.1795992196887972e-01
    7.5381171065578085e+00 -6.4552361299113703e-01
    7.4005318014356734e+00 -6.8806548268701029e-01
    7.3340050569711854e+00 -7.5933393118025860e-01
    7.1785885838449168e+00 -8.0324501293916184e-01
    7.1976332950149757e+00 -8.4724975921858470e-01
    7.5662957627043896e+00 -9.0645323833267677e-01
    7.5655081640352959e+00 -9.0644788849954783e-01
    7.6649921958654375e+00 -8.8983771514715759e-01
    7.6410872243786727e+00 -8.2934600632546063e-01
    7.4653267548710955e+00 -7.1169021832266777e-01
    7.5540227618858324e+00 -5.6422144841216337e-01
    7.3524618209878687e+00 -3.7512573083323614e-01
    7.3547637532511336e+00 -1.6833286361010272e-01
    7.6546936751812318e+00 7.6473890128304134e-02 7.9692416048876691e+00
    3.5587032224512000e-01 8.9928051609154913e+00 6.9996058774455050e-01
    1.0080177107191529e+01 1.0529068326977746e+00 1.0925843197292318e+01
    1.3676275547783763e+00 1.2148039915173568e+01 1.5796764336140101e+00
    1.2315616910577953e+01 1.6259989185711263e+00 8.3121772309712494e+00
    6.7676537725993702e-01 9.1306325631595531e+00 6.8624309255122395e-01
    8.8397812353881271e+00 5.7920818281512287e-01 8.6497710829639018e+00
    4.2007970078984957e-01 8.0776219562316829e+00 2.2536368232576445e-01
    7.8445644476395415e+00 2.3772415285132988e-02 8.1434250529292402e+00
    -1.7623221502910660e-01 7.8956611411470234e+00
    -3.5519833712562149e-01 7.5554697012518934e+00
    -4.5380078718175204e-01 7.5993844863228679e+00
    -5.1681243488658524e-01 7.5446985292275022e+00
    -5.4303740960607350e-01 7.7366676091452087e+00
    -5.7784683990044483e-01 7.6134202249576548e+00
    -5.9918963647111634e-01 7.1667496061813791e+00
    -6.0309624536913442e-01 7.1503012459789224e+00
    -6.4856668952164309e-01 7.1584109259252013e+00
    -6.9633226675429627e-01 7.2212545650306952e+00
    -7.5642070177139731e-01 7.5240088238208580e+00
    -8.2554842882686641e-01 7.7040872390981141e+00
    -8.6337381257815948e-01 7.9673838682655447e+00
    -8.8559159219311701e-01 7.8653958147264014e+00
    -8.3583187402940773e-01 7.6564362917525957e+00
    -7.2901814779137564e-01 7.6901169081011052e+00
    -5.9247119418721639e-01 7.4779152915599036e+00
    -4.1409721399714899e-01 7.5172422696768724e+00
    -2.1107945667235598e-01 7.7471368845056512e+00
    4.5104473936990616e-02 7.8287570140950660e+00 3.2187093373976161e-01
    8.7704258633576799e+00 6.5627148997791152e-01 9.8648585428115503e+00
    1.0082853925919792e+00 1.0765715638874594e+01 1.3321454532904142e+00
    1.1944415977802958e+01 1.5497394234073674e+00 1.2080687331553374e+01
    1.6019856718634673e+00 8.1862901565207480e+00 6.5493593659060301e-01
    8.9514101701713251e+00 6.6223970197358517e-01 8.6661907186124836e+00
    5.6020492471500338e-01 8.4718013228779565e+00 4.0398176862597129e-01
    7.9309566993014640e+00 2.1564734925309095e-01 7.6669483864220895e+00
    2.1141145076926590e-02 7.9010414646726845e+00
    -1.6267694862543713e-01 7.6987607345764220e+00
    -3.2226930824367683e-01 7.4503041048914227e+00
    -4.2028712968240967e-01 7.5546299694901462e+00
    -4.8167142425587611e-01 7.5718849400244288e+00
    -5.1806777063713549e-01 7.9048089866719371e+00
    -5.7946447725965933e-01 7.8975543469579170e+00
    -6.3127532966930411e-01 7.5435817688616575e+00
    -6.5992406873199294e-01 7.5884759674534115e+00
    -7.1142609037582749e-01 7.4062399598078370e+00
    -7.2495376698642655e-01 7.5485434734865064e+00
    -7.5609810405600375e-01 7.7555928902029034e+00
    -7.8280224717172109e-01 7.8437752695097789e+00
    -7.9550119067657488e-01 8.1141880821552821e+00
    -8.1925943231590503e-01 8.0896001743876571e+00
    -7.9158092137874370e-01 7.8480394840027108e+00
    -7.0409918083595968e-01 7.7992995442559740e+00
    -5.9307873825059965e-01 7.4851278682144997e+00
    -4.3678156272170637e-01 7.4558869710728564e+00
    -2.5040316363525805e-01 7.6716827994939578e+00
    -3.4252657064088089e-03 7.7438259642505223e+00
    2.7130386619369956e-01 8.6541874346832408e+00 6.0822964321199480e-01
    9.7871311195031794e+00 9.6822473377712881e-01 1.0751759390614222e+01
    1.3089680362435985e+00 1.1884901049320680e+01 1.5367614873173290e+00
    1.1915979822810661e+01 1.5887394602887210e+00 8.2901682555725973e+00
    6.7594246014384252e-01 9.2416335688429569e+00 6.9770954537649821e-01
    9.0639488373972448e+00 5.9867192607576469e-01 8.8559854197275634e+00
    4.2055073425882633e-01 8.0938425127579130e+00 2.0983537291428189e-01
    7.7281774567776607e+00 7.2555498017180808e-03 7.8686031887396322e+00
    -1.7393390550661070e-01 7.6140484943748366e+00
    -3.1555242415465790e-01 7.6453642142704066e+00
    -4.1232979009820320e-01 7.7093229428965149e+00
    -4.9215564066511347e-01 7.7966824269741695e+00
    -5.3945494811570593e-01 8.0441953689472037e+00
    -6.1229248440140815e-01 7.8741852756443533e+00
    -6.6317522408175544e-01 7.5126209105172927e+00
    -7.0294894279348108e-01 7.5699976018678035e+00
    -7.5640650569909396e-01 7.5725471163731433e+00
    -7.7907331225986853e-01 7.6873465683832904e+00
    -7.9311583830303312e-01 7.8910471611325299e+00
    -8.0679991592772415e-01 7.9467236478866097e+00
    -7.8832854755065451e-01 7.8897506163300841e+00
    -7.5990773282836566e-01 7.6778561628397322e+00
    -7.0808043705788393e-01 7.5279140697299090e+00
    -6.3696388274094429e-01 7.5951425334099545e+00
    -5.5258190204439417e-01 7.3320351318959505e+00
    -4.2190085320445581e-01 7.3651127068054656e+00
    -2.5726320819505633e-01 7.6594157913735721e+00
    -2.3616235623048331e-02 7.7814548358604219e+00
    2.4521335341567274e-01 8.8364849719344409e+00 5.9285894037567344e-01
    1.0160968444313367e+01 9.8178427089745512e-01 1.1262002000950861e+01
    1.3579447289711073e+00 1.2418844190808995e+01 1.6064856916297126e+00
    1.2259153236167140e+01 1.6434145074637188e+00 8.4466899871596759e+00
    6.7619957818069709e-01 9.4456539902454235e+00 7.0220054894540895e-01
    9.1666822784108124e+00 5.8185482918509313e-01 8.9363578803003492e+00
    3.8204493878073181e-01 8.2089734574744107e+00 1.4830626847942430e-01
    7.7521149595543690e+00 -7.9058279516456886e-02
    7.9691592660625012e+00 -2.8512598885292689e-01
    7.9319501014741913e+00 -4.6156069282960621e-01
    8.1034009570297449e+00 -5.8012198462654030e-01
    8.2918463022687376e+00 -6.6451042826312545e-01
    8.0652775522192766e+00 -6.7800720433953443e-01
    8.2436049568417484e+00 -7.2502582447524355e-01
    8.2100710277189322e+00 -7.5831610728697674e-01
    7.7301511313820637e+00 -7.6653126236966584e-01
    7.8987801444256087e+00 -8.1702912614399570e-01
    7.7301396052860012e+00 -8.2117208689195686e-01
    7.6285455731643577e+00 -8.1641600862963393e-01
    7.8927052650574527e+00 -8.2684947640062711e-01
    7.9924760866275628e+00 -8.1033140713857432e-01
    8.1022408072483358e+00 -8.0560000420359656e-01
    7.8967072264832439e+00 -7.6747352088762066e-01
    7.7547476489242202e+00 -7.1438587860173219e-01
    7.8660509567545382e+00 -6.3671774531587622e-01
    7.6116618306570274e+00 -5.0032109856834939e-01
    7.6998716086757666e+00 -3.2315056756261201e-01
    8.1063264605689689e+00 -6.9678973181723239e-02
    8.1705060964137459e+00 2.2468589327512370e-01 9.2115890130705314e+00
    5.9509148249308208e-01 1.0641139466568932e+01 1.0210184846483950e+00
    1.1825287952443952e+01 1.4371810478130647e+00 1.2967513533253840e+01
    1.7055809209484190e+00 1.2605859805179684e+01 1.7145797182164018e+00
    8.2511070300723155e+00 6.8807301843664115e-01 9.1486460028253607e+00
    7.0405873170104472e-01 8.8190102891137876e+00 5.8388161850109010e-01
    8.6806312921168178e+00 3.9107708281153652e-01 8.1198893439738331e+00
    1.5671907701468271e-01 7.7212164426603440e+00
    -7.3604480563456545e-02 8.0820153586960259e+00
    -2.9415821850748342e-01 8.0713999641093856e+00
    -4.8678706659496057e-01 7.9340905394874168e+00
    -6.0259289836198127e-01 7.9358752826700183e+00
    -6.6783776485382718e-01 7.7766860614990581e+00
    -6.7827801890438066e-01 8.0893636638598796e+00
    -7.1860716952558668e-01 7.9234974689321778e+00
    -7.2854829111845509e-01 7.3841329925649823e+00
    -7.1386163675903624e-01 7.3302736673469351e+00
    -7.4045639036995958e-01 6.9863510689129686e+00
    -7.3077452485558225e-01 6.9868577019774607e+00
    -7.3173082020970759e-01 7.4740593280230172e+00
    -7.5586281361414165e-01 7.9905126623275606e+00
    -7.7166365516245561e-01 8.6653462133091388e+00
    -8.1750058662835645e-01 8.6755902383533421e+00
    -8.0722990223525937e-01 8.5052868931780150e+00
    -7.6284781963583870e-01 8.4868222995606271e+00
    -6.8224547607676622e-01 8.0052014966222167e+00
    -5.2969164754445675e-01 7.9240685769268246e+00
    -3.3920773612202942e-01 8.2135451284858458e+00
    -7.8496188110100784e-02 8.0327678531631399e+00
    2.0901005117726185e-01 8.9449483722699785e+00 5.6533611628612668e-01
    1.0293003382490422e+01 9.8057049357262682e-01 1.1592512172601936e+01
    1.4147068026189509e+00 1.2879291419199625e+01 1.7105175461462516e+00
    1.2529789610610125e+01 1.7388853472980186e+00 8.3339134222890259e+00
    7.4589484555708307e-01 9.4320416615203637e+00 8.0271101277838341e-01
    9.3562035353945436e+00 7.2502896151942431e-01 9.1425475250082595e+00
    5.4564827543785399e-01 8.3108329719306120e+00 3.0728170128542331e-01
    7.6378242453803891e+00 7.3109162577448303e-02 7.7895378234873194e+00
    -1.4190601634574745e-01 7.8171181187167793e+00
    -3.4848471259639446e-01 7.8363102177968731e+00
    -5.0240261820743204e-01 7.7784190595084377e+00
    -6.0346310700298622e-01 7.5387806877842012e+00
    -6.4836135147676033e-01 7.9240992882560164e+00
    -7.2757714724165634e-01 8.0497049117639605e+00
    -7.8167623286725985e-01 7.6431947134132532e+00
    -7.8527419351322081e-01 7.6277935089248148e+00
    -8.2369892750279328e-01 7.2773955064602269e+00
    -8.2008513826765317e-01 7.1785869439475070e+00
    -8.2470067272315373e-01 7.5644089814537505e+00
    -8.5159981495736725e-01 8.0065691266213790e+00
    -8.5448120486648382e-01 8.4348232392286455e+00
    -8.4754286899349296e-01 8.4504303947107342e+00
    -7.9501337394431182e-01 8.2500113188812616e+00
    -7.0749662915081801e-01 8.3756729272049135e+00
    -6.1499739413910248e-01 8.0008639461457971e+00
    -4.6405260332620568e-01 8.0493956005509730e+00
    -2.8341148691032109e-01 8.3621800045774481e+00
    -3.2357499789286974e-02 8.1464048653338459e+00
    2.3753244665588114e-01 8.9249587240684587e+00 5.7801960837272870e-01
    1.0065791721483732e+01 9.6577560593231448e-01 1.1240266147796016e+01
    1.3682021880373207e+00 1.2550811517487196e+01 1.6714213703429051e+00
    1.2239047393682775e+01 1.7138237011843389e+00 7.9207524249608161e+00
    7.1312683515492503e-01 8.8701154716978987e+00 7.6453617938080842e-01
    8.7546293589957713e+00 6.9511159138206779e-01 8.4456169181854701e+00
    5.3860662794487535e-01 7.7093478399031730e+00 3.3495198575805440e-01
    7.1592235198663303e+00 1.2242822217172079e-01 7.2916155457326068e+00
    -9.1527944592479885e-02 7.2967531192665067e+00
    -3.0040142958353050e-01 7.5500266137779457e+00
    -4.7476866104574184e-01 7.8707198252034889e+00
    -6.1138364817856294e-01 7.7820170228363708e+00
    -6.9845348047853717e-01 8.1023822943091428e+00
    -7.9876112091472407e-01 8.4655958287151485e+00
    -9.0034475201412567e-01 8.3181558247678424e+00
    -9.4358665716678003e-01 8.6756678139146644e+00
    -1.0542955795653963e+00 8.3966227704732521e+00
    -1.0719799966955241e+00 8.0693438070187735e+00
    -1.0693911961722036e+00 8.0479116083369746e+00
    -1.0667769038362265e+00 8.0151044125644173e+00
    -1.0393846495772585e+00 8.2846561420690694e+00
    -1.0163103658208950e+00 8.2354905714399642e+00
    -9.2359646153315844e-01 7.9354452450171955e+00
    -7.7761991936393238e-01 8.1795552276980352e+00
    -6.6515406359122931e-01 7.9870112359456655e+00
    -4.9521638773708981e-01 7.9593645941729303e+00
    -2.9288493861533837e-01 8.1226984102410036e+00
    -4.0402274859695865e-02 7.9535200496357774e+00
    2.2894222111274973e-01 8.7049100873414496e+00 5.6606427070847443e-01
    9.8147295285772795e+00 9.4449681807299468e-01 1.0996880715214189e+01
    1.3382913338795859e+00 1.2352697643313585e+01 1.6452615350488033e+00
    1.2081088793337374e+01 1.6925225220982227e+00 8.0792738935685033e+00
    7.5471211235316082e-01 9.0432862215162473e+00 8.1154210235603141e-01
    8.9222190648677611e+00 7.4103358016351661e-01 8.6043690689957373e+00
    5.8657153126556694e-01 7.8088063446686400e+00 3.7869261975342061e-01
    7.3107025178587133e+00 1.5760281342259852e-01 7.5792311378067119e+00
    -8.3929023307957873e-02 7.5920191046142484e+00
    -3.2899562181878589e-01 7.7904835636916498e+00
    -5.3223093076477523e-01 8.0878885386431882e+00
    -6.7038464364771932e-01 7.9750485258608634e+00
    -7.5283497714489944e-01 8.0992727095744588e+00
    -8.2099626161690786e-01 8.1387891563353705e+00
    -8.7424956803562848e-01 7.9726274164355377e+00
    -8.9646673238184915e-01 8.3319592419421209e+00
    -9.9157007672750808e-01 8.2140995446767793e+00
    -1.0269427282596706e+00 8.1984205068565625e+00
    -1.0864639230858630e+00 8.3576902755116986e+00
    -1.1313315372923123e+00 8.2940106316942348e+00
    -1.1252307471831005e+00 8.5579990077142991e+00
    -1.1277163878159056e+00 8.4792641308926644e+00
    -1.0409473955362554e+00 8.1487762043709058e+00
    -8.9142611661875937e-01 8.3499434789762041e+00
    -7.6721612914277737e-01 8.2572952266574884e+00
    -5.8402681420511360e-01 8.0771954939564914e+00
    -3.4275863525577499e-01 8.1184152911133634e+00
    -7.1371646936372865e-02 8.0214526688331453e+00
    2.1501914636559166e-01 8.8196614333447609e+00 5.5883248116126383e-01
    9.9882680594994895e+00 9.5044670108489315e-01 1.1193471219987142e+01
    1.3546572751685271e+00 1.2416702642679098e+01 1.6405010692044559e+00
    1.2134994948353041e+01 1.6807783499618314e+00 8.4094268634212117e+00
    7.9225482426615912e-01 9.2127741123404547e+00 8.4133850215761652e-01
    8.8631104674233239e+00 7.4410841064979405e-01 8.6125807800216467e+00
    5.9634532598176504e-01 7.8490298633113440e+00 3.9224058456784711e-01
    7.2835407370762510e+00 1.6606618040487373e-01 7.4927045879992082e+00
    -7.7059163205630221e-02 7.5214126244187156e+00
    -3.2229749189171886e-01 7.9109816477760448e+00
    -5.3535726797265859e-01 8.3812605971972687e+00
    -6.7499787187351268e-01 8.3524550940566922e+00
    -7.3634788055697431e-01 8.5932026158591057e+00
    -7.6336824653119362e-01 8.6510265343051884e+00
    -7.6350696920856431e-01 8.4454165875931597e+00
    -7.3831475005232006e-01 8.8118769066368099e+00
    -7.8276273596841028e-01 8.3536067194595240e+00
    -7.7396508015024390e-01 8.1248980088874401e+00
    -8.0197264752612074e-01 8.2413179358484765e+00
    -8.5699436548766050e-01 8.1450972736677638e+00
    -8.6990101758493832e-01 8.3563374760915483e+00
    -8.8731354115628636e-01 8.1381794045795406e+00
    -8.2917340341840307e-01 7.8433017786388879e+00
    -7.4870788402075827e-01 8.0686723556869389e+00
    -6.6128866387739205e-01 7.9664322249908812e+00
    -5.0820845856656049e-01 7.9845777523218535e+00
    -3.0481840331682469e-01 8.2438250612792672e+00
    -5.1777520352800740e-02 8.2903143465982545e+00
    2.3971076746701017e-01 9.1961352322581362e+00 5.9629996521329853e-01
    1.0321105946118502e+01 9.8257399264200829e-01 1.1369709139026570e+01
    1.3589997109511311e+00 1.2475178646229034e+01 1.6289058084365799e+00
    1.2180326401543828e+01 1.6546486081944514e+00 8.5565394928424823e+00
    8.1516014577243090e-01 9.2203212005537054e+00 8.4145036684737617e-01
    8.8300429309701514e+00 7.3923555507765337e-01 8.6521708338557737e+00
    5.8745513798367943e-01 8.0588112035079202e+00 3.8698257338202641e-01
    7.4809797709517536e+00 1.5355132094274812e-01 7.6469007489627447e+00
    -9.7560562862144456e-02 7.5864918282268636e+00
    -3.4840803371240703e-01 7.8413459634272602e+00
    -5.5531655651439382e-01 8.1699927617647070e+00
    -6.8694961122431819e-01 8.0327150799436176e+00
    -7.2640993887315808e-01 8.2206845085234015e+00
    -7.2172460119987780e-01 8.2540660176745444e+00
    -6.8362302742369963e-01 8.0142974944533858e+00
    -6.1624065147095408e-01 8.4346356907148987e+00
    -6.3626439774583554e-01 8.0684621089895767e+00
    -6.3076233971573192e-01 7.7757497294039473e+00
    -6.6248156340608133e-01 7.9923934079286738e+00
    -7.2087595832010976e-01 7.8785505819564028e+00
    -7.4089320468332343e-01 8.2931630848846041e+00
    -8.0391173352285850e-01 8.1998750130456539e+00
    -7.9339883800945354e-01 8.0737512763776280e+00
    -7.5853070827808400e-01 8.3035533962600550e+00
    -6.8449481783775623e-01 8.0330636255799899e+00
    -5.3287662557118876e-01 7.9762450614170550e+00
    -3.3051769432031919e-01 8.2559686675236286e+00
    -8.0326177720519115e-02 8.3243493121292182e+00
    2.1338089932519916e-01 9.2434033771227746e+00 5.7156925538758407e-01
    1.0289326511058874e+01 9.4931969188668330e-01 1.1211142723183571e+01
    1.3096523842129819e+00 1.2255143309594025e+01 1.5766216612793105e+00
    1.1965466207009541e+01 1.6223607403938578e+00 8.8047444975549904e+00
    8.4512694622222728e-01 9.3417989907077743e+00 8.5845236326756613e-01
    8.8032586932237518e+00 7.4434765111186363e-01 8.6299234694873270e+00
    5.9984855859304165e-01 8.1657118595761506e+00 4.0965179802352875e-01
    7.6235921679186607e+00 1.8178634017717218e-01 7.7747369853967019e+00
    -5.4971416535409684e-02 7.6697432068632798e+00
    -2.9542381210647423e-01 7.7650311631424742e+00
    -4.9053039660266079e-01 7.9984033632755658e+00
    -6.2213258649370951e-01 7.7309148052487604e+00
    -6.5889445334385088e-01 7.8770928906015270e+00
    -6.4818208344670569e-01 7.8417938902470503e+00
    -6.0281270714278401e-01 7.5866125244251101e+00
    -5.3304228201417947e-01 7.9944879146860099e+00
    -5.4875304698214888e-01 7.7173080007528245e+00
    -5.5000192271912474e-01 7.5047192797506712e+00
    -5.9566440480474747e-01 7.8856564679846635e+00
    -6.7813601668088219e-01 7.8532989683212300e+00
    -7.2406074062683889e-01 8.3143918345193537e+00
    -8.0728536508676785e-01 8.2306906054759352e+00
    -8.1277938475089262e-01 8.2330957022947118e+00
    -7.9427084157885741e-01 8.5545448075336505e+00
    -7.2594211817104348e-01 8.2973246882654337e+00
    -5.6234393611718714e-01 8.3050267485326259e+00
    -3.5352986940345638e-01 8.5621048726290834e+00
    -9.2699753086844056e-02 8.5094638030415446e+00
    2.0128360963148059e-01 9.2597703673050518e+00 5.4824820382411588e-01
    1.0158192362739833e+01 9.0837448006292287e-01 1.0896467575846764e+01
    1.2456387069232759e+00 1.1815716079685579e+01 1.4925239192940434e+00
    1.1492701265370057e+01 1.5341405923700226e+00 9.1106054472414595e+00
    8.9622150200816719e-01 9.6418903744757802e+00 9.1494234317293510e-01
    9.0874527211788898e+00 8.0367523864559620e-01 8.8526029471563561e+00
    6.6008120327477759e-01 8.3062175994709229e+00 4.7079135908556591e-01
    7.6253293613234883e+00 2.4396093599936211e-01 7.6354425969579420e+00
    2.4775887286631756e-02 7.4321302573319885e+00
    -1.9461975513303889e-01 7.4846368079819694e+00
    -3.8092158671248438e-01 7.8150675904823421e+00
    -5.2603409946761381e-01 7.7638618410951459e+00
    -5.9416916084324056e-01 8.0843936856853240e+00
    -6.1090656238928043e-01 8.2742022490433627e+00
    -5.8243315381914673e-01 8.1178687359258976e+00
    -5.1438684083180342e-01 8.4566740270991314e+00
    -5.1316923030876660e-01 8.0385536044377499e+00
    -4.9628480799247959e-01 7.7143775286304015e+00
    -5.2041988175558962e-01 8.0628587881443625e+00
    -5.8053243778305774e-01 8.0760793102167252e+00
    -6.2372513582141231e-01 8.5476095594937203e+00
    -7.0771988918447981e-01 8.4336516629477707e+00
    -7.2597416357609634e-01 8.3193392709834431e+00
    -7.1098040442207766e-01 8.7742551502660362e+00
    -6.7105956543179979e-01 8.5260000135630847e+00
    -5.2672610818815457e-01 8.5440856779983587e+00
    -3.3875917140481088e-01 8.7592299902789392e+00
    -8.3419833094429269e-02 8.5984449445444149e+00
    1.9894503168644481e-01 9.2125254319498247e+00 5.2779040260215881e-01
    9.8980975622167975e+00 8.5865977926173509e-01 1.0462202491017631e+01
    1.1683052358566977e+00 1.1196277955682548e+01 1.3872260902774269e+00
    1.0849172521327072e+01 1.4256891783269547e+00 9.3645827050210233e+00
    9.5013329542846225e-01 9.7781427111944321e+00 9.6132144127417185e-01
    9.0594320853530181e+00 8.3628655318360434e-01 8.7723800832354080e+00
    6.9187678210682357e-01 8.1653065373816709e+00 5.0389969876029750e-01
    7.5964588646331270e+00 2.9427708727527657e-01 7.5580316628229172e+00
    8.9677711851902153e-02 7.2646863678224358e+00
    -1.1227082887786306e-01 7.2465130115379361e+00
    -2.8533336041230412e-01 7.6214210149896333e+00
    -4.2703527399483410e-01 7.5125354267947708e+00
    -5.0438191067432536e-01 7.7438732672974284e+00
    -5.3279167851993281e-01 7.8138257363321131e+00
    -5.1872678843567210e-01 7.6892252824964089e+00
    -4.7717402498733785e-01 8.1148096702591026e+00
    -4.9117691895631055e-01 7.7816093834930946e+00
    -4.7526532743639338e-01 7.5789114323469713e+00
    -4.7705576632972790e-01 7.9102637430501712e+00
    -5.1373332308036490e-01 7.7703043912416696e+00
    -5.3532479741007810e-01 7.9386764789687065e+00
    -5.8855617957596296e-01 7.7028510776368835e+00
    -5.9979580106237895e-01 7.5134240915459589e+00
    -5.8925439857424278e-01 8.0006443228441988e+00
    -5.7578878814503909e-01 8.1640825002324764e+00
    -4.8807629014367165e-01 8.2135247742468671e+00
    -3.2643743378402879e-01 8.3743089024937998e+00
    -1.0410886634152441e-01 8.3194082080506213e+00
    1.5000989595898140e-01 8.9809664097467312e+00 4.5951939526506541e-01
    9.5439745377962169e+00 7.7069024906412154e-01 9.9277587760889112e+00
    1.0582734792883253e+00 1.0627665395352379e+01 1.2749778492014037e+00
    1.0348469504660834e+01 1.3262779446738151e+00 9.5115506216635080e+00
    9.7522525285672834e-01 9.9284251862908590e+00 1.0008299831910534e+00
    9.2051971749781778e+00 8.7653343823944452e-01 8.9887110577704785e+00
    7.4090357697352549e-01 8.3971633621256263e+00 5.5934943466852272e-01
    7.8013033881636007e+00 3.5859012408670454e-01 7.7252527227980474e+00
    1.7591350439993972e-01 7.3916774316471008e+00
    -1.7377585755448679e-03 7.2925650284779175e+00
    -1.5033426464059729e-01 7.3927616941029939e+00
    -2.5403273950883304e-01 7.2485689827488473e+00
    -3.1280941579583665e-01 7.4149760052001152e+00
    -3.3083968259694374e-01 7.6021783867576671e+00
    -3.3209975274559772e-01 7.7289381789710463e+00
    -3.2573241869723674e-01 8.1335137044771706e+00
    -3.4321725633864186e-01 7.9530402067686214e+00
    -3.5261140019986292e-01 7.8470847924777027e+00
    -3.7456598569554839e-01 8.1364931490668351e+00
    -4.0904838547823602e-01 8.0134562107464706e+00
    -4.3173974388258363e-01 8.0120936010992700e+00
    -4.6766044841155979e-01 7.4667629043005812e+00
    -4.5965077703397828e-01 7.0320214218924288e+00
    -4.3339444028976382e-01 7.3853244487530869e+00
    -4.1177081335360088e-01 7.6725155332631365e+00
    -3.4450270280633749e-01 7.9290906599168789e+00
    -2.1309187950908617e-01 8.1645995364558548e+00
    -2.6712793774046013e-02 8.1637625704055701e+00
    1.9071764845196909e-01 8.7786646307351042e+00 4.6231144876804814e-01
    9.3737518607372508e+00 7.5007042962613635e-01 9.7773469469776497e+00
    1.0223105035420108e+00 1.0599889243231310e+01 1.2525121673613984e+00
    1.0431703158896704e+01 1.3085626344295123e+00 9.7325257932603382e+00
    1.0445525473859543e+00 1.0220472076281784e+01 1.0793253047239588e+00
    9.6196501044045046e+00 9.7813114330822704e-01 9.5764809622022877e+00
    8.7896540618326113e-01 8.9869682180922208e+00 7.1303276379455394e-01
    8.4214241234308549e+00 5.3512700119428225e-01 8.3059800401016144e+00
    3.7870811953875139e-01 7.8276206047528945e+00 2.1490415336548482e-01
    7.5290881399998133e+00 9.1609681335466944e-02 7.4461939930222334e+00
    7.3289792342403409e-03 6.9607136566088386e+00
    -5.4627681016023222e-02 6.7968507750766500e+00
    -8.5703468800869681e-02 6.7862108981896361e+00
    -1.0742253977341751e-01 6.7667455574226674e+00
    -1.2635747823182572e-01 6.9486693883197663e+00
    -1.5081948142545409e-01 6.8229508414884830e+00
    -1.7322047993482687e-01 6.7986248068552566e+00
    -1.8845861209617404e-01 7.1580304354222131e+00
    -1.9646548265969049e-01 7.1143468693323371e+00
    -1.8980272027355616e-01 7.2323880333942903e+00
    -1.9351825662344060e-01 6.9763756997652706e+00
    -1.8346628124771772e-01 6.6683363118066579e+00
    -1.6446070286444897e-01 6.9831008770875185e+00
    -1.3381003870441016e-01 7.2970014186266550e+00
    -7.3798435879112709e-02 7.6705659697753266e+00
    2.6806284853637483e-02 8.0282662392041715e+00 1.6800309292507173e-01
    8.2019655023036613e+00 3.4105814123326894e-01 8.9383559501450929e+00
    5.8604474055260769e-01 9.8013960762533792e+00 8.6894875804229776e-01
    1.0480920176290407e+01 1.1517856589039179e+00 1.1425762184066668e+01
    1.3855765500970436e+00 1.1216873325180220e+01 1.4363566297266204e+00
    1.0082141443739379e+01 1.1243680855284590e+00 1.0535723245575173e+01
    1.1875374307536284e+00 1.0119780189243723e+01 1.1491917596165104e+00
    1.0535087815718045e+01 1.1688678118808840e+00 1.0280000012321798e+01
    1.0897718259811995e+00 9.8617880075353259e+00 9.6748894162857968e-01
    9.6806478755851924e+00 8.4978895012399824e-01 9.0623908543041196e+00
    6.9770618925670025e-01 8.4427928419601752e+00 5.6958743082315688e-01
    8.1677887697271458e+00 4.8158190911156645e-01 7.6135474955160447e+00
    3.9998774754462113e-01 7.5483429801870638e+00 3.6461274134969024e-01
    7.5092124549476686e+00 3.3563053179347163e-01 7.4134171836213998e+00
    3.1047877266720986e-01 7.5899700285631084e+00 3.1512209773291788e-01
    7.4980805033962161e+00 3.0736020214975857e-01 7.5205180501524147e+00
    3.1613440516872648e-01 8.0711801044763849e+00 3.6443199298372297e-01
    8.2518132100694555e+00 3.9809292535926344e-01 8.5523436296850281e+00
    4.1870087662666011e-01 8.2360592123547942e+00 3.9680259159828724e-01
    7.8641393851698576e+00 3.7308311693696750e-01 8.1879116644227050e+00
    4.0309445266682709e-01 8.6564524432923839e+00 4.6895368941385024e-01
    9.3197477058623566e+00 5.8072414017646834e-01 9.8520618992656956e+00
    7.1301085367264772e-01 1.0247846410023518e+01 8.6075117252120470e-01
    1.1066035272291508e+01 1.0882071846576558e+00 1.1910090057821588e+01
    1.3255690924327854e+00 1.2457478807848455e+01 1.5280600689260688e+00
    1.2917292513509482e+01 1.6487949534655382e+00 1.2579540802462647e+01
    1.6409300817591659e+00 1.9493576521412834e+02
    -5.6797099514344588e-03 4.4918841947209778e+01
    -3.1746934608012541e-02 2.0823063261988285e+01
    -6.7733722283290665e-02 1.3192949199699616e+01
    -1.1996986946191539e-01 8.9293395183342756e+00
    -1.9293347414179293e-01 3.5925333514389917e+00
    -5.1722390674115315e-01 3.3635104586920894e+00
    -7.9911169049848974e-01 3.1227601527337967e+00
    -1.1451123209981158e+00 3.2796621415198475e+00
    -1.5642918930553742e+00 3.1453300894510812e+00
    -1.6950505919620136e+00 3.3740059712398431e+00
    -2.1716312157848052e+00 3.8002392532927702e+00
    -2.6459526079428990e+00 3.8777092118304628e+00
    -2.8184693434421244e+00 4.4659784536862723e+00
    -3.4267566141360306e+00 4.3979150853232092e+00
    -3.3251635022807178e+00 5.0759934785154126e+00
    -4.1130148177122665e+00 4.8976535414115316e+00
    -4.0294818563725299e+00 4.8169048537327734e+00
    -3.9456646804227447e+00 5.3391200780673413e+00
    -4.5237469556559491e+00 5.3104909619348586e+00
    -4.4776659223858886e+00 5.1546968065235310e+00
    -4.3648237406101149e+00 5.1885416137203197e+00
    -4.3932265097089118e+00 4.6287340738856670e+00
    -3.7875579249489109e+00 3.8916488509084513e+00
    -3.1472977396476418e+00 2.4030845829719212e+00
    -1.3991213844201316e+00 2.3888992688146904e+00
    -8.9846777485532014e-01 2.5894893770016458e+00
    -6.2695417114779206e-01 8.0899195175120031e+00
    -1.6750436428361673e-01 1.3344751750260150e+01
    -1.0944624430237491e-01 2.6984854965207276e+01
    -5.8143260119825395e-02 6.4844624671561590e+01
    -2.9300022831808256e-02 1. 0. 6.1596874896533675e+00
    -3.7808479664599332e-01 3.8267672534769419e+00
    -1.1212315311168897e+00 3.7032025748599864e+00
    -1.9666866091395758e+00 4.0511475526800567e+00
    -2.8863842888197655e+00 4.6660334639128980e+00
    -3.7182254847915726e+00 4.4551051102449142e+00
    -3.5939455184632010e+00 3.9440107902307990e+00
    -3.0511965497685214e+00 3.6659171709823473e+00
    -2.6987772165978199e+00 3.6488648841395461e+00
    -2.6640380891425099e+00 3.8029970244595481e+00
    -2.7812602847152301e+00 3.8940978229087237e+00
    -2.9027052548762926e+00 4.2666056153686149e+00
    -3.3314301245883060e+00 4.4831972995162008e+00
    -3.5523847819090295e+00 4.3883266740955964e+00
    -3.4652385202332074e+00 4.4814491774428031e+00
    -3.4854319635821511e+00 4.7361677821876800e+00
    -3.6381116052180218e+00 4.5978682443639887e+00
    -3.5377800027162110e+00 5.2151087412755475e+00
    -4.1566916771220299e+00 5.8538191583560621e+00
    -4.6950139921847800e+00 5.5322384363281474e+00
    -4.3054612868846274e+00 5.1908575280143108e+00
    -3.9142944345448942e+00 5.3025273103300341e+00
    -4.0237686961178651e+00 5.2546711082943753e+00
    -3.9673591747923647e+00 5.1236296889783839e+00
    -3.8108509541140578e+00 4.8357419919113775e+00
    -3.5193331551837739e+00 4.5074472331105051e+00
    -3.1751954920675289e+00 4.4292876899440810e+00
    -3.0203363987571108e+00 4.4770284353657219e+00
    -2.9121623381828083e+00 4.4030829794736306e+00
    -2.7189258222283859e+00 3.6601661505834966e+00
    -1.9210266140775041e+00 3.1976153292125136e+00
    -8.3281493237809090e-01 1. 0.</input_scale>
  <output_scale>
    5.2631578947368418e-01 4.9999999999999994e-01 5.2631578947368418e-01
    4.9999999999999994e-01 5.2631578947368418e-01 4.9999999999999994e-01
    5.2631578947368418e-01 4.9999999999999994e-01 5.2631578947368418e-01
    4.9999999999999994e-01 5.2631578947368418e-01 4.9999999999999994e-01
    5.2631578947368418e-01 4.9999999999999994e-01 5.2631578947368418e-01
    4.9999999999999994e-01 5.2631578947368418e-01 4.9999999999999994e-01
    5.2631578947368418e-01 4.9999999999999994e-01 5.2631578947368418e-01
    4.9999999999999994e-01 5.2631578947368418e-01 4.9999999999999994e-01
    5.2631578947368418e-01 4.9999999999999994e-01 5.2631578947368418e-01
    4.9999999999999994e-01 5.2631578947368418e-01 4.9999999999999994e-01
    5.2631578947368418e-01 4.9999999999999994e-01 5.2631578947368418e-01
    4.9999999999999994e-01 5.2631578947368418e-01 4.9999999999999994e-01
    5.2631578947368418e-01 4.9999999999999994e-01 5.2631578947368418e-01
    4.9999999999999994e-01 5.2631578947368418e-01 4.9999999999999994e-01
    5.2631578947368418e-01 4.9999999999999994e-01 5.2631578947368418e-01
    4.9999999999999994e-01 5.2631578947368418e-01 4.9999999999999994e-01
    5.2631578947368418e-01 4.9999999999999994e-01 5.2631578947368418e-01
    4.9999999999999994e-01 5.2631578947368418e-01 4.9999999999999994e-01
    5.2631578947368418e-01 4.9999999999999994e-01 5.2631578947368418e-01
    4.9999999999999994e-01 5.2631578947368418e-01 4.9999999999999994e-01
    5.2631578947368418e-01 4.9999999999999994e-01</output_scale>
  <inv_output_scale>
    1.8999999999999999e+00 -9.4999999999999996e-01
    1.8999999999999999e+00 -9.4999999999999996e-01
    1.8999999999999999e+00 -9.4999999999999996e-01
    1.8999999999999999e+00 -9.4999999999999996e-01
    1.8999999999999999e+00 -9.4999999999999996e-01
    1.8999999999999999e+00 -9.4999999999999996e-01
    1.8999999999999999e+00 -9.4999999999999996e-01
    1.8999999999999999e+00 -9.4999999999999996e-01
    1.8999999999999999e+00 -9.4999999999999996e-01
    1.8999999999999999e+00 -9.4999999999999996e-01
    1.8999999999999999e+00 -9.4999999999999996e-01
    1.8999999999999999e+00 -9.4999999999999996e-01
    1.8999999999999999e+00 -9.4999999999999996e-01
    1.8999999999999999e+00 -9.4999999999999996e-01
    1.8999999999999999e+00 -9.4999999999999996e-01
    1.8999999999999999e+00 -9.4999999999999996e-01
    1.8999999999999999e+00 -9.4999999999999996e-01
    1.8999999999999999e+00 -9.4999999999999996e-01
    1.8999999999999999e+00 -9.4999999999999996e-01
    1.8999999999999999e+00 -9.4999999999999996e-01
    1.8999999999999999e+00 -9.4999999999999996e-01
    1.8999999999999999e+00 -9.4999999999999996e-01
    1.8999999999999999e+00 -9.4999999999999996e-01
    1.8999999999999999e+00 -9.4999999999999996e-01
    1.8999999999999999e+00 -9.4999999999999996e-01
    1.8999999999999999e+00 -9.4999999999999996e-01
    1.8999999999999999e+00 -9.4999999999999996e-01
    1.8999999999999999e+00 -9.4999999999999996e-01
    1.8999999999999999e+00 -9.4999999999999996e-01
    1.8999999999999999e+00 -9.4999999999999996e-01
    1.8999999999999999e+00 -9.4999999999999996e-01</inv_output_scale>
  <weights>
    <_>
      7.4830018005707127e-02 4.2613771940282230e-01
      -8.0951892009210336e-01 -7.8661294803333126e-01
      -1.2927244191975684e-01 -6.6253924943122977e-01
      -2.7533900464763034e-01 -3.7930696270844826e-02
      -8.0813955871055065e-01 5.4456158845440861e-01
      -1.1270532207937101e+00 1.4593237553652725e+00
      -4.2149779370140418e-03 -4.4333388520288003e-01
      5.6911984335894650e-01 -5.0204135073631762e-01
      -8.3418738094132000e-02 1.1943706484184904e+00
      5.7961308094883113e-01 1.0014779691341993e+00
      1.2624056743130261e+00 4.9948654660296937e-01
      -4.1124774946812592e-01 2.4306344903264950e-02
      5.7914390468256016e-01 2.4970886132411216e-01
      -7.7089866190522369e-02 -3.2554742411712367e-01
      -2.1504536560350815e-01 1.3544843528489645e+00
      1.0444413836315745e-02 6.1000135473662387e-01
      6.0510542985911214e-02 -1.4130066004682307e-01
      1.3579494978106090e+00 4.9940617426754152e-01
      -7.3356795799098795e-01 -1.0392815435743861e+00
      3.1223115640960943e-02 -9.3041756748423535e-03
      1.9841937425926318e-01 2.4640297562035927e-02
      -1.4099369159478370e-01 -3.7930025129752598e-01
      -3.5857908562345864e-01 5.6859879435110960e-01
      1.2041649804230654e+00 3.4224976091797082e-01
      5.3554349163638582e-01 2.5426765276640262e-01
      4.0863771323184905e-01 -2.7659317704004738e-01
      -5.2042865477679345e-01 -5.5908892925957676e-01
      3.6115283159320921e-01 5.4077489378764898e-01
      4.5582254454071069e-01 -2.2522667424924350e-01
      -9.5530370112474464e-02 -5.9456293019086204e-01
      -5.5013321304556873e-01 -1.1742282880404382e+00
      -2.6806821167032446e-01 4.8534796666295077e-01
      -2.3911431601998795e-01 1.5913164620751377e-01
      -3.9454988470418606e-01 -1.1296551287191692e+00
      -5.8375072112785378e-02 -7.2332603199319512e-01
      1.3248712647346278e-01 -1.1094057557274935e-01
      -6.7298567881608062e-01 3.1277575451014711e-01
      -6.5226890642800350e-01 7.5768723153069428e-01
      1.8178421711270482e-01 -5.4147389401189827e-01
      5.7649117893194013e-01 -3.0641563616229245e-01
      -1.1037220376222291e-01 1.2114744266197224e+00
      2.4261525059637620e-01 8.0703395898646735e-01
      1.0314539333340007e+00 3.8704104625053121e-01
      -4.8132685972290917e-01 -5.9908798236601918e-02
      3.3057808639885283e-01 2.9385926527425188e-01
      2.8657044144962435e-01 -1.5963703476916019e-01
      -1.0756599133986566e-01 8.8707028704913637e-01
      -2.1654504504993283e-01 4.0912649425507502e-01
      -1.6097221674165324e-01 -2.4071932765889098e-01
      1.1786812618368190e+00 6.8919222372652067e-01
      -3.3423069193392030e-01 -7.3751980976636966e-01
      2.4472170195756465e-01 1.7543271513368186e-01
      5.1652236660115747e-01 -3.4379922939688806e-01
      -1.2789786242279200e-01 -2.3784570594986124e-01
      -1.4513163852261476e-01 4.5805415143781242e-01
      5.2195977739850075e-01 2.9070684736961561e-01
      4.4431847319697554e-01 1.4212911136376991e-01
      5.2624016785450822e-01 -2.4423206040098536e-01
      -2.2096728335540680e-01 -4.4128164832181760e-01
      2.6406136660390117e-01 2.6995509898250997e-01
      6.5675569116644272e-01 -4.1432659672139915e-01
      1.9611895209687719e-01 -5.2632156521265572e-01
      -5.1632848807472220e-01 -8.8273096053382127e-01
      -5.2868232155514649e-01 1.7735122938310527e-01
      -4.8788297544983944e-01 -7.4851701267714718e-02
      1.4496731583065303e-01 -1.7627388243916178e+00
      -1.0238853600345073e-01 -6.1135445269640076e-01
      6.2759685905341334e-01 3.6137364154058938e-04
      -2.8716512870081312e-01 -2.0688247958601753e-02
      2.9422195971692194e-01 -2.6837100043405460e-01
      4.5077065567521929e-01 -7.0384094981470868e-01
      2.6990966036378888e-01 -1.0062182856214899e-01
      -1.4960821458817525e-01 9.3969368564848554e-01
      -2.1040969769418069e-01 3.3319022251321395e-01
      2.4844879277569351e-01 5.0500814544658601e-02
      -4.8330000417332458e-01 -1.3750328065413156e-01
      -2.2750866637325992e-02 2.7889391073305464e-01
      6.1612628496568811e-01 -4.3609645176202666e-02
      1.0828239165628127e-01 2.5554576898763420e-01
      -3.1702244403004459e-01 2.3441877789909166e-01
      -5.1071642693582409e-01 -2.6454086695426804e-01
      6.2467196350091769e-01 7.7859000057942662e-01
      1.7329513991439452e-01 -8.3402960045910121e-02
      3.0396725914528561e-01 2.7150561237995802e-01
      9.7311598223380580e-01 -9.3650042498910391e-01
      1.0020109223785277e-01 1.9471556932959172e-01
      6.6411944890148511e-02 4.2819141516045794e-01
      -6.5256861800764099e-01 1.1491247661366638e-01
      1.9485008387500410e-01 -2.3527574816530057e-03
      5.5617108100721346e-01 -1.9725655776721840e-01
      1.0762435083069938e-01 -1.9313579772979722e-01
      6.1829097624561943e-02 -2.2141601806987504e-01
      9.7779585669854407e-01 -7.4794773696702732e-01
      5.4260092626217937e-01 -4.1102128916613079e-01
      -3.9559655900828533e-01 -2.4059722513047532e-01
      -8.1167280537166375e-01 -1.1787843256541489e-01
      -1.9835203989278138e-01 -4.1802937984225008e-01
      1.2488029591500793e-01 -1.6620523860939558e+00
      2.6276839615134093e-02 -1.4482197890979709e-01
      6.1882940405756814e-01 -2.1856215597351888e-02
      2.3652688160140928e-01 -4.2105645179021317e-01
      7.5467689197355037e-01 -4.3818897361534032e-01
      7.7049300247805630e-01 -4.2406172341530857e-01
      1.8967592510909140e-02 -2.9375832919347444e-01
      -1.7779954015345778e-01 1.1215726629476852e+00
      -4.9692657848011867e-01 -2.7909389817820818e-01
      7.6783725801633756e-02 -5.1035249265631487e-02
      2.9485011951295131e-01 -1.3123530267259750e-01
      1.4904240145193587e-01 2.7817599141461152e-01
      3.8592731930008473e-01 9.6099712349249425e-02
      2.1828929603054101e-01 -6.5063761914392046e-02
      6.6227671032673074e-02 2.4537124421049103e-01
      -1.8812772454004326e-01 1.0958376530419021e-01
      1.6187701120121831e-01 6.2113012049123117e-02
      -8.1163448340774227e-02 4.0500179083381754e-01
      3.4688643562070698e-01 2.1287470835252520e-01
      3.6445111467493169e-01 -8.2212850454979203e-01
      5.4632067153168440e-01 4.2023878787296109e-01
      1.4583215682551096e-01 4.6109831730506939e-01
      -4.4308623710005135e-01 6.6905469153273367e-01
      4.8160186814620787e-01 -2.3028566575670792e-01
      1.5505238506438179e-01 1.4500354652778263e-01
      -2.2328611198180615e-01 2.9847303860837687e-01
      -1.1819118901344731e-01 -2.0522973445029630e-01
      4.7384095818907479e-01 -7.1244124250547369e-01
      2.6248661110550381e-01 -4.3902509279321539e-01
      -9.2023542052190710e-02 1.0760523391252914e-01
      -4.7397222992255950e-01 5.2602909925036148e-02
      2.3011588666486146e-01 -9.6718466821871119e-01
      -2.0884749077056250e-01 -1.3191957071928417e+00
      1.9537627707622912e-01 9.5290914292772061e-02
      6.6284241856649928e-01 3.9071534226042787e-02
      3.2062559240663674e-01 -5.1627609877772063e-01
      9.3151320572225849e-01 -2.8374096727945369e-01
      5.2782637444382530e-01 -4.3056003767811907e-02
      -2.1297059647361774e-01 -1.3950281434892201e-01
      1.8139229851070909e-01 1.0912854251693838e+00
      -5.8055817185452907e-01 -4.2719860356804895e-01
      -1.3480595694716024e-01 3.7369448726486822e-02
      3.1121393038609252e-01 5.6997335577417221e-02
      2.3141394120166917e-01 3.7721930069748062e-02
      1.4316051605297458e-01 -1.9638236365717529e-01
      1.7468528391269428e-01 -4.0499049876710042e-01
      7.7778102224445589e-01 3.0801932238929824e-01
      6.3888494305576740e-03 5.0158876107880457e-01
      -1.1030048842919896e-01 -5.7362923610657046e-01
      -2.0597033754241550e-01 6.1253775145311096e-01
      5.1901343001911826e-01 1.8410100526177770e-02
      -3.0912707841454419e-03 -5.7557941296409176e-01
      6.3307153373680480e-01 2.2927655023147198e-01
      2.4409865140701170e-01 3.7035409766884070e-01
      -1.0288731225493826e-01 1.1397815914149056e+00
      5.4721117313223921e-01 -8.3973726082160915e-02
      -5.0816358158695597e-02 3.8247322416528745e-01
      -1.9972079201682186e-01 5.5207698736493993e-01
      -3.1645700466256416e-01 1.0956657092427412e-01
      -5.2844999528725942e-02 -5.2026462258332107e-01
      -8.7592108126354082e-02 -2.9380775783504637e-01
      3.1392418978710512e-01 3.7666272779611337e-01
      1.7353921102658532e-02 3.9969263026945971e-02
      4.5065472432889453e-01 -6.6440425966614736e-01
      -2.1206789007786059e-01 -4.2120738504647365e-01
      4.5759328606564703e-01 8.4687002731494154e-01
      6.4375768405795597e-01 5.0779780721555333e-02
      1.2540434674854131e-01 -4.0442866707530933e-01
      8.2966234874489597e-01 -3.4816828243013354e-01
      -1.1579922037779908e-01 -3.9477100337539761e-02
      -7.3118955472349700e-01 1.2785346799366004e-01
      7.3314794995076227e-01 9.4281238792131483e-01
      -3.8079913256924625e-01 1.1644705329182661e-01
      -9.0633339067400076e-01 4.6653672653940381e-01
      -2.3807208000100491e-01 -3.0290814758736278e-02
      3.2001808747037225e-01 -2.4257623564204719e-01
      6.0885108873323837e-02 -7.6845873322999581e-01
      -1.4179411847434828e-01 -7.2087534897778394e-01
      1.4042401780264044e+00 4.2108564821192868e-01
      3.8212579094522592e-01 4.2330748538051005e-01
      -6.3106406251329150e-01 -8.6495845671149041e-01
      -8.2215165950655367e-02 7.9195132958614967e-01
      5.3073246038977417e-01 -7.0911456976583159e-02
      9.7776300026130678e-02 -3.3890827508849830e-01
      3.7036053799063401e-01 -4.1331802236025054e-02
      3.4938168908254114e-01 2.7495042205699116e-01
      1.5974276519955458e-01 1.2305734031009770e+00
      5.8827068089636858e-01 -8.3174804540819644e-02
      -5.7891399337192208e-02 1.4592769770296506e-02
      2.4106561373970997e-01 1.7518033512494716e-01
      -2.9417143423193820e-01 1.4632081595183816e-01
      -3.9656311577205045e-01 -6.1136899866298866e-01
      -2.2137670555450992e-01 -1.3122022336235292e-01
      2.3548147580313711e-01 3.8533231958481871e-02
      4.4367109607184924e-01 -2.7424891804021495e-01
      5.2062734593392901e-01 -1.6606415306055311e-01
      -2.8744638545314166e-01 -2.7194131306775764e-02
      8.8747061084628043e-01 1.0514098712073916e+00
      5.8171800317041378e-01 -9.7084029724455775e-02
      2.0785915729632065e-01 -3.2289594429165042e-01
      8.2441977403027600e-01 -3.0418959323875738e-01
      -4.1930600008330005e-01 -4.2118337221576302e-01
      -9.7193895373882089e-01 7.3128032260710851e-01
      5.0265844557991757e-01 4.1867283189165211e-01
      3.6240639010950981e-01 4.0414968458309414e-02
      -1.3099982534452257e+00 9.5613840917872683e-01
      -4.8664144464401476e-01 9.9443754909064000e-02
      -8.8672086512542048e-02 9.1439124421312051e-02
      4.0543616326716658e-01 -1.0940809754450380e+00
      -1.7441512185560262e-01 -9.5783847980056469e-01
      9.1314513432527777e-01 2.2805534697756150e-01
      7.6419608794884430e-01 6.2462824369893061e-02
      -6.0744413920174245e-01 -6.9193407092040882e-01
      -1.3382308134726079e-01 7.5674659484705720e-01
      4.6563160674152254e-02 -1.0955522973776792e-01
      2.7074248173308502e-02 5.7781834204985609e-02
      -1.7322607919067498e-03 -3.1036542277868961e-01
      2.0242937378657577e-01 -9.6578821938761883e-02
      -1.5354396477644908e-01 1.0836215221515795e+00
      1.7383628147117725e-01 -3.2815044937199495e-01
      -3.9438280476984805e-01 -9.8728090515888128e-02
      8.5276589642365841e-01 -3.5517513754263697e-01
      -2.9301604496310824e-01 -4.9074672695211369e-01
      -3.0663152000203364e-01 -1.2693804494941183e-01
      -3.6544291035605830e-01 -1.5502827710204841e-03
      1.0183248230514080e-01 2.7651141277462880e-02
      1.4147021042683602e-01 -3.7410478203566450e-01
      1.0908580651919514e-01 -3.6267210836701136e-01
      -3.8049764879399711e-01 1.6851489584056881e-01
      7.8571446743703988e-01 1.1124542753523086e+00
      4.7568224640217849e-01 -1.8922552177225793e-01
      8.2125553217573977e-02 -6.9558337780503210e-03
      1.3990256624762594e+00 -2.2656454752356103e-01
      -2.7930334837904075e-01 -3.5116232388801560e-01
      -5.1928138966879176e-03 6.5887936008461778e-01
      -3.3420673717785142e-02 1.6855640553978071e-01
      2.9570382501112297e-01 -2.5657972049998667e-01
      -1.3273677553967145e+00 1.2111877782419778e+00
      -4.4958595711084731e-01 2.9010259133550681e-01
      -3.9600272729480085e-01 4.4855876272895112e-01
      6.0947282664915103e-01 -9.2711162508089684e-01
      4.6860258674445765e-02 -1.3614864446909349e+00
      4.9305945439960053e-01 -2.1122548051705181e-01
      8.8528480948156352e-01 8.3071211995865687e-02
      2.3382936010544673e-02 2.7506871741622210e-02
      -6.1551132503899951e-02 2.7556023795743079e-01
      -5.1717124643099988e-01 -4.3422872589616140e-01
      -3.9193754431287933e-02 -1.7906924539147377e-02
      -4.6467148072860492e-01 -3.5644345061175925e-01
      2.4595388509913899e-01 4.6157864116728436e-03
      2.0744384366016486e-01 7.1629251115628456e-01
      -1.9536383395243090e-01 -3.6387503752267403e-01
      -5.6333381214209088e-01 -3.6437095661684898e-01
      6.4998299425989914e-01 -3.8876696936515825e-01
      -3.8491211839587686e-01 -1.1430756097590107e+00
      -3.5205484122002900e-01 2.5745684012296000e-01
      -8.4879279207736347e-01 -1.6157459037818980e-01
      3.5655222557251134e-02 2.9274464412684531e-01
      2.5194112582356792e-02 9.3577485593907984e-03
      8.9411673295047844e-02 -2.1748805298282223e-01
      -3.9207948790369901e-01 -2.9235146599468026e-01
      7.1062897891453380e-01 8.1756873987614898e-01
      6.3880882245189752e-01 -4.6126322770134745e-02
      3.8301848061374622e-01 -4.4320562739507494e-03
      1.2124267972712015e+00 -9.9430492576700363e-02
      4.6436863502897163e-02 -3.4325073840781439e-01
      8.9902944804482277e-01 2.6594774824007694e-01
      -2.0942490368728298e-01 2.5245226162790219e-01
      5.0115888940842901e-01 -7.2101377964221314e-01
      -1.0183867037145287e+00 1.0000883204180306e+00
      -2.6838345787326923e-01 1.3694352752336059e-01
      -6.0634163139450714e-01 5.9549933429333268e-01
      1.0338823643284418e+00 -4.9586679397037980e-02
      -1.6597227582467300e-01 -9.9656042826953661e-01
      1.0498688866855066e-01 -3.1984331015017554e-02
      1.3008583487379574e-01 2.2961462796972035e-01
      1.7888026214811062e-01 1.8382191163694833e-01
      -3.1666332223084842e-01 3.0428212896485290e-01
      -3.8840518159044501e-01 -7.1714605172997981e-01
      -2.2486802501318268e-02 -8.5003056954734396e-02
      -3.7037089953599378e-01 -4.8503179552704745e-01
      3.1283098966240602e-01 5.3998125754855453e-01
      -8.4120250993342027e-02 9.3811365326072899e-02
      -1.0214320126535256e-01 1.0823758720345245e-01
      -3.8942851422499275e-01 -7.8236022952604872e-02
      6.9745212889170538e-01 1.4167033565475071e-01
      -3.2509974953010895e-01 -1.2106352769574773e+00
      -1.8393984349042011e-03 3.9457014316352168e-01
      -9.1428527157610717e-01 1.8635207830765468e-01
      2.6630494278721639e-01 9.0133272045726898e-01
      -4.9963512270437649e-01 2.6951413267952851e-01
      3.9789906029143540e-01 -2.7150825322871269e-01
      -2.1356995782250132e-01 -4.6410277403012168e-01
      6.6640200269649830e-01 3.9723792642711603e-01
      4.1008941551604283e-01 -2.5141421392696084e-01
      2.0904231879166127e-01 -3.8061763682198646e-01
      1.1163547385184167e+00 -8.8558305983492916e-02
      4.7592636855107295e-01 -1.7337171530082074e-01
      4.5431396558691600e-01 -4.2287577885376348e-02
      6.2531368834763956e-01 6.7789967071306789e-01
      2.8201584713754418e-01 -4.9021320649292272e-01
      -1.3104929648085337e+00 7.7248058852746593e-01
      -2.3904004980221683e-01 7.4673429660081780e-01
      -1.0226843317635825e+00 6.1372642708706704e-01
      1.3820233780830595e+00 1.8205897638112589e-01
      -2.8345265075359422e-01 -4.1915902853657899e-01
      -7.1708418599775531e-02 2.3945729141671281e-02
      -3.2013669744508290e-02 -3.1341753823620749e-01
      2.3758344411152513e-01 -2.4848334434268601e-01
      -6.3672386985491880e-01 3.7312842669662044e-01
      -2.1766193294935449e-01 -1.0848585693313824e+00
      3.1589370026214736e-01 4.3950280348471882e-01
      -4.9942962904114152e-01 -2.2679233477180549e-01
      3.9582292669696550e-01 2.5292549509147322e-01
      -3.0624841425910332e-01 -1.3261042132221151e-02
      -3.3924719060408803e-01 2.0514524219756039e-01
      -3.3736404920510288e-01 3.0261287140660714e-01
      2.0591861349527790e-01 8.3337795680081272e-01
      1.6899840240905811e-01 -1.2296339625162989e+00
      8.6506511951048345e-02 8.2250054781640136e-01
      -8.7185734285525152e-01 3.7488870944583830e-01
      9.0307816813385411e-01 7.9803670405613647e-01
      -4.8199706133200843e-01 1.9894941077617001e-01
      6.2061233005675309e-01 -1.3867283539319664e-01
      -5.6791639902589464e-01 -4.4556919949865131e-01
      3.8398937701375452e-01 3.7418975438263721e-03
      4.5802931590563412e-01 -3.5105249245063330e-01
      7.9173967866543099e-02 -6.1850508472192622e-01
      1.1977932321063312e+00 -2.9949008241677161e-01
      7.8876248982362018e-01 3.3856513787543074e-01
      2.1682266272798409e-01 2.5054564852298083e-01
      7.9502715690112113e-01 6.7828808251899619e-01
      6.0450715551752854e-02 -1.8875285102071027e-02
      -9.3782800323742321e-01 6.2983840329502394e-01
      1.0292557667935529e-01 8.8559872863872746e-01
      -8.3249131496135220e-01 5.7201218312265267e-01
      1.4329733972844731e+00 4.1703261444024126e-01
      -2.4395367237163124e-01 9.4913706460243677e-02
      9.7043069230915241e-02 2.0844161520742951e-01
      5.5923452642328897e-02 -6.2383926483957441e-01
      -1.1394317010713494e-01 -2.8129699471890085e-01
      -5.0616154636196786e-01 -1.3710097967088541e-01
      -1.6263016742497122e-01 -1.2553341646980125e+00
      4.3908516752580823e-01 5.9505601292228250e-01
      -1.5549251074209997e-01 4.3935706466413579e-02
      3.4114781085333240e-01 1.0325298890749005e-01
      -1.4089125220698775e-01 -3.7862837658806792e-01
      -4.0432637572151992e-01 -4.9920746780292125e-02
      1.5088402321810227e-02 4.1682556752863481e-01
      -3.0069615345112166e-01 1.2302186977513598e+00
      5.9909236571405833e-01 -1.0474980659251913e+00
      7.7157935108866671e-01 1.1373278438793681e+00
      -8.2500451654920404e-01 2.9987975027758917e-01
      1.0994624884246955e+00 3.7847290472640555e-01
      1.6200745936870351e-02 1.1683369061502254e-01
      4.6834336948371691e-01 -4.6270769115441512e-01
      -3.3807710511045608e-01 -4.7410197343500043e-01
      -1.7140034974321433e-01 -1.0297887898561993e-01
      3.8919318705139250e-01 -1.8218120706528582e-01
      -1.7189281374092658e-01 -2.1683829708077856e-01
      8.9590409907851443e-01 -8.0908800276680615e-01
      5.2640991389447833e-01 7.2724302547813768e-01
      4.3820881086858321e-01 3.9732534378378193e-01
      1.0267119314330522e+00 4.5358362491684734e-01
      -3.0081451011501670e-01 6.4657291213114554e-01
      -7.5964688428334570e-01 3.9918479429677761e-01
      2.0102121433619349e-01 9.6235125016670642e-01
      -5.5051429541169516e-01 5.4127013224366716e-01
      1.4253755489555664e+00 9.4960568073768881e-01
      1.3147677002406194e-01 3.3511130343250206e-01
      -1.4821095637481138e-01 1.3999090638988393e-01
      4.2643644657346415e-02 -3.7579698212529056e-01
      -4.0234381898325300e-01 -2.2083845681848444e-01
      -2.4785431961445914e-01 1.1172123716273079e-01
      -5.4757898012137263e-01 -1.2385155810382042e+00
      9.8470173249944323e-02 1.8010471088445545e-01
      -1.5246845657765437e-01 1.3104370773096752e-01
      1.1125829589153285e-01 2.4793893025639946e-01
      1.0290268007062628e-02 -1.0927850016640155e+00
      -3.1467222701402064e-01 -6.4544158659252049e-01
      3.8591496761803673e-01 2.8504257242444980e-01
      -7.8109517760445901e-01 1.2516205996722123e+00
      7.6973812650969931e-01 -7.7737571227846514e-01
      8.7078660954805553e-01 1.4139151742322866e+00
      -5.0283323527172397e-01 1.6670591767663731e-01
      9.2573562511751895e-01 8.9587651266708992e-02
      4.4956661045572055e-01 -2.0713217901569922e-01
      3.4519099852848312e-01 -1.1417092204215018e+00
      -6.6028359426237737e-01 -4.3147681689378331e-01
      -6.6614588592711477e-01 -2.3293560195739599e-01
      3.9345006950881539e-01 -8.2872107822772365e-02
      1.3099783006571203e-01 -1.1937941563016612e-01
      4.3559518707205874e-01 -8.4756018924545951e-01
      2.0927525143073009e-01 7.9211822976654245e-01
      6.4642573024981631e-01 5.8982202336858902e-01
      6.7521167189933440e-01 1.2660961324692019e-01
      -5.4506111661561873e-01 4.7830666116428988e-01
      -4.8331823443337341e-01 2.3525243185918251e-01
      5.9989841989254411e-01 1.0410582251737091e+00
      -1.0971703734318355e-01 5.6964827257699280e-01
      1.2310344231726982e+00 1.1762168535873780e+00
      4.3659132698994862e-01 -6.1743469999979171e-02
      -4.6141154846643306e-01 4.4023686863316078e-02
      -2.0826982411825562e-01 2.1410056340291500e-01
      -5.0689732011723820e-01 -1.5791463675136080e-01
      -8.4211572727085376e-02 4.1800557917981607e-01
      -4.9961366849367028e-01 -1.1384659358883489e+00
      -2.1389184063081312e-01 -2.0824478879313571e-01
      -7.5591798421122212e-04 4.3300772474183062e-02
      -1.1510938617055429e-01 4.5371173580153518e-01
      6.1853097891140928e-02 -1.5319427149021758e+00
      7.2333568013449603e-02 -1.0157365215841474e+00
      4.9455117163434058e-02 1.2198794500127938e-01
      -9.8241921205722993e-01 9.2728724174049804e-01
      5.1033381103425979e-01 -5.8062392973016463e-01
      8.4825078103359441e-01 1.2708139957421072e+00
      -3.2196486228295323e-01 1.0568935667163742e-01
      5.9625157181738064e-01 -1.5032839275013143e-01
      7.1576762028123131e-01 6.8995391003993364e-02
      2.6319576566447472e-01 -1.5726067340619985e+00
      -6.1917708904273117e-01 -8.1163609452577973e-02
      -6.4678831582002905e-01 1.6041256972991300e-01
      -1.1152974185903802e-01 -6.6060463180321702e-02
      5.4923066314893243e-01 -3.5050740606638547e-01
      3.0959545057092530e-01 -6.3069167247570168e-01
      -1.8348124433278964e-01 4.9325160828754533e-01
      2.4086987915739547e-01 5.5217039642013233e-01
      1.3220328210840898e-01 -5.4308699793233266e-02
      -8.3802484339869343e-01 3.2713770056073549e-01
      -3.0869031904745620e-01 5.0703664154142167e-02
      3.6740132615910237e-01 4.0695704854250442e-01
      2.6612725103077772e-01 4.2089023256440228e-01
      9.1423984143479053e-01 1.2074679358093807e+00
      6.2568948806652702e-01 -1.0155928611233396e+00
      -5.6507259850401170e-01 -6.6029910294269814e-02
      -2.3327532999278225e-01 2.8315622826510517e-01
      -3.1339015496894446e-01 -5.1084201496068071e-01
      -2.6463288729483314e-01 4.9246837268335170e-01
      -1.5157250763127425e-01 -7.2962837740781494e-01
      1.7821079704267503e-01 -6.8911143541369513e-01
      -1.2748056344110381e-01 3.2170583853943856e-02
      -1.6243650049245623e-01 4.1629652186244614e-01
      -2.1149441097463681e-01 -1.3403514740187148e+00
      2.2631961293317407e-01 -1.2019356241398014e+00
      -1.8070213083263750e-01 1.2885966476282493e-01
      -7.6481628205510610e-01 5.8137970686697116e-01
      8.2946266914021627e-02 -1.9653095111566521e-01
      3.5792204402201333e-01 1.1236494927972263e+00
      -3.0055420424949086e-01 1.9736386621643132e-01
      2.4433838677354924e-01 -4.2279831518613642e-01
      5.7132807696343291e-01 1.2543919923335084e-02
      -3.3349831380005045e-02 -1.1490445678398873e+00
      -1.1506781188947039e+00 1.9423864898343926e-01
      -5.9247383692381628e-01 2.4238671138919851e-01
      -7.8734275471801074e-01 -3.9702274788121585e-02
      8.2760979143982794e-01 -4.4379351632017400e-01
      4.0336784047675089e-01 -8.4621038166185492e-03
      -2.1850901960628802e-01 -6.2903771835761832e-02
      -3.3359775481924997e-01 3.6360413613941411e-01
      -4.2582407402474313e-02 -6.4448766404196778e-02
      -8.3131672088527131e-01 -1.7766243077956892e-01
      -5.6725486089831934e-01 6.3591861435506936e-02
      -3.5551569689645235e-03 2.8101783079747165e-02
      8.5921850862890004e-01 2.2406308139227787e-01
      6.6685471229920301e-01 7.9691747999679963e-01
      3.0588600451484838e-01 -1.2108115586741290e+00
      -7.6167453969445842e-01 -7.7838116138363833e-02
      -3.3152680321470812e-01 3.7996933323481037e-02
      1.9135874867852745e-01 -6.3837017504747762e-01
      -5.2061314406136738e-01 4.9742257888538130e-02
      2.3737281031078275e-01 -6.4572917030339183e-01
      3.0733857222657052e-01 -8.6618294051562272e-01
      -1.1019307290032214e-01 4.7624402649402886e-01
      1.7144176122053347e-02 -1.2795584988493858e-01
      -6.8437411538081439e-01 -6.4846637378368099e-01
      2.2640031111627340e-01 -8.8079031233687333e-01
      -2.8924940723648408e-02 5.0157879366191638e-01
      -1.9508889377085481e-01 6.7378926963584052e-01
      -9.6789751343023742e-02 3.1002190816003250e-01
      5.0728711260971893e-01 7.2496742361030697e-01
      -5.2990669188568995e-01 2.7966547667670566e-01
      -2.1629157575736391e-01 -4.6982798756569494e-01
      -6.6558057156239511e-02 -1.2215995893636276e-01
      -3.1467448502950129e-01 -2.3332415012542990e-01
      -1.3626266702554239e+00 3.9736446173894491e-01
      -6.1504643772788115e-01 5.4618531868383668e-01
      -1.2651718879146541e+00 -2.6490889851863159e-01
      9.8914882411403748e-01 -9.0693939489933539e-02
      5.0793049023270598e-01 4.9384472438740273e-01
      3.2832133196123089e-03 -5.6098495923295955e-01
      -2.7713221299931412e-01 2.3908454622247513e-01
      -2.2998131040032255e-01 -1.3025912143666260e-01
      -6.1415324675548655e-01 -4.2070873097159311e-01
      -8.5069004690344774e-01 1.6523707261845652e-01
      -4.9851608012066295e-01 -4.3676836223132603e-01
      1.0385417174827127e+00 4.8423384151387044e-01
      3.9590015570207615e-01 4.4637898579933627e-01
      3.5128513855806798e-01 -8.7061621564830549e-01
      -3.4515227122906916e-01 -4.0717102827225304e-01
      -5.0494909030012092e-01 3.3177976977023800e-02
      5.3472477250073003e-01 -2.9935116678576662e-01
      -1.2576934682299921e+00 -3.3041974075768565e-01
      3.6750563378596790e-01 -5.1299515628119474e-01
      2.7431858532177572e-01 -5.3199667036961962e-01
      -2.4070428648982384e-01 6.2267861012583947e-01
      1.9903420004205097e-01 -8.3292946017481151e-01
      -8.2919244461925878e-01 -2.6230224155023718e-01
      7.5051905706964503e-02 -8.1291317902389137e-01
      1.9009047327975495e-01 1.0787093505313916e+00
      -5.8359096704767377e-01 7.8033153953274048e-01
      1.1800832490382304e-01 7.8924924881262892e-01
      6.8993519564470940e-01 6.0417626561507087e-01
      -4.7587672429262556e-01 2.4407217226240652e-01
      -3.0983305109814890e-01 -3.9557495400011788e-01
      -7.3428702131053980e-01 -4.0808948001896495e-01
      -4.0220511934853648e-01 -9.7978027777063145e-02
      -1.0871063452624363e+00 6.5004648441375312e-01
      -3.7219834669726121e-01 3.0065236428257885e-01
      -1.1615728628918807e+00 -3.5206259509169918e-01
      3.5019800986359773e-01 -8.8477717330737088e-02
      3.6083565406341683e-01 -6.7648443222659655e-03
      1.1813305681194357e-01 -4.5075910421466886e-01
      -4.9312911974592422e-01 5.5467028608812252e-01
      -1.1375546228135347e-01 1.1181197456881517e-01
      -5.7003172306353067e-01 -7.5058925014759315e-01
      -8.0843995878389774e-01 3.3939986081450507e-01
      -4.3600628834690375e-01 -4.2165227269630068e-01
      5.8765333290097432e-01 1.1684559197341786e-01
      2.1447019332268280e-01 -2.6221430112821728e-02
      5.5498733657775612e-01 -1.8468777625693353e-01
      2.3849281813447221e-01 -3.1686271203503447e-01
      -7.1482930851667159e-01 3.6840771860673388e-01
      5.4579059036359112e-01 4.0460411226461053e-02
      -1.4299814130780006e+00 -9.3808660282011924e-01
      4.5322946295450750e-01 -9.7003464542314843e-02
      -1.5534137696150199e-01 2.5329164737134946e-01
      -9.6381116483045384e-02 2.4987899813248698e-01
      4.7582545861805708e-01 -1.0676251628591564e+00
      -3.7308738205934033e-01 -1.8358833322741713e-01
      1.0066528913271394e-01 -6.8288849031769294e-01
      4.4032084451656561e-01 1.1900390132867034e+00
      -8.8680408896973872e-01 1.0307334460256796e+00
      2.9324946415500119e-01 5.5143407893588103e-01
      2.9463367627997972e-01 6.8751872837247008e-01
      -2.3221253991446508e-01 2.6454538713702275e-01
      -2.7105654641835475e-01 -1.4555273282173514e-01
      -1.4269033538030036e+00 -2.3682246153860903e-01
      -3.3301002239654953e-01 -8.3362852628744728e-03
      -1.0030929719197135e+00 7.0742305316454068e-01
      -1.7687942504687704e-01 2.3109003621616619e-01
      -1.0883474406529086e+00 -3.5138713656026155e-01
      -2.5860883401262796e-01 7.0249785563983147e-01
      6.4708960074334812e-02 -4.6611885091375299e-01
      -1.0785618256732865e-01 1.1667542315588533e-01
      -2.4713612377761429e-01 8.6567419716082639e-01
      -1.6510904939845646e-02 -3.1734939034223097e-01
      -4.0862487949359949e-01 -8.8083866261638921e-01
      -5.6321575157149928e-01 1.4981058034593681e-01
      -6.3340215657151022e-01 -1.8497734798908314e-01
      3.1066823774230162e-01 1.7290407208808206e-01
      -5.3779646129146597e-02 1.1468281666408481e-01
      4.1750820888283713e-01 -3.3530327553979328e-01
      4.3666560343762130e-02 -3.6520628312193526e-01
      -2.9474347511200405e-01 4.0557962334546860e-01
      3.7998205946538349e-01 1.5987198460171073e-01
      -9.9507394081554124e-01 -1.4066341779990499e+00
      3.5561163897801851e-01 2.8318436055206930e-01
      -2.5504400687277506e-01 1.6424525418584268e-01
      7.7373542939861165e-02 8.3046566616483214e-02
      6.4384600575715611e-01 -1.1279909747005061e+00
      -5.8793711302406890e-02 1.2205100398087852e-01
      1.7375173311804756e-01 -5.2038925156935689e-01
      8.7829676843700710e-01 8.2475635332265429e-01
      -4.9355193149651455e-01 1.3157612545524386e+00
      3.6537660798348059e-01 4.6869082318853683e-01
      -3.7791946011499808e-02 7.2509535159294780e-01
      -2.2900286392568796e-03 3.5676989621415028e-01
      -3.2087885180483389e-01 -1.8558537472963105e-01
      -1.4545221479005197e+00 -3.7311729524992826e-01
      -1.8065260507583689e-01 2.5546607484246964e-01
      -7.2005125251228053e-01 6.9244202004601130e-01
      2.5620710123422147e-01 2.3898281754778850e-01
      -7.2505906976354595e-01 -3.8116046972259493e-01
      -7.7594542978943659e-01 5.9456542642795907e-01
      -1.5406376131293986e-01 -4.5765207373812600e-01
      -2.2107918881792696e-01 -2.7155449581205171e-01
      4.3001535166475358e-01 1.1780248128675277e+00
      2.3367699756181029e-01 -5.9915510250915660e-01
      -1.2021352220462259e-01 -5.4621204241979626e-01
      -2.5952410969760042e-01 -1.8359884718473166e-01
      -5.7489533159076045e-01 -5.2917583186757093e-02
      -3.8073399182178058e-01 2.6606521358854840e-01
      -1.1341556710171513e-01 -1.9495523934842596e-02
      4.5232533297769939e-01 -3.9184320135080203e-01
      2.4396326947730626e-02 -2.7500125741037834e-01
      2.1617321755911661e-01 4.5898728305126213e-01
      1.4942251445719870e-01 4.6278819893158613e-01
      -5.1505456727497567e-02 -1.4014833869039629e+00
      -1.9179701877865515e-01 7.1007473831271106e-01
      -4.0330697930226239e-01 1.1091755419989126e-01
      -2.6317839417093225e-01 1.1508838233385702e-02
      6.7946535122689955e-01 -8.5215145965578842e-01
      3.0836101174083036e-01 3.8719001925907287e-01
      8.0606618557032750e-01 -2.1781921451196684e-01
      5.9202250536972578e-01 7.1173358854242563e-01
      -6.3007182345177118e-02 1.3303829818723421e+00
      1.8598808268237293e-01 -5.5829702871578381e-02
      -4.7789422445584456e-02 1.3819349978056930e+00
      2.4889526024712005e-01 3.8974174685890667e-01
      -4.0420175046762763e-01 -6.2926378992298443e-02
      -1.0517478445180353e+00 -2.8551924462046330e-01
      -1.5718069109148478e-01 1.9200551792546897e-01
      -3.8675841596440697e-01 5.2983084883087417e-01
      5.8233163103594532e-01 2.5262009887959413e-01
      -6.2363804795544520e-01 -6.4808049218022024e-01
      -9.1998809475215626e-01 5.2306508569149340e-02
      2.1541605207296666e-01 -3.0546216652558267e-01
      -1.8943635296270936e-01 -7.8495838256521000e-01
      6.8016988658887589e-01 8.4321115741902775e-01
      -1.5055175348774213e-01 -3.5429957277146090e-01
      6.0105129727160971e-02 -1.7101596022484908e-01
      4.4489061249587139e-02 -4.0735723367566445e-01
      -6.3112070796997766e-01 -8.7832357520711501e-02
      -6.4122311739284832e-01 3.6311287919227608e-01
      -1.9663464698255750e-01 8.4816413038611177e-02
      4.7772284767167766e-01 -1.8660077757583465e-01
      1.0217506532300143e-01 -3.8009186659109395e-01
      4.7994385947553525e-01 1.6938134067138114e-01
      -1.3697463434310189e-01 5.5903493382314373e-01
      2.0030886090132188e-01 -6.2144483307496090e-01
      -3.7983774765154459e-02 5.8934011565877809e-01
      -5.2260091212765292e-01 -3.6412496233591288e-02
      -3.5479248712302786e-01 2.0859023376020167e-01
      8.7303374137366785e-01 -6.1870960373260853e-01
      1.9206767557156559e-01 6.5918392205938281e-01
      8.1171346323671112e-01 -1.8323510508286908e-01
      1.0109248684173605e-01 3.5028441284788908e-01
      -3.0469671163087370e-01 7.8681626866160748e-01
      -2.1904009244859593e-01 -1.2514186845133982e-01
      -2.6274353550076424e-01 7.8464176257672680e-01
      2.4403235176354562e-01 3.3468792975117034e-01
      -2.4046465162452854e-01 5.6434586544394316e-02
      -1.1180084169596319e-01 -1.0504766903487947e-01
      -5.1457880452937012e-02 3.7129182709764497e-01
      6.2229535389530605e-02 2.2769688564055479e-01
      6.4643209175328509e-01 4.0549219692943797e-02
      -2.2131036928958092e-01 -3.8793570414308476e-01
      -9.3164652446070573e-01 -1.8079120726416970e-01
      4.5743353359643824e-01 -7.2339004657676703e-02
      -9.1601666938265200e-02 -7.3658207057401626e-01
      3.3022841482049814e-01 3.0072249365289627e-01
      -3.1794415525506770e-01 -3.4361025239214854e-01
      5.8300709908201270e-02 6.3617109453504916e-01
      -3.0562877927834423e-02 -5.4604058172576053e-01
      -5.7931775390892970e-01 -2.4678977036747382e-01
      -4.6501710509575550e-01 3.8726740109027097e-01
      2.3700004860972949e-02 2.0691706843928589e-01
      4.0029094007604016e-01 1.3543549569389779e-01
      -2.7417258201338082e-02 -2.9109667321336979e-01
      5.5159731286117253e-01 1.9521239844526303e-01
      -4.3451217981958146e-01 6.5881332328143072e-01
      5.1677854330259221e-01 1.5423083127416562e-01
      1.8734952867825405e-01 3.5166811978847617e-01
      -5.6803752662677420e-01 1.9322682269271302e-01
      -3.9390908373997585e-01 3.9079947635933021e-01
      7.0603097166940498e-01 -8.7525246716344174e-01
      -1.8786078053011256e-02 9.3390702465184805e-01
      4.9892444973105587e-01 -9.4612644825443921e-03
      -1.2720128994293628e-01 -9.9734028391891161e-02
      -4.2966943201138114e-01 -4.7217491075697074e-02
      -3.1780593482464820e-01 -2.4533501570582666e-01
      -3.0722652426653768e-01 -7.4972073943042053e-03
      1.7521325632274531e-01 2.7474296935087311e-01
      3.4599112932732504e-02 4.9860170434731808e-02
      5.3828382843254852e-01 -5.2077939955005995e-02
      -1.6218234104165880e-01 1.9628867158810007e-01
      4.1034130981788036e-01 -3.2159294209273312e-02
      5.7157751100201359e-01 -4.3214853747812454e-01
      2.9688669637165671e-01 1.3905294348840416e-01
      -1.0382715756540897e+00 -2.5523430813931665e-02
      5.8841139753266469e-01 2.8884845010907717e-01
      1.7084321611778475e-01 -6.6607459977181827e-01
      2.3748130098337525e-01 -3.8438541380777075e-01
      -3.6221936636208124e-01 -1.3486581703081393e-01
      1.0908041532742950e-01 8.4846060296542436e-01
      3.9023270391171511e-01 -3.5025057748608673e-01
      -2.4560619206558007e-01 -3.9847114613463536e-01
      -5.1886533325695261e-01 3.7666176227028149e-02
      1.9758811672557372e-01 4.4403949401660103e-01
      4.6818463658456910e-01 5.9568822806622834e-01
      -2.0996719087102356e-01 -3.1764865284548166e-02
      4.5866607215313987e-01 1.5816284230949790e-01
      -7.3741872825668975e-01 7.8635667678879106e-01
      5.9046612287966704e-01 6.4675296240904845e-01
      8.3211600056073909e-01 3.9124941536233226e-01
      -6.6138298252161332e-01 6.1089439531170065e-04
      -5.5844133653627526e-01 4.1679806679073106e-01
      3.1724118780494487e-01 -1.0657624321717438e+00
      -3.9976644390679267e-01 6.3371838281602944e-01
      -1.3378496491808212e-01 3.3305407477885418e-01
      -3.0767766625688325e-01 -2.7689354037926933e-01
      -2.5874592848198563e-01 -6.9011133873562691e-01
      -4.7803307806030298e-01 -2.1968941885106355e-01
      -2.2382086105138452e-01 -1.0500936230082947e+00
      -1.5108999520376812e-01 3.0395350882220395e-01
      3.2501577335574910e-01 -9.5226018808760471e-02
      1.1441642376806238e+00 -3.1615296089013079e-01
      -2.6571708150823314e-01 -2.2532762278577007e-01
      9.7203812942447054e-01 -1.5728103923863501e-01
      6.0516272714886665e-01 -1.0414945131108315e-01
      6.9193515683920814e-01 6.0473969516517134e-01
      -1.4791953679220049e+00 1.6674176654452744e-01
      2.3612274292056379e-01 2.4905233854855025e-01
      1.3761811652417905e-01 -4.2676524765150291e-02
      3.5995949631831592e-01 -6.5581781482582746e-01
      -1.6469213276841854e-01 1.8989036740657980e-01
      -2.4620069664337901e-01 1.0875110628183979e+00
      1.2774919063349564e+00 -5.0857681675985922e-01
      -3.5355197424033355e-02 -3.6150445687956645e-01
      -4.6439935713399688e-01 -2.3011415462541177e-01
      4.9950568463918356e-02 2.5057374710117464e-01
      5.3024242167397162e-01 8.4709432524569883e-01
      -3.1801093003997599e-01 1.9528287636734776e-01
      3.5814634496182279e-01 3.2981729434062801e-01
      -4.7101278667742724e-01 1.1085592671861715e+00
      2.2817730000876824e-01 4.6231221607363082e-01
      9.0768842802830818e-01 6.7794629190889255e-01
      -7.2329157717577630e-01 -2.0101157976689576e-01
      -5.3512779611957495e-01 2.8641086048168873e-01
      1.2066173494780795e-01 -5.7218840596235365e-01
      -1.6603690558699097e-01 5.3682083508528677e-01
      -4.8752319606188849e-01 4.2664814851505783e-01
      -5.6777218417389100e-02 -4.6273614946372194e-01
      5.8683104083392390e-01 -8.5780711902801543e-01
      -4.0098310016662198e-01 -3.1013163490230705e-01
      -2.8965602459953999e-01 -9.3616337183813336e-01
      -8.3664020846029793e-02 1.8524859778861347e-01
      -1.0153727525578578e-01 -3.1473965546082927e-01
      1.0611251627004008e+00 -1.7551285544866974e-01
      -4.3490548812914304e-01 -6.3872778970291344e-01
      1.0436765913665178e+00 -3.0505895753369333e-01
      8.3403001412041977e-01 2.5297618745945549e-01
      3.8576522862786455e-01 7.2235688129701103e-01
      -1.7411973487406518e+00 5.4624279300046019e-01
      -4.5698156151068904e-02 1.4847568025858554e-01
      1.3026787193237194e-01 3.4442087883921468e-01
      4.3736022983783873e-01 -2.9593771305905220e-01
      4.5332269061275583e-02 7.8454308657892480e-01
      -5.7855661609436793e-01 5.9118139706843131e-01
      1.7821585749800957e+00 -1.8738414915896806e-01
      1.9753196908830653e-01 -3.3040034520449807e-01
      -4.5884094481908039e-01 -2.0922879113093523e-01
      1.6852754421072416e-01 -3.6076441931852798e-01
      5.5524425661395949e-01 1.0270258532169168e+00
      -4.4214655565662830e-01 3.8682226406955234e-01
      3.8620753809523178e-01 2.9012215683256926e-01
      -1.5757385086248837e-01 1.2906055509577712e+00
      3.6912751238389568e-01 5.1845368555390670e-01
      7.8494751815614838e-01 6.0300389977809787e-01
      -8.6053475835855620e-01 -5.6503120723846079e-01
      -6.4244379253098993e-01 2.0593992634459271e-01
      1.3191832402015813e-01 -3.4172058644131287e-01
      2.9840704252988243e-01 -8.3606767482828026e-02
      -6.6393779344530712e-01 3.9861280701494833e-01
      2.4720224374136526e-01 -5.0564172276682151e-01
      1.0991885172724647e+00 -8.9345446151659291e-01
      -2.6825792574388652e-01 -9.6559399348459321e-02
      -6.8681346912143348e-01 -7.6652727988306257e-01
      3.0472003264948849e-01 -2.3429926856194931e-02
      -4.4640199066454284e-01 -6.0581969898433541e-01
      9.2673392160611301e-01 -4.4173550167795747e-03
      -3.9525381049950487e-01 -4.8622228258139433e-01
      5.8981211131562938e-01 -5.3953350351955409e-01
      8.8035327776295169e-01 1.6126364582467903e-01
      -4.9220082310791341e-01 6.3195816039069386e-01
      -1.4946369431986930e+00 4.3022081638464460e-01
      -3.9263431587516290e-01 -1.5556106050043778e-01
      -2.1137806363412011e-02 2.2605365881409115e-01
      6.0744405555962236e-02 -4.5034124869583980e-01
      3.4706126662067627e-01 5.4525890575026814e-01
      -7.5626126983326214e-01 1.1401623830683352e-01
      1.5699465368002370e+00 -2.3668902612594956e-02
      3.2762429456335662e-01 -2.8331556994721063e-01
      -2.4797919508863009e-01 -2.5010564483380531e-04
      6.3851742149430346e-01 -7.3161504834613800e-01
      6.9947096929166475e-01 7.1162059361089414e-01
      -5.6586389915900170e-01 4.3984460006167314e-01
      7.5842374189670358e-01 1.9641425827738862e-01
      -3.4778612120520030e-01 8.3075067438277761e-01
      2.0404859441348133e-01 6.3343394534526454e-01
      6.7950938361816748e-01 6.9915999421375752e-01
      -7.7920617340908760e-01 -2.6059649023173420e-01
      -6.0503476390058986e-01 1.4884336175485602e-01
      3.2067110267974713e-01 -5.4025386704525613e-01
      8.3494045381123794e-01 -8.0063453108448301e-01
      -4.8855904287712887e-01 -9.1666751293014090e-02
      4.5036921762396287e-01 -4.2414929367635035e-01
      9.9184366759027254e-01 -7.2176320143380357e-01
      -1.0159509287583904e-01 -1.3015945989529587e-01
      -2.7021071041721328e-01 -6.0702412186118271e-02
      4.2620861828609774e-01 -6.0514129699043150e-02
      -6.7001514640343873e-01 -7.7295471257090498e-01
      7.8242310998454057e-01 1.0543929057922119e-01
      -5.0092386659784140e-02 1.5059801621332969e-01
      5.9202605972331657e-01 -8.0385177783598694e-01
      4.7695949334993631e-01 -4.9798462406908939e-01
      -6.3395096465464740e-01 4.8984186391180268e-01
      -1.0946730614461162e+00 -2.2011847420574518e-01
      -3.7319466378316302e-01 -2.0189462597582278e-01
      -5.7461164948716816e-02 5.1198822789191067e-01
      -1.0511241103546630e-01 8.4662763869410976e-02
      2.4242987954005660e-01 5.9490900969999216e-01
      -5.6726916618332746e-01 -1.4279213233420623e-01
      1.1182330085289007e+00 9.0931511906930829e-02
      2.1707662817809786e-01 -4.7576191895878701e-02
      -4.7768005812788415e-02 -6.9372210038679427e-01
      6.1430290185247960e-01 -6.7568491891677585e-01
      5.9920789312574552e-01 6.6542383804192806e-01
      -3.2765483462518047e-01 1.2963320206879420e-01
      8.0450699349434873e-01 6.8866688327214640e-02
      -3.5885355270192310e-01 3.6347563430013807e-01
      1.3577386657918056e-01 3.4892723938327841e-01
      3.1984020753463827e-01 4.7953987583952673e-01
      -5.7533067671049498e-01 -2.7358772100903839e-01
      -3.8929860658406207e-01 8.6465219092576956e-02
      5.1340029585822788e-01 -5.3247327616249884e-01
      1.0531198724457267e+00 -6.4627072312701295e-01
      -1.9567258754275782e-01 -3.4836227924342905e-01
      5.7519121795466266e-01 -3.4843574075965839e-01
      4.3522594331224235e-01 -6.6061466834187876e-01
      6.7617498777001739e-01 -8.7323052004758400e-02
      -3.9818390617468330e-01 5.0744829119770885e-01
      6.3202045496678938e-01 -3.0236172643245224e-01
      -6.2214651487520467e-01 -6.1399713198787509e-01
      4.1617700910907063e-01 2.2384786166062218e-01
      3.5389690681824820e-01 -7.5882738592983126e-02
      1.1028211474554339e+00 -9.2273469083122250e-01
      -8.3718852254095338e-03 -7.0370829961078962e-01
      -4.7681085427058101e-01 7.9363645396383783e-02
      -9.3264209583953572e-01 -4.7402726526235450e-01
      -6.6244980634106965e-01 2.5286904349926548e-01
      2.0433597465531911e-01 7.0694757779679274e-01
      -5.6365999950467072e-01 2.3493864462417155e-01
      1.4370503814395816e-01 3.3193342345873877e-01
      -2.2194098655568009e-01 -3.4869783496523676e-01
      7.1951799654017190e-01 1.8436621218739382e-01
      -2.4848315743839028e-01 -7.6349797233937755e-03
      4.5902216497109594e-01 -1.1754126102623044e+00
      2.6791624805455178e-01 -3.9644338551760283e-01
      1.9818490485673732e-01 2.4716707403195806e-01
      -6.7729269231904710e-01 -3.3887582304404817e-01
      1.0877760937601688e+00 1.0979240258267590e-01
      1.1736447351283089e-01 4.7885739691778957e-02
      3.8414282412042595e-02 5.4310020603036946e-01
      -4.5480992209283633e-01 -1.9879163615306859e-02
      -1.1911901696776411e-01 -3.1607617028616486e-01
      8.0397695881790979e-02 1.4666529474733742e-01
      6.7084762920705199e-01 1.7567796999206009e-01
      1.2426299069072537e+00 -1.7750792059415130e-01
      5.3557658757899723e-02 -1.2352434338259398e-01
      8.5441432628310465e-01 -3.4801004539160540e-01
      -8.5261447996222997e-02 -6.6280122896708327e-01
      9.6701510948852498e-01 -4.2047416964813192e-02
      -2.0721899634284299e-01 8.6640924767333138e-01
      6.8130234007813439e-01 -4.0544990070059939e-01
      -5.0433500530156661e-01 -3.9761771501968468e-02
      -4.1164375650232382e-01 1.3322690682470800e-01
      4.6767807018698720e-01 -4.3175883474562658e-03
      1.0208664108611727e+00 -4.1286434488427398e-01
      -1.9124133385445755e-01 -8.8323559550917752e-02
      -4.2602809475313946e-01 -5.1322163625174799e-01
      -4.4509489192177887e-01 -3.7381753329617529e-01
      -6.2153886611145492e-01 4.9096167650889666e-01
      5.6268737708331096e-01 5.5099676831677724e-01
      -9.1421449929728282e-01 2.4518239568396018e-02
      -3.4697705192520351e-03 -3.1006644088719770e-01
      2.2038643252040008e-01 -1.2036986879776165e-01
      5.1505029957168580e-01 2.9586368943859365e-01
      -4.5660814083365792e-01 2.2775212049800514e-01
      4.9762310320242026e-01 -1.2558488260172691e+00
      2.3100325335986935e-01 -1.4160359064513253e-01
      -3.2875272822150253e-01 8.8399347868526629e-02
      -6.8553125222658329e-01 -5.4265336428416966e-01
      6.2698736338302341e-01 6.5480181759121056e-02
      -3.1698880591577094e-01 -2.6384053454427278e-02
      -2.5928072807069452e-01 4.2957044187739346e-01
      -7.1710841494106548e-01 -3.0803187308364582e-01
      -2.9059993344882085e-01 -4.9206485261063165e-01
      1.6812119001063167e-01 7.9381965886045333e-02
      4.3602548299276656e-01 2.2742246290020610e-01
      6.7175029739722680e-01 2.6338624053587889e-01
      1.5065321724979047e-01 -1.5500362257696865e-01
      1.1187182828586575e+00 -8.5229307931799184e-02
      5.2516774901786556e-01 -5.9855139535433177e-01
      8.1488549260394727e-01 -9.0466105630429491e-02
      8.6606860585491330e-02 1.0539014583687663e+00
      4.3464406716056414e-01 -5.6880422974700706e-01
      -5.3162475952560195e-01 -1.0723883703756110e-01
      -7.6203044499576045e-01 2.3420792055142431e-01
      4.9976000226332162e-01 3.9508214215960180e-01
      6.9876011717102338e-01 -1.1153668393539265e-01
      -2.5323773024501584e-01 6.5095545083418249e-02
      -5.6557118304620169e-01 -9.2268360688427775e-01
      -1.5776003984647216e-01 -3.5975017192271974e-01
      -2.5889736334652580e-01 7.3942809650968211e-01
      4.1238832173354206e-01 7.3370359673878296e-02
      -7.2270570335859596e-01 -2.3244975206843332e-01
      4.6861746866030049e-02 -7.7510168024790993e-01
      2.0680388519232365e-01 2.1667046461795206e-01
      3.8133055533552662e-01 1.2163098428919979e-01
      -3.9874885528190857e-01 -9.5461197159228919e-02
      2.3935142182418026e-01 -1.2388265739797002e+00
      3.2661353306736418e-01 1.3291387144305505e-01
      -5.8665932746509186e-01 3.1259677245090700e-01
      -6.3413716326578351e-01 -5.7199536017604347e-01
      3.5778240740771439e-01 1.8105871531244430e-01
      -7.2976326346947995e-01 4.0198720191623599e-01
      -7.5441763173823650e-01 -3.7141925471456816e-01
      -5.1743520911819596e-01 -1.8083314566475997e-01
      -2.9135922249251756e-01 -2.6283805466063137e-01
      2.5398884626336349e-01 1.0338812765726603e-01
      3.2460095448009402e-02 1.3281592301990455e-01
      9.0008305969239907e-02 3.2730623311976287e-01
      2.3110863782963398e-01 -1.4001481403687024e-01
      1.2019735247059804e+00 -1.5188861472242299e-01
      1.0528881928610869e+00 -5.4703881670053867e-01
      5.4605522338447943e-01 -1.5363796542917507e-01
      1.8755331588159066e-01 6.4643606440136281e-01
      4.8066091744726203e-01 -8.3132767329653856e-01
      -4.0749855335672319e-01 -1.0635877069796311e-02
      -9.7998656764221925e-01 1.2049356283553450e-01
      2.3321592928485160e-01 1.1325259648409418e+00
      1.7257012872685704e-01 3.9315701429767164e-01
      -2.5500239236890793e-02 -4.1641586102917272e-01
      -8.4324062187561244e-01 -9.1310023422738007e-01
      -2.4398300586041182e-02 -3.9512999377548194e-02
      -7.5254969236546440e-02 8.9947411596599458e-01
      -1.8325170768815016e-01 -6.0683328527976432e-01
      -7.6726431506720050e-01 -3.0548521971205861e-01
      -4.3613768335221165e-01 -8.9340307566886457e-01
      3.2100865287869801e-01 5.9386643658041582e-01
      1.0468537202819665e-01 -4.2472006212800800e-01
      -2.9132158299518840e-01 -7.2237160658696109e-01
      -1.1027980982142628e-01 -6.4224226960904984e-01
      5.8080828908457993e-01 7.0383937629347826e-01
      -3.0901379216699687e-01 6.9908340335996866e-01
      -5.7844375302510309e-01 -5.8879845679355114e-01
      2.7220651404779933e-01 5.1101552451388266e-01
      -8.2781416186857903e-01 9.0725231328639666e-01
      -8.8504089403806008e-01 -1.2503897705153104e+00
      4.0193597764903076e-02 4.6830914056069839e-01
      -3.3179583088391629e-01 1.0171653129543085e-01
      1.6493138383959652e-01 1.7745104761709540e-01
      -1.8133439797604672e-01 1.9063342466368788e-01
      1.9291982700406732e-01 1.6159737128852258e-01
      4.6083760698006770e-01 9.3443978325247881e-02
      1.1453342521130694e+00 2.4615663438690602e-01
      1.3685909510332235e+00 -3.9380235976118538e-01
      5.3419947085405062e-01 -9.7438443180639267e-02
      2.7397104908226520e-02 -3.7750603135989165e-02
      5.9282368008017872e-01 -7.8989563028984966e-01
      -4.1005163218522761e-01 2.0282563088457311e-02
      -1.2317271941161441e+00 -1.2323612235027886e-01
      -6.2911306451729585e-04 8.8443273096158859e-01
      -2.3598818452581333e-01 7.2237529924664468e-01
      6.8635802664765502e-02 -3.7595039099565336e-01
      1.4802263157190484e-01 -9.8628628626103598e-01
      -9.8348864515007850e-02 1.5612425956211928e-01
      -5.3816135064978593e-02 1.2559215066004463e+00
      -1.4923536077769695e-01 -2.1527050846943674e-01
      -3.8293018629629777e-01 -5.4670755126954074e-01
      -2.4991647901578687e-03 -3.4402357728333804e-01
      5.5384579451492300e-01 5.6561096791743037e-01
      5.5292348561068343e-02 -9.4008916556368238e-01
      1.1429822719445351e-01 -3.9646870364075487e-01
      -3.1249988291148456e-01 7.7861557213053212e-02
      4.7515399441470052e-01 8.3021079138265796e-01
      -6.9192923024924219e-02 2.8323680752044161e-01
      -1.9490030838653014e-01 -4.1735723108627948e-01
      1.6395375827866177e-01 2.1800419660755765e-01
      -3.7213497095318782e-01 5.2769166079963148e-01
      -5.0259339902335476e-01 -1.4374216918920031e+00
      6.3262501192802023e-01 3.2982717418479668e-01
      1.0887344502082477e-01 -7.5356556815356457e-01
      -2.0813055841776884e-01 -3.2072220321700590e-01
      -5.0998950729776360e-01 -4.1128772454959883e-01
      8.7336081424505418e-01 7.5114819682007705e-01
      2.5948568824721274e-01 7.2809072717383710e-02
      8.9984142481373297e-01 2.7582792525484640e-01
      1.2815483279061977e+00 -1.1598255028244191e-01
      5.6273621217121306e-01 -3.9749381915849868e-01
      3.4258079751040521e-01 -1.3650523943102649e-01
      1.8343667958903925e-01 -4.4280872930915344e-01
      -2.3976709723936060e-01 -1.2912043149549782e-01
      -8.2287367550715440e-01 -6.4814656070351229e-01
      -1.3209638772310162e-01 7.3141077185055214e-01
      -3.8090611482337372e-01 6.5840116776705537e-01
      2.3474300392674080e-01 -2.6513553805367213e-01
      1.0444986557158678e+00 -9.1952430012949204e-01
      -1.7129833757044755e-01 1.7443977900921048e-01
      -6.1540086750916698e-02 1.3283504218291187e+00
      -1.2199054145008550e-01 1.5825943592639577e-01
      -8.4085070664045844e-02 -9.2605070113545707e-01
      2.9814573417755358e-01 1.9500914555014581e-01
      7.3665374537511330e-01 3.0196923630038208e-01
      -1.1974512142374591e-01 -1.1995852512889638e+00
      4.0499921497122648e-01 -1.3662340782371377e-01
      -5.7319815911133754e-01 7.0400227499876344e-01
      4.3105628528790435e-01 8.8668788331601978e-01
      2.6706100776643964e-02 -2.2113896886025736e-01
      -2.9574245241546969e-02 -3.9835438306456294e-01
      9.3668517859106806e-02 -3.0522021078737904e-01
      1.7348185652690129e-01 2.2579980004249184e-01
      -2.1677423787144617e-01 -1.5391453583706038e+00
      9.7018230641134606e-01 1.5258595848666187e-01
      3.1468113845136508e-01 -1.5178082305951257e+00
      -5.2645715357434386e-01 -5.7666676945802287e-01
      -8.8674518532755242e-01 -6.0691938831115322e-01
      1.4347350814021782e+00 1.1101941091217831e+00
      1.7606563027407254e-01 2.0814604729344185e-01
      7.7297166839045994e-01 3.9429458074220730e-01
      1.0401580493614968e+00 1.5522829147133130e-01
      5.7736758111907993e-01 -6.7136152737472043e-01
      5.5995279006255438e-01 -3.2808914307375797e-01
      -1.0911614104194928e-01 -1.5466549417981643e-01
      3.9424379019747220e-02 -2.2841007788755993e-01
      -6.3702428710276660e-01 -8.9892490579855677e-01
      -1.7350785524316512e-01 -2.6526925943742558e-01
      8.5438473316605967e-01 -2.1875226722407842e-01
      -5.6685531006260770e-01 3.4182521376856297e-02
      2.0344017213489694e-02 1.4961244896304149e-01
      3.2765969653746591e-01 -9.3379343144050331e-02
      1.0206661252389913e-01 1.1935639101002982e+00
      6.9927048978685669e-01 -7.5965240922836819e-01
      -8.5887915540396487e-01 3.1161612346477302e-01
      8.5871616160997388e-01 1.1098676432236234e+00
      -2.8826997353860900e-01 4.2448403506958660e-01
      2.9469153064169886e-02 1.2397604864703102e-01
      -4.0550173174033344e-01 -3.1368225070206945e-01
      5.7107768005670023e-01 -2.2752756426453087e-02
      -4.3341958033151018e-01 -2.7014712496988797e-02
      -1.2398257308775407e-02 1.1853995324447937e+00
      7.9009011852056096e-02 1.6759455558219649e-01
      5.0180707239550837e-01 1.0222539269508328e+00
      -1.3080150212739380e-01 5.0277297367038265e-01
      -8.6280872779371665e-01 -1.2882590031401084e+00
      -8.7402669155539969e-01 3.2448885644776404e-01
      6.5523470377233484e-01 3.6626316979024708e-02
      -3.9668329938437685e-01 5.1247960621828410e-02
      -5.6677482218469333e-01 -1.9855853623546905e-02
      4.9282844861931419e-01 5.1248540470547610e-01
      1.0085412249668231e+00 1.4830419411770504e-01
      3.7943489810385184e-01 -5.6966500887453420e-01
      4.6071978117545126e-01 -8.2812960670825564e-01
      1.3313833834803931e-01 -2.5754535819340069e-01
      5.6142314064276622e-01 -8.8056734652968671e-01
      5.1891743513323341e-01 -4.2690996738835707e-01
      -3.8943270746442965e-01 -9.0666096392909656e-01
      1.7685019729876131e-01 -1.2226627207699055e-01
      -4.8087741010732021e-01 -7.1889801125037039e-02
      1.2459217372416149e+00 -4.8691836078328837e-01
      -4.3850357326585476e-01 3.6406754545490264e-02
      3.6411747100038816e-01 4.2425397282482374e-01
      4.7259225837804308e-01 -1.2041100320318072e-01
      1.8298378983062394e-01 8.9209239912669303e-01
      7.2530676935536886e-01 -6.5644187015546962e-01
      -6.1927425238233802e-01 2.3883208419975743e-01
      6.5996194228685379e-01 1.0405235587948456e+00
      -2.3860118291786855e-01 4.4824231371982171e-01
      8.9559165824434614e-02 -3.0537331646922208e-02
      -2.9844391626479677e-01 -6.8960178342485601e-01
      1.4068671609066005e-01 3.1320233635517636e-01
      -9.0750820915742547e-02 -7.9470051884074855e-02
      2.0054261721318689e-01 6.5757736165110581e-01
      9.1261600869961490e-02 3.0769967691984559e-02
      4.2141797805508613e-01 9.2297505799452007e-01
      3.1867241702259836e-03 4.3652738992428114e-01
      -2.6585865230666572e-01 -9.0733382110954242e-01
      -6.5919366426286197e-01 4.4909635057021940e-01
      7.3827090478276780e-01 1.4284114187825397e-01
      -2.8845872306669412e-01 2.8783774574291693e-01
      -3.2420601829804202e-01 -4.0912027742018339e-02
      -1.7264702982945698e-01 2.2494373581791332e-02
      6.3157726540676040e-01 1.1407958219082340e-01
      1.4045782839060611e-01 -4.9204900935245816e-01
      6.7342121159211554e-01 -5.0672429534317243e-01
      -1.3448260526763076e-02 -2.6495096710675409e-01
      5.6994185827514821e-01 -7.2942459040547547e-01
      4.9996567189516455e-01 -3.4895402381365082e-01
      -1.8979375972214024e-01 -7.7710278177848235e-01
      1.5931326055044898e-02 -1.5685242082213544e-01
      -7.4521769138825444e-01 4.1340869561733379e-01
      1.2784655570566836e+00 -1.1029928245704632e+00
      -3.1184711390321512e-01 3.3547469132368987e-02
      8.2058537294725387e-01 7.5254293062642230e-01
      6.1999146502360780e-01 -1.7964644678391134e-01
      4.3543649973311732e-01 5.3031899706329344e-01
      7.6452303421156453e-01 -5.0625312844392312e-01
      -4.3480467154022584e-01 1.7575553944629535e-01
      3.1369420817400490e-01 3.8344444467307631e-01
      -2.7513422936827493e-04 4.2494812921986236e-01
      -9.5573258401819277e-03 -4.3721868074320769e-01
      2.9641275449023417e-02 -9.0794437635542224e-01
      -4.5605175760024652e-01 5.0561669061441472e-01
      4.8323509495287009e-01 -1.3749815683012129e-01
      4.1864770700161280e-01 -2.4379346457460785e-01
      7.0238528285130634e-03 -5.1847196976972591e-02
      2.5818464022570747e-01 5.9097034327630893e-01
      -1.0325575579683256e-01 2.4971281779958149e-01
      3.5497907973537290e-01 -5.2514904114227701e-01
      -2.9789804653827817e-01 4.2709242414724646e-01
      5.6260482691978608e-01 -8.3867038715248088e-02
      -5.3640340069979593e-02 6.3272869670034293e-01
      -1.7805808936073267e-01 -2.0164827245035322e-01
      -1.0760956481490145e+00 -7.0604555183146911e-01
      -3.2095787481808830e-02 2.0087656864390790e-02
      -1.8740454952523200e-01 -3.7576045351624376e-01
      9.3674498020907926e-01 2.1784089745838890e-03
      -3.5504859123056681e-01 -1.8137750334944266e-01
      6.0517052286448403e-01 -4.1469226552119398e-01
      4.2856873523601574e-01 -1.2391145194337322e-01
      1.9204387077828317e-02 -3.6796503608827724e-01
      -2.5304472812898865e-01 -1.9045897026633707e-01
      -7.2260106041422978e-01 5.0047930312170896e-01
      1.0267717040148974e+00 -8.3942558905429965e-01
      1.7617147211197720e-01 4.2485609671780572e-01
      4.3230357699791849e-01 7.9504234786035599e-01
      5.4158360049324561e-01 -1.9412556635409389e-01
      5.4513686906867997e-01 2.2087377251325649e-01
      7.4824097366174647e-01 2.0339032414010516e-01
      -4.0376730342641637e-01 -1.5234115359780298e-01
      2.1018786678513457e-01 5.7836672103888875e-01
      -3.0378128664271503e-01 9.9638161189992996e-02
      -3.1382161814211156e-02 -2.1899108194284481e-01
      6.4270045063500281e-01 -9.5236294095928054e-01
      -4.1534687197442227e-01 3.5803176493466110e-01
      2.7752602439052881e-01 6.5185691808398206e-03
      2.6662310483690432e-01 -3.0939949928469751e-01
      -4.5578894394626407e-01 2.9243940148088859e-01
      4.1098389371205207e-01 6.5483137211762132e-01
      -1.6603340293839181e-01 -1.2941165811453689e-01
      2.0859363046321075e-01 -4.3618285828558434e-01
      -3.2652671544859535e-01 5.6212960765903963e-01
      -5.8454194905812086e-02 -2.3358094711373265e-01
      2.6122715202713503e-01 9.4667850281921739e-01
      1.7108717280129115e-01 -7.3775394056313517e-02
      -6.2971962199783404e-01 -2.3524065925949206e-01
      8.8375993709315551e-02 1.0070536378363119e-01
      -8.0942898593552678e-02 -2.0403216168871408e-02
      6.4513920496965826e-01 4.9911309451433650e-01
      -4.6431660429307853e-01 1.3215263704438115e-01
      1.9258785700472461e-01 -1.4246732917158408e-01
      7.3094610967561036e-02 2.6668019910193963e-02
      2.1483549854255832e-01 1.1520278840844554e-01
