<?xml version="1.0"?>
<opencv_storage>
<opencv_ml_ann_mlp>
  <format>3</format>
  <layer_sizes>
    440 40 31</layer_sizes>
  <activation_function>SIGMOID_SYM</activation_function>
  <f_param1>1.</f_param1>
  <f_param2>1.</f_param2>
  <min_val>-9.4999999999999996e-01</min_val>
  <max_val>9.4999999999999996e-01</max_val>
  <min_val1>-9.7999999999999998e-01</min_val1>
  <max_val1>9.7999999999999998e-01</max_val1>
  <training_params>
    <train_method>BACKPROP</train_method>
    <dw_scale>1.0000000000000001e-01</dw_scale>
    <moment_scale>1.0000000000000001e-01</moment_scale>
    <term_criteria>
      <iterations>30000</iterations></term_criteria></training_params>
  <input_scale>
    9.5302680378462767e+01 -3.5170584160610897e-02
    2.1932859880452593e+01 -8.2274239129382976e-02
    1.0749678418392540e+01 -1.7924194613374109e-01
    5.4849509488230694e+00 -4.0095299465661111e-01
    3.1097940218202469e+00 -8.2297620641228364e-01
    2.9787942122974180e+00 -1.7097987007247768e+00
    4.3644069600419293e+00 -3.3341231794695481e+00
    4.5944150048256578e+00 -3.6032784892168310e+00
    4.5689113073709962e+00 -3.6213283688934244e+00
    4.9235676462302917e+00 -3.9799039684892050e+00
    5.0678531669949729e+00 -4.1522352467291928e+00
    5.4049868593139188e+00 -4.5945046896772670e+00
    4.7098294719835163e+00 -3.9359180116922170e+00
    4.0876185983181585e+00 -3.2529427046853359e+00
    2.6301796842769112e+00 -1.5075076761609152e+00
    2.6511974800626388e+00 -7.2126304721765244e-01
    4.6074595998369317e+00 -3.2521965792932117e-01
    1.0647104138006167e+01 -1.3483929467227010e-01
    2.4734198333124851e+01 -6.3965309363019446e-02 1. 0.
    3.2283177463857493e+00 -1.0742335510042424e+00
    3.5775800137523515e+00 -2.3389440429726451e+00
    4.3384535413213436e+00 -3.3345531465353337e+00
    4.0577590836145836e+00 -3.0741949629182317e+00
    4.0443813427223585e+00 -3.0568905642392643e+00
    3.9379489031415740e+00 -2.9928414225784188e+00
    4.0490626665254181e+00 -3.1079103777173844e+00
    4.8056540391854377e+00 -3.8009803376668438e+00
    5.0274398592237457e+00 -3.9075845100078999e+00
    5.1892261848467847e+00 -3.9403857197338858e+00
    4.9980895169019099e+00 -3.9728415653513069e+00
    5.6437550619143551e+00 -4.6337896732290522e+00
    5.2420235913848972e+00 -4.1018226543646907e+00
    5.5566396292200002e+00 -4.3037447326588749e+00
    5.4396554222724767e+00 -4.1535235491346176e+00
    5.3173493691585794e+00 -4.0553940931542591e+00
    5.0672243824085559e+00 -3.7836468420979217e+00
    4.5976462795550610e+00 -3.2029751331962695e+00
    3.6844526271195726e+00 -2.1372958000831619e+00 1. 0.
    2.4025381845909419e+00 -1.6012815380508715e-02
    5.7416928306676696e-01 -4.2094953846986756e-02
    7.6249963315954170e-02 -7.4158513412132823e-02
    4.8278432038430581e-02 -1.2072701987564478e-01
    2.8807065934377443e-02 -2.2175754678527421e-01
    1.6866400074711879e-02 -3.5821535826453571e-01
    1.2870087058354542e-02 -4.9818883008453457e-01
    1.1393274585135393e-02 -5.7325899226992061e-01
    1.0995877663257766e-02 -6.0915640138596150e-01
    1.0452043153051234e-02 -6.4139534844385437e-01
    1.0552294957956928e-02 -6.4726062287487607e-01
    1.0331887790348656e-02 -7.0359334810178731e-01
    1.0003022090991114e-02 -6.7577965852447575e-01
    1.0856577167719738e-02 -5.6573036402894139e-01
    1.3297339507463949e-02 -4.1842817650851633e-01
    1.8012563514325453e-02 -2.6714557156749896e-01
    3.3133334038233854e-02 -1.3937064297189933e-01
    5.0226785682954710e-02 -8.5273520014921569e-02
    7.4688335452339022e-02 -5.7361254297669237e-02 1. 0.
    4.4618566285260348e+00 -1.6012815380508715e-02
    1.9284283114848461e-01 -3.7125087462833106e-02
    6.3586836973938562e-02 -1.0181065976396315e-01
    2.8414528913428005e-02 -1.9932416911457507e-01
    1.5349722138015434e-02 -4.2478713230750942e-01
    1.0489421741906870e-02 -7.6069146649204145e-01
    9.5809135901352774e-03 -1.0908856212296323e+00
    9.4012666228184810e-03 -1.1876491673565572e+00
    9.1953474428440266e-03 -1.1011740888757062e+00
    9.1598581994115792e-03 -1.1572956039184275e+00
    9.2361687796441803e-03 -1.2362615463015714e+00
    9.5514213617020061e-03 -1.4571683687158699e+00
    9.4540055890033215e-03 -1.4133265776454644e+00
    9.0957019590222066e-03 -1.1052921681770840e+00
    9.7384847459146256e-03 -7.3841729811934853e-01
    1.2867472358670817e-02 -4.3136543583120607e-01
    2.4090344965506116e-02 -2.0851332934127503e-01
    4.2674743115767529e-02 -1.0031463582968168e-01
    6.6508539958653051e-02 -6.1820037398122529e-02 1. 0.
    4.7496098019850299e+00 -2.0698120131695849e-02
    1.9352083452029001e-01 -3.5370508847210144e-02
    5.7120392454220369e-02 -1.0346390491707796e-01
    2.4057783589102939e-02 -2.4402523425716849e-01
    1.2735767774929069e-02 -5.3682191623470565e-01
    9.5801298252348281e-03 -9.8335698144591899e-01
    9.7061268855179756e-03 -1.5127126888873819e+00
    9.8219096448015700e-03 -1.5739729800951689e+00
    9.3853102145674237e-03 -1.3419646318002869e+00
    9.3617739347558460e-03 -1.4101504966958229e+00
    9.6473638161793888e-03 -1.5500279221581961e+00
    1.0663280065208442e-02 -1.9368217721517298e+00
    1.0579330238747587e-02 -1.9605090849048892e+00
    9.5403314297820719e-03 -1.4913389352842776e+00
    9.2245442560540229e-03 -9.1227219346836852e-01
    1.2098747720903649e-02 -4.8846871822588106e-01
    2.1473075672145337e-02 -2.3639649008355643e-01
    4.1368307018695330e-02 -1.0841020319203341e-01
    6.4373463995192629e-02 -6.5413076461662042e-02 1. 0.
    4.7910168894991010e+00 -1.7194113420401797e-02
    1.9308071480135033e-01 -3.7467854679472494e-02
    6.1747208570654945e-02 -9.6126838669466155e-02
    2.5446918239509536e-02 -2.3912014404145118e-01
    1.3183713206878401e-02 -5.0908193768729249e-01
    9.7247876850996215e-03 -9.0011996631880564e-01
    9.4371213477533501e-03 -1.3286673374990714e+00
    9.4204479700626745e-03 -1.3694882659867784e+00
    9.3920595914979560e-03 -1.2643070098289959e+00
    9.5840660187844796e-03 -1.4223849714876522e+00
    9.8054313428674270e-03 -1.6017439793636237e+00
    1.0339771136836364e-02 -1.8435167854849976e+00
    1.0154288813627272e-02 -1.8323402450706776e+00
    9.6524833095973980e-03 -1.5756806790570499e+00
    8.9967909877662726e-03 -9.6474842995551413e-01
    1.1757883291915681e-02 -5.1454980878304990e-01
    2.1247833709992916e-02 -2.4207061614283906e-01
    4.4508258105136929e-02 -1.1059178308461734e-01
    6.4005332271514587e-02 -6.4333480604103738e-02 1. 0.
    4.6436527674022132e+00 -2.2617124475940026e-02
    1.9437931943275541e-01 -3.8417445599244919e-02
    6.6310064041532904e-02 -9.3422228139519309e-02
    2.6048223580070862e-02 -2.3868746477652220e-01
    1.2725445212180839e-02 -5.0789564669461884e-01
    9.6055228211034856e-03 -8.5230116706698211e-01
    9.1231044776716556e-03 -1.1583395977685846e+00
    9.2848240912273994e-03 -1.2448852226042588e+00
    9.6048705607101742e-03 -1.3711943743204260e+00
    9.5789356428805459e-03 -1.5121188468175699e+00
    9.7905539020632353e-03 -1.6186463508598994e+00
    1.0080258075148934e-02 -1.7249851321169820e+00
    1.0148774782125527e-02 -1.7880366886586743e+00
    9.8518817150914668e-03 -1.6329020416021840e+00
    8.9139636441885519e-03 -9.9495463982378340e-01
    1.1344441765549204e-02 -5.2915524831051863e-01
    2.1007925545691291e-02 -2.4096914546718856e-01
    4.3738474968414300e-02 -1.0846603610470135e-01
    7.7294644036093291e-02 -5.9481805023417600e-02 1. 0.
    4.8050763691818839e+00 -1.6012815380508715e-02
    3.0789410408221907e-01 -5.2328580109333819e-02
    6.4867925594242537e-02 -1.0023682529661471e-01
    2.5190450568450765e-02 -2.4879202243047197e-01
    1.2121093245728916e-02 -5.3879983959898037e-01
    9.6148828999630242e-03 -9.5419024634934246e-01
    9.4162546428477739e-03 -1.2704123038533337e+00
    9.3946502656484712e-03 -1.2585917352682248e+00
    9.6206462547473049e-03 -1.3785046936445269e+00
    9.6501218425998347e-03 -1.5582015375033935e+00
    9.4843552647328848e-03 -1.5223934051624837e+00
    9.5899800989227794e-03 -1.4821300722021133e+00
    9.4629840686382850e-03 -1.5138542788379792e+00
    9.6262740650663418e-03 -1.5658031754941824e+00
    8.8884246508155150e-03 -1.0281225527654918e+00
    1.0849175267334494e-02 -5.6134539480493761e-01
    2.0370059393462800e-02 -2.5378765102309125e-01
    4.5368178350009829e-02 -1.0829748187523494e-01
    9.8575979076603065e-02 -5.0968405485134170e-02 1. 0.
    4.4618566285260348e+00 -1.6012815380508715e-02
    1.5613756399715853e-01 -3.9984984986711450e-02
    5.9123777822186696e-02 -1.0727457047563124e-01
    2.3938013303053250e-02 -2.5440812446328753e-01
    1.2065497091774888e-02 -5.8507918184049734e-01
    9.5587774731525649e-03 -1.0513846608171964e+00
    9.5634447491415968e-03 -1.4273386128517607e+00
    9.5677655683914092e-03 -1.3407699125643562e+00
    9.8914098634551671e-03 -1.4488417875310318e+00
    9.7421727303293199e-03 -1.6118363597189667e+00
    9.6853868630408374e-03 -1.5450265181138867e+00
    9.7346531384769584e-03 -1.4879645653554538e+00
    9.2495520527702060e-03 -1.4446230656732384e+00
    9.3434571161574529e-03 -1.4823307292024317e+00
    8.8365985868981006e-03 -1.0143536274849070e+00
    1.0519642420784202e-02 -5.8294891061600229e-01
    1.9987972746922843e-02 -2.6392732022404403e-01
    4.6087304133946475e-02 -1.0508755966968826e-01
    1.5877620483711372e-01 -3.6671971432514598e-02 1. 0.
    4.4618566285260348e+00 -1.6012815380508715e-02
    1.5922667269516236e-01 -3.6000493544509918e-02
    5.9741574912125527e-02 -1.1132056089111521e-01
    2.4289166162745401e-02 -2.6236159820548655e-01
    1.2187386019034461e-02 -5.7301021392544182e-01
    9.4816250338180513e-03 -1.0508246100668619e+00
    9.7248391954631256e-03 -1.4910240122639498e+00
    9.6658249647062124e-03 -1.4451139267727864e+00
    9.8134737207565131e-03 -1.4720512456768324e+00
    9.6205256954709772e-03 -1.6002453454887240e+00
    9.8140445683420757e-03 -1.6199689399192778e+00
    1.0084384702309129e-02 -1.6487671704440316e+00
    9.6824661512069990e-03 -1.6115609843421530e+00
    9.5711171341429178e-03 -1.5966173993959250e+00
    8.6809965518561058e-03 -1.0398102565530345e+00
    1.0381742138497220e-02 -5.9511786600066896e-01
    1.9145306293815299e-02 -2.7202432503135104e-01
    4.2119182640682616e-02 -1.1529060041968957e-01
    9.3117874220235333e-02 -5.2061031446893946e-02 1. 0.
    4.7910168894991010e+00 -1.7194113420401797e-02
    1.3167730925710991e-01 -4.5838960771893172e-02
    6.3201653200728944e-02 -1.0822533795972042e-01
    2.5563455414004680e-02 -2.4784297544554498e-01
    1.2654380104041510e-02 -5.2279036306781279e-01
    9.5256626050686435e-03 -9.1944254524468638e-01
    9.3463367455300286e-03 -1.3469745972017337e+00
    9.3392502026835560e-03 -1.4103057847725300e+00
    9.7970401126782729e-03 -1.5230592577529325e+00
    9.6657085531040680e-03 -1.6241165450880939e+00
    9.6344347955166151e-03 -1.6032381146497803e+00
    9.7881735286386891e-03 -1.6173118807572557e+00
    9.8417185472951460e-03 -1.6533204154715637e+00
    9.8113620428102316e-03 -1.5975845089959135e+00
    8.8587400208954246e-03 -1.0279930809738538e+00
    1.0740862718781314e-02 -5.7242107622966332e-01
    1.9466285167690587e-02 -2.6098095725973280e-01
    4.3897213862853834e-02 -1.1088519492554773e-01
    8.9599217981118390e-02 -6.2956025759099074e-02 1. 0.
    4.4626974042557164e+00 -2.5167737219591327e-02
    1.4645857058720352e-01 -4.6554377730872176e-02
    7.2376222299692997e-02 -9.0743938289617646e-02
    2.9103183765059291e-02 -2.1586788573237392e-01
    1.3936848054726260e-02 -4.5524655222290394e-01
    9.7267182564509114e-03 -8.0749215265480567e-01
    9.1424062037603476e-03 -1.2013581098476789e+00
    9.2763036139972468e-03 -1.3543997758851645e+00
    9.8726180716596241e-03 -1.5417936800584584e+00
    9.9711637958972733e-03 -1.7133352853650148e+00
    1.0260058143342183e-02 -1.8120746063042537e+00
    1.0116870797901920e-02 -1.7038693235304689e+00
    9.8522683304575320e-03 -1.6275790696261783e+00
    9.7414512592255594e-03 -1.5213045384607333e+00
    9.0476378649932462e-03 -9.8826599261400083e-01
    1.1232929742725913e-02 -5.4541474528555323e-01
    2.1541988491638502e-02 -2.4406338512303177e-01
    5.2676192099906337e-02 -9.7885084986470403e-02
    1.4030107652757742e-01 -4.5963797949819009e-02 1. 0.
    4.5929221623165919e+00 -2.0015297810659336e-02
    1.4883634216370370e-01 -4.9446782733699048e-02
    5.6135607657606668e-02 -1.1168122302760455e-01
    3.0008262457665903e-02 -2.0765009914950869e-01
    1.4063535740184385e-02 -4.4396934796301130e-01
    9.6187838341583141e-03 -8.5789639595869471e-01
    9.3616051303092047e-03 -1.3548889598809593e+00
    9.6951138901309828e-03 -1.5238576715836201e+00
    9.9738598277975769e-03 -1.6366564504351566e+00
    1.0567659167135986e-02 -1.9195918551924880e+00
    1.0756242244327275e-02 -1.9869931023551191e+00
    1.0525830204723936e-02 -1.8827178241445177e+00
    1.0194393916207325e-02 -1.8318053201483215e+00
    9.9183873906232654e-03 -1.6529433714444006e+00
    8.9489674321649205e-03 -1.0277800776116690e+00
    1.1073341656138783e-02 -5.3558242254258126e-01
    2.2471009188095317e-02 -2.2640938634659996e-01
    5.4694241049865457e-02 -9.4540699153868951e-02
    1.1574149130503561e-01 -3.9253010252899796e-02 1. 0.
    3.1232996399682245e+00 -1.6012815380508711e-02
    1.4243922453146829e-01 -5.3127165263595580e-02
    5.1259700495448736e-02 -1.1496311705580133e-01
    2.9018247955965838e-02 -2.0718924899192939e-01
    1.3616149933456379e-02 -4.6088974668375138e-01
    9.6433966033749371e-03 -9.4688217076737491e-01
    9.9187202835058028e-03 -1.6037307021427882e+00
    1.0483200803329876e-02 -1.8397466511057805e+00
    1.0363454313440558e-02 -1.7872907353123311e+00
    1.0464142343326632e-02 -1.8620620750088162e+00
    1.0228191043898806e-02 -1.7563411272081992e+00
    1.0635623341373694e-02 -1.8714552977388095e+00
    1.0612357860455128e-02 -1.9755308139585921e+00
    1.0311488339957727e-02 -1.8172458480652545e+00
    9.0317117715206750e-03 -1.0839258045363696e+00
    1.1076703353242958e-02 -5.5198668422637220e-01
    2.2198207156941704e-02 -2.2984618904977938e-01
    5.0215854175904441e-02 -1.0035447299547579e-01
    1.0768774737290365e-01 -4.4554735775407972e-02 1. 0.
    2.4972155321801856e-01 -1.6835880157995101e-02
    1.3093901199188521e-01 -4.5615513277870286e-02
    5.2915234451331151e-02 -1.1192094320890369e-01
    3.0455938144857798e-02 -2.1047465686932104e-01
    1.4258750976175809e-02 -4.4656463516106210e-01
    9.6094317733156787e-03 -9.3950978439139365e-01
    9.8469085967970941e-03 -1.5786379090862599e+00
    1.0132359850167796e-02 -1.6722939159015724e+00
    9.9458110436540358e-03 -1.5747296194057605e+00
    9.7697246034687216e-03 -1.5642879323306347e+00
    9.6084584591987158e-03 -1.4365421265359977e+00
    9.8770438528057170e-03 -1.5469612938413082e+00
    9.7866121589073769e-03 -1.6871657752974711e+00
    9.6791765214914033e-03 -1.6167053363368085e+00
    8.9101249814712447e-03 -9.8511812730928716e-01
    1.1163600137828524e-02 -5.3840832953888651e-01
    2.2155376676553692e-02 -2.3235032433080957e-01
    4.9931727568125445e-02 -1.0225700372769909e-01
    1.3823792378781741e-01 -4.3657811357752124e-02 1. 0.
    3.2620866452646174e-01 -3.3699587747799048e-02
    1.1521606606533107e-01 -4.9589278370594944e-02
    4.9871319254676021e-02 -1.2417332066666706e-01
    2.8028782602390542e-02 -2.2732700660267482e-01
    1.3499077108764787e-02 -4.8344413371807282e-01
    9.3946946293041421e-03 -1.0028818454693036e+00
    9.9286625018031212e-03 -1.6477380241809387e+00
    9.8467021450831128e-03 -1.5977403786718787e+00
    9.7399894280179988e-03 -1.4442099781827067e+00
    9.8139263036382592e-03 -1.5091559514821156e+00
    9.6066903758452327e-03 -1.4168082903058596e+00
    9.9382340294688898e-03 -1.5621726897626400e+00
    9.7923996149447672e-03 -1.6723390278062942e+00
    9.5714587613797836e-03 -1.5408110268876696e+00
    8.9692491302622527e-03 -1.0043673667194206e+00
    1.1218761065403012e-02 -5.3683827943572937e-01
    2.2822166838162294e-02 -2.3098887804951598e-01
    4.9013164922631199e-02 -9.8013765588681356e-02
    1.7310846261095703e-01 -3.8650979475555902e-02 1. 0.
    1.4543687313329209e-01 -2.9452737701948412e-02
    9.4038967480022856e-02 -5.1708173607959249e-02
    5.0235159130862468e-02 -1.2756459532179534e-01
    2.5093344072974613e-02 -2.4280270837695453e-01
    1.3018064483197329e-02 -5.0294245946978622e-01
    9.3548858045116676e-03 -1.0190998207639337e+00
    9.8648407572448481e-03 -1.6193208173758660e+00
    9.6916602322413888e-03 -1.5484097982734966e+00
    9.5111368148460256e-03 -1.3321662479176892e+00
    9.5310025020635073e-03 -1.3514013578438537e+00
    9.5284495596696852e-03 -1.3848078495143832e+00
    9.8667277170931943e-03 -1.5612471548839784e+00
    9.7179652574651571e-03 -1.6233037638443379e+00
    9.5167449072952621e-03 -1.5161240727432730e+00
    8.9291187952570024e-03 -1.0160540641106866e+00
    1.0799491939599466e-02 -5.5477995019529702e-01
    2.3248735946519737e-02 -2.3443617685933016e-01
    5.8164502998093635e-02 -8.7164748661075458e-02
    2.3601783887425914e-01 -2.5531793900265921e-02 1. 0.
    5.3767003320639561e-01 -3.3216733658739131e-02
    9.8071198383981470e-02 -5.6037093360137062e-02
    4.7241172375976588e-02 -1.3305274567927575e-01
    2.4258342320358318e-02 -2.4946729527449749e-01
    1.2655838298234993e-02 -5.0540949118914047e-01
    9.3658306686279866e-03 -9.7047148006138462e-01
    9.6753776096053703e-03 -1.5161696189456504e+00
    9.7001030034760388e-03 -1.5077108062890716e+00
    9.6031475944557323e-03 -1.3665813218919733e+00
    9.3725380744533373e-03 -1.3233057916394471e+00
    9.4887980631556245e-03 -1.3893998712291229e+00
    9.7279906881552192e-03 -1.5472467691339171e+00
    9.7298915661592055e-03 -1.6234876544422692e+00
    9.5727257167324397e-03 -1.5102060675907447e+00
    8.8940014459721987e-03 -1.0123133750391085e+00
    1.0605830272512717e-02 -5.6702993568984106e-01
    2.1788310999608582e-02 -2.4589346110170926e-01
    6.3245990853910139e-02 -8.7240881000997292e-02
    2.0355554300263978e-01 -2.3324616181025375e-02 1. 0.
    7.8208987293200538e-01 -3.3881873500514977e-02
    1.3065559059484344e-01 -5.2181853408553212e-02
    4.7750180659225629e-02 -1.2823145157294225e-01
    2.4478997129567640e-02 -2.5243299065066571e-01
    1.2229148497520353e-02 -5.3022340154450143e-01
    9.3975511797695557e-03 -9.8015663831428324e-01
    9.4795533538180737e-03 -1.3840512401317548e+00
    9.5801230105615927e-03 -1.3747930845394787e+00
    9.5247738909598218e-03 -1.3356658060268294e+00
    9.5495842938476717e-03 -1.3536590816161636e+00
    9.5232372553208117e-03 -1.2992542090146257e+00
    9.6122102959286873e-03 -1.4558420616265886e+00
    9.5687619249800824e-03 -1.5399942384805294e+00
    9.3377619372025152e-03 -1.4175493386975335e+00
    8.8183249697257465e-03 -1.0120615924624234e+00
    1.0436702060084922e-02 -5.6668804072209378e-01
    2.0498855919273435e-02 -2.5339024129281834e-01
    6.0157729545041269e-02 -8.9272775272044066e-02
    1.8470179141485393e-01 -2.9071238125793465e-02 1. 0.
    1.4144254548475318e-01 -2.9477772232531233e-02
    8.4280512360685483e-02 -6.6672561175358983e-02
    4.8043253043200590e-02 -1.2230647166675855e-01
    2.4350687566542285e-02 -2.5808857424410597e-01
    1.2281828195926653e-02 -5.4142366393881325e-01
    9.5381942292267555e-03 -9.4252078269369410e-01
    9.3039622944802031e-03 -1.2220936927815520e+00
    9.2009652599490850e-03 -1.1426957309008852e+00
    9.4625751579823052e-03 -1.1681416833004390e+00
    9.3896823737300641e-03 -1.2002425881301586e+00
    9.5179308033666466e-03 -1.2317998203486529e+00
    9.5238197372298477e-03 -1.3727874489219030e+00
    9.3078580913356149e-03 -1.3479715963259908e+00
    9.1826057646775816e-03 -1.2277268664642709e+00
    9.0342530165709815e-03 -9.5302684769886103e-01
    1.0844313726712409e-02 -5.5239282874871820e-01
    2.1802705743486306e-02 -2.4683837456064411e-01
    6.3510177597248349e-02 -8.2590907703368591e-02
    1.8330397729350290e-01 -2.8757250475166311e-02 1. 0.
    1.4091914358614183e-01 -2.9440938739478489e-02
    8.7204500361565240e-02 -6.5498381455879565e-02
    4.1741751326187834e-02 -1.2908805126868239e-01
    2.5726041081871921e-02 -2.4005476068218912e-01
    1.3586308505340070e-02 -4.8397697739748069e-01
    1.0095419287243215e-02 -7.8256450257045307e-01
    9.4377032855829206e-03 -9.3877688595858866e-01
    9.4961866144351210e-03 -8.7831327864165787e-01
    9.2213288293380279e-03 -9.5515096062880245e-01
    9.2200660873108554e-03 -1.0291848545299283e+00
    9.2524230598643453e-03 -1.0849788320658358e+00
    9.0939160662031303e-03 -1.1116140975187807e+00
    9.0878044925586533e-03 -1.0385210305938752e+00
    8.9324479262117822e-03 -9.8196934843887984e-01
    9.0578815670544228e-03 -8.1299188989505267e-01
    1.1203713185527521e-02 -4.9866432112021480e-01
    2.1655034927768144e-02 -2.2919031711426899e-01
    6.5057085744819276e-02 -7.7514825568295309e-02
    1.5143778023423382e-01 -3.6025188427933605e-02 1. 0. 1. 0. 1. 0. 1.
    0. 1. 0. 1. 0. 1. 0. 1. 0. 1. 0. 1. 0. 1. 0. 1. 0. 1. 0. 1. 0. 1. 0.
    1. 0. 1. 0. 1. 0. 1. 0. 1. 0. 1. 0.</input_scale>
  <output_scale>
    5.2631578947368418e-01 4.9999999999999994e-01 5.2631578947368418e-01
    4.9999999999999994e-01 5.2631578947368418e-01 4.9999999999999994e-01
    5.2631578947368418e-01 4.9999999999999994e-01 5.2631578947368418e-01
    4.9999999999999994e-01 5.2631578947368418e-01 4.9999999999999994e-01
    5.2631578947368418e-01 4.9999999999999994e-01 5.2631578947368418e-01
    4.9999999999999994e-01 5.2631578947368418e-01 4.9999999999999994e-01
    5.2631578947368418e-01 4.9999999999999994e-01 5.2631578947368418e-01
    4.9999999999999994e-01 5.2631578947368418e-01 4.9999999999999994e-01
    5.2631578947368418e-01 4.9999999999999994e-01 5.2631578947368418e-01
    4.9999999999999994e-01 5.2631578947368418e-01 4.9999999999999994e-01
    5.2631578947368418e-01 4.9999999999999994e-01 5.2631578947368418e-01
    4.9999999999999994e-01 5.2631578947368418e-01 4.9999999999999994e-01
    5.2631578947368418e-01 4.9999999999999994e-01 5.2631578947368418e-01
    4.9999999999999994e-01 5.2631578947368418e-01 4.9999999999999994e-01
    5.2631578947368418e-01 4.9999999999999994e-01 5.2631578947368418e-01
    4.9999999999999994e-01 5.2631578947368418e-01 4.9999999999999994e-01
    5.2631578947368418e-01 4.9999999999999994e-01 5.2631578947368418e-01
    4.9999999999999994e-01 5.2631578947368418e-01 4.9999999999999994e-01
    5.2631578947368418e-01 4.9999999999999994e-01 5.2631578947368418e-01
    4.9999999999999994e-01 5.2631578947368418e-01 4.9999999999999994e-01
    5.2631578947368418e-01 4.9999999999999994e-01</output_scale>
  <inv_output_scale>
    1.8999999999999999e+00 -9.4999999999999996e-01
    1.8999999999999999e+00 -9.4999999999999996e-01
    1.8999999999999999e+00 -9.4999999999999996e-01
    1.8999999999999999e+00 -9.4999999999999996e-01
    1.8999999999999999e+00 -9.4999999999999996e-01
    1.8999999999999999e+00 -9.4999999999999996e-01
    1.8999999999999999e+00 -9.4999999999999996e-01
    1.8999999999999999e+00 -9.4999999999999996e-01
    1.8999999999999999e+00 -9.4999999999999996e-01
    1.8999999999999999e+00 -9.4999999999999996e-01
    1.8999999999999999e+00 -9.4999999999999996e-01
    1.8999999999999999e+00 -9.4999999999999996e-01
    1.8999999999999999e+00 -9.4999999999999996e-01
    1.8999999999999999e+00 -9.4999999999999996e-01
    1.8999999999999999e+00 -9.4999999999999996e-01
    1.8999999999999999e+00 -9.4999999999999996e-01
    1.8999999999999999e+00 -9.4999999999999996e-01
    1.8999999999999999e+00 -9.4999999999999996e-01
    1.8999999999999999e+00 -9.4999999999999996e-01
    1.8999999999999999e+00 -9.4999999999999996e-01
    1.8999999999999999e+00 -9.4999999999999996e-01
    1.8999999999999999e+00 -9.4999999999999996e-01
    1.8999999999999999e+00 -9.4999999999999996e-01
    1.8999999999999999e+00 -9.4999999999999996e-01
    1.8999999999999999e+00 -9.4999999999999996e-01
    1.8999999999999999e+00 -9.4999999999999996e-01
    1.8999999999999999e+00 -9.4999999999999996e-01
    1.8999999999999999e+00 -9.4999999999999996e-01
    1.8999999999999999e+00 -9.4999999999999996e-01
    1.8999999999999999e+00 -9.4999999999999996e-01
    1.8999999999999999e+00 -9.4999999999999996e-01</inv_output_scale>
  <weights>
    <_>
      -1.1759710973498302e-01 1.7409839813446601e-01
      1.6699606400200781e-01 6.8396042065620097e-02
      -2.1275148859049353e-01 9.1565700963412187e-05
      -5.5293577572077673e-02 -7.4389732322272833e-02
      3.1382183492404771e-02 -4.0905109586708183e-01
      8.4158297479935376e-02 8.7028540073098667e-02
      -7.9054656895776787e-02 1.1815038153153269e-01
      1.6579036193320271e-01 -8.5833360457818614e-02
      -2.8990945968865336e-02 -1.1884184970611709e-01
      -5.3911555807076315e-02 -5.5132689548565139e-01
      -3.1813774244490195e-01 4.4981563058342383e-01
      -1.1493467459530583e-01 -3.9886142147512438e-01
      -3.6206164218474435e-01 1.2267984065636143e-02
      1.8121193209262684e-02 -2.3387028210644778e-01
      7.0553414686258781e-02 8.2125538986806829e-02
      -2.9001482780523963e-01 -7.4806985491717798e-02
      8.4812858165874319e-02 6.6086655400090079e-04
      -1.6963751720875254e-02 7.4845127892914060e-02
      -4.9705215765959121e-01 8.5523220788447027e-02
      -1.0810896215372019e-01 -7.7758417540814570e-02
      2.9806894644525983e-01 -6.7178299193661162e-01
      6.2388094614027327e-02 -4.6412786707303472e-01
      -2.5029513435315320e-01 -1.4899701044970270e-01
      -1.1197043953038226e-01 -1.7020060051450761e-01
      3.5740838082917775e-01 3.1051084669409790e-01
      1.1906344474055117e+00 5.9777487226777185e-02
      -7.2761653680871730e-01 1.0209173544328086e-01
      2.5715215743698699e-01 -2.0685087287832335e-01
      -9.0367379417459126e-01 2.4551649609973156e-01
      -4.8585705356692113e-02 1.1269311161928688e-01
      1.5119202951505711e-01 -5.6532124877212375e-01
      2.3635368584910713e-01 -7.8760525726429620e-01
      -5.6405937641266868e-01 2.5793930603489124e-01
      8.9808772826925912e-02 -1.1558846317854368e-01
      1.6903061296624419e-01 2.5570529876650938e-01
      -2.1657302299011200e-01 -6.7638731533574004e-01
      -5.7936775315671346e-02 -3.3436950245952179e-01
      -3.0658749490077236e-01 8.6267743886394010e-01
      3.3421427037256768e-01 4.9721302710770236e-02
      3.8936963794070162e-01 3.6898874264522868e-01
      -6.9585145938340021e-01 9.2918087252128290e-01
      -3.0739582484736533e-01 -6.4766141699567881e-01
      -6.3027955569422811e-01 2.8073322446798322e-02
      -3.1932997437147731e-01 -6.9121606061958196e-01
      2.4603802241202713e-01 -3.4020456136155613e-01
      -3.7599689090163735e-01 -5.7511419998530655e-01
      -2.4190034659116863e-01 7.6896524409155809e-01
      2.0278580336354438e-02 -3.0235387908042372e-01
      -3.8852796200448148e-01 1.4522176977816265e-01
      1.4449560605885214e-01 -5.4095985105030142e-01
      2.5776622854193948e-01 -5.7776032970516911e-01
      4.3457619774632789e-01 4.0513664477012745e-01
      2.4765678108516119e-02 -2.1031874616159663e-01
      4.9106805001448506e-03 2.0140005666644859e-03
      5.2959019239320637e-01 1.3749708189668172e-01
      1.5806517183226637e-01 6.2422326428991759e-01
      6.1166702559020425e-01 3.5848104039617947e-02
      -4.4952433416922954e-01 -7.8831288199468452e-01
      8.0204828099261438e-02 9.6355442166756733e-02
      2.5147473102434176e-01 2.5302339186727146e-01
      -1.0861142259912047e+00 -3.0465301094798419e-01
      -1.7777930698306319e+00 -6.4064365790958244e-01
      9.4789687428022007e-01 1.4976988473992958e-01
      6.3047631201561138e-01 -4.9787355020116786e-01
      -4.5904732194203735e-01 -8.7967991089038688e-01
      -8.9751275527354657e-01 5.6571344200705931e-01
      4.1776890970598712e-01 7.8814698845045394e-01
      1.1722018124539617e+00 1.3560336239078372e-01
      4.0341485412262268e-01 -2.1057123266624694e-01
      -1.1478675405614978e-01 4.4627493850356048e-01
      -5.5427723978684906e-01 5.9455782995705397e-01
      -5.9367787155674256e-01 8.1381258444471205e-01
      1.9840611611794934e-01 -5.7687385767917698e-01
      3.5083098024912462e-01 5.5781598619572648e-01
      -4.6038575311732755e-01 9.9310167663264404e-01
      -4.9502306703990379e-01 -3.2897061469344337e-03
      -5.8783466727528398e-02 -5.5296597550823590e-01
      -9.4979733250788712e-01 5.7730287606484509e-01
      -2.8331381701208375e-02 4.5442997310030697e-01
      6.6390883354491859e-01 -1.7855916405342481e-01
      -9.4891997854004473e-01 4.1110659541905065e-01
      -1.9347279734992076e-01 3.6122074869010723e-01
      -7.2044286248864009e-01 -2.8923613589168146e-01
      1.7159815408957427e-01 -6.3061058309340934e-01
      6.1417697229445574e-02 -7.5272060571835608e-01
      3.1072457598764197e-01 -3.3472212669934087e-01
      -2.2310819113183744e-01 3.2501951484148978e-01
      2.2512372914097488e-02 -5.7386850418899522e-02
      -9.4338605423356026e-01 2.9751296710333303e-01
      1.4265473292410470e-02 -2.8274835141458721e-01
      8.2988613539398859e-01 4.2720980172551482e-01
      -1.0909148780902846e+00 7.3170174357535145e-01
      7.4308897899481391e-02 1.4910344120690344e-01
      -3.4705361765380416e-01 1.1276071482679813e+00
      -7.8335444256832809e-01 3.9692296687522688e-01
      9.9470916247375363e-01 -5.8082398418833947e-01
      3.5893163529907890e-01 -2.3602156642157199e-01
      -1.2731199557962092e+00 6.0938261971195640e-01
      -3.8081694457155674e-01 -1.0390631120058653e+00
      4.9987013792191681e-01 -2.9055183792105443e-01
      7.3106708080265859e-01 -2.3415070264621024e-01
      -4.1857488508741364e-01 -4.5786494949852186e-01
      2.3085265638294794e-01 1.0521421215881919e+00
      -2.4162519388664705e-01 -1.3085378621285595e+00
      1.7119634025756048e+00 -1.6434497883786617e-01
      1.7947684160397152e-02 2.3342901917859829e-02
      -1.6945777211671598e-01 -2.2452866950751349e-01
      5.4753203904682579e-01 1.3744257817340395e+00
      -1.2187871379914688e+00 5.4820013095964126e-01
      -8.8146596927394505e-01 2.6291004689059921e-01
      -3.0650121975124894e-01 5.5011766812540483e-02
      5.9314242901928704e-01 5.6928070711625256e-01
      1.2677708810679142e-01 -2.9469083687375397e-01
      6.2821475560354750e-02 -1.0284025789887505e+00
      -1.1439755729940320e+00 -6.2455381473955329e-01
      1.1487024885067001e-01 1.0777983541702270e+00
      -1.2252326661200741e+00 -2.3121394585646690e-01
      -3.3422129901513575e-01 4.5293221021363150e-01
      2.9816982736649977e-01 -1.3800796426816750e-01
      -9.6200643619652038e-01 3.2372199379865924e-01
      7.8329916515838838e-01 -4.9329813220858709e-01
      1.9458975061517461e-01 5.5256558468551620e-01
      -1.5118231967886039e-01 5.9253230147726210e-01
      -1.6277050506280720e-02 -5.1811686608850160e-01
      -9.7177425281498309e-01 3.5277765662198607e-01
      3.0518753628641149e-01 9.8028476462187142e-01
      -5.4376824766774967e-01 -3.8433485418853763e-01
      7.0979830105549169e-01 2.4411183514459905e-01
      -1.4612224697961487e-01 -4.8211064363744915e-01
      -1.0689741286284053e-02 1.8473698231700814e-01
      1.0361093088161890e+00 -3.5711163873806837e-02
      -3.2190460420279982e-01 -1.8777235478370676e-02
      1.2117019571324985e+00 -5.4877527801751880e-01
      -4.7175648483691240e-01 -4.3605827420322757e-01
      -1.3796923646006129e-01 -8.4141571732629028e-01
      -6.7556989795038014e-01 2.1104741255297307e-01
      -1.8066174887092012e+00 3.8163588672617973e-02
      4.6349707485361258e-01 -3.8734893398793585e-01
      1.9817336006462680e-01 -1.3868033012366487e+00
      5.4761394478464363e-02 -4.0460207353465055e-01
      6.6354413254918424e-03 -1.1067070104617274e+00
      -2.4078998182906547e-01 3.4279732415137593e-01
      1.4875022091968010e-01 5.4179320426743660e-01
      -3.9577754926162934e-03 -4.8403550856682442e-01
      -1.4024057447580482e-01 -5.1642225957053112e-01
      2.7241165743480844e-01 5.2807821288710843e-01
      -1.2849093283291917e+00 3.9336300749365871e-01
      1.5236985993785805e+00 5.6971065934644638e-01
      -3.5933296683907734e-01 8.3216317431855991e-01
      4.0709471835608795e-02 2.6330498081734299e-01
      7.9217574444481109e-01 1.4665077126354465e-02
      -7.2531885024149378e-01 -5.3820145350580062e-01
      5.2933742974034215e-01 -1.8787300590905436e+00
      -1.6644514206807717e-01 2.5463568699678796e-01
      8.3754559977932547e-02 1.0932914421009808e-01
      -2.5491983855621192e-01 3.9604666910369063e-01
      2.5724433245607792e-01 -4.0082971064694345e-01
      8.9359906334169653e-02 -1.2811954085940056e-02
      1.1062453765756670e+00 -5.6606994113866616e-01
      5.3080046753493781e-01 1.4319072074748607e-01
      1.1440019676566335e+00 9.3337033224855004e-01
      1.2488174149917101e-01 3.0291614310956316e-01
      7.7450902992332971e-01 2.6963858105528194e-02
      1.2039554789846956e-02 -2.5974464777390205e-01
      3.1616451846549162e-03 -2.2224837406544673e-01
      -6.9435458951092310e-01 -6.8379766127796127e-01
      -1.4831315181532307e+00 -9.5700200279038816e-01
      5.8056045816500292e-02 -1.1717492538738973e-01
      -5.9639532313215748e-01 6.7781063794998087e-01
      -7.1563996610283467e-02 6.5780012102915186e-01
      7.1010819872727060e-01 -1.4514906946683181e-01
      -3.1815203486399268e-01 -1.6234508312963363e+00
      8.3631321441047701e-01 -1.1234008956201331e+00
      -1.4895755585456885e+00 -2.5956757554259791e-01
      8.9685004398497781e-01 2.0587915227924589e-01
      -4.5283089065140353e-01 4.4138169335063893e-01
      3.7764865387519342e-01 4.0749235629880148e-01
      6.7568428337054132e-01 -6.1360732950163566e-01
      1.6357474672120622e+00 4.2768689600893661e-01
      1.0145170287645511e-01 2.8515332233067037e-01
      -3.5532642112087121e-01 1.6216758869373110e-01
      -2.9104053363802629e-01 6.6473834430622247e-01
      2.5600735869269275e-01 1.0112408612022630e+00
      6.6999438984286075e-01 6.7339109995489865e-01
      -5.3415817324224335e-01 3.0417823131088723e-01
      -1.1190642775649930e+00 -1.6156980671178878e-01
      -1.3833594875159196e+00 -1.7487040332981743e-01
      5.7806886809865199e-01 -3.4518248539756186e-01
      -1.0371058481702073e+00 -7.5781024428364563e-01
      -3.2776682999331258e-01 1.1301918104281308e+00
      -5.6225707166838279e-01 3.7432990520250960e-02
      -1.2536082204230353e-01 4.0164987217961090e-01
      -4.6709654931598989e-02 -7.1340142154538200e-01
      1.7599803944453496e+00 1.6818562872432002e-01
      4.3827556179029792e-01 -1.6106797253269364e-01
      -4.2518701382237672e-01 1.1882387162604773e+00
      4.4569682634307800e-01 1.5726653697808675e+00
      5.4420382423291103e-01 -2.1899262174090660e-03
      8.8894050430017257e-01 8.7340863832083715e-01
      -4.0483586605993377e-01 -4.0813862213952029e-01
      1.2592060347941056e-01 4.2195377873244272e-01
      6.4183136565146431e-02 1.2603558096448426e+00
      3.3114646516671647e-01 -3.0192010891318799e-01
      9.9080738266062923e-02 9.0672680323632926e-01
      -1.9080210332704306e-01 -1.0261194323972294e+00
      -1.0235129705445492e-01 -1.3922600546533426e-01
      2.6039137364135861e-01 -1.0383066336199094e+00
      4.6530149154979140e-03 9.7215616904751778e-01
      -1.4489047055003528e+00 5.4311439654755744e-01
      -1.3324119754830003e-02 -8.6301868042775148e-02
      -4.3558941210718218e-02 6.0359305827165727e-02
      8.6052054262457300e-01 7.7420792845179698e-01
      1.3057174922875564e-01 -1.2399185182675962e+00
      5.8583900754222352e-02 4.6023182384343908e-01
      1.3217822377890742e-01 -2.8064660011548626e-01
      -5.4854573976629484e-01 -4.0482263203958563e-01
      4.8181857651818583e-01 9.0599618583018504e-01
      -1.0246557487453993e+00 -3.5480580909078474e-01
      -2.9301972485910427e-01 -3.6660116569355927e-01
      1.0826873363030143e-02 -4.5086855909184632e-02
      1.1513666887929397e+00 3.8283114260121631e-01
      8.6888612886547167e-01 1.1849433877884814e+00
      -7.0333749579409310e-01 4.5354129327742199e-01
      -4.9042948015049814e-01 5.6387666928620461e-01
      -1.9827888782915201e-01 -1.5093644334958327e+00
      -3.3046659133464473e-01 1.0790986155428273e+00
      6.7191662724039880e-01 3.4066244235451160e-01
      -1.0179065553061351e+00 -1.1023348892117292e-01
      -9.5897293092547209e-01 -1.0685861363110734e+00
      -1.0135678231504941e+00 -4.9933250873630675e-01
      1.7135417674133337e+00 -8.2548281025170978e-02
      -1.8769193119757663e-01 4.9696216399138314e-02
      -8.7184767385684980e-01 1.5747411596865271e-01
      -2.9078728619787708e-01 -5.5479120387630398e-01
      -3.3696415995058054e-01 5.2400641130312731e-01
      -9.7244787665118881e-01 2.4468838137530260e+00
      -5.7140181744014928e-01 -1.2305723382640856e+00
      1.7553930728666139e-01 -1.2183367506950982e-02
      5.4909929884579389e-01 -3.2480028627029084e-01
      -4.4101044759353114e-01 1.3640394501520484e-01
      2.0329725962639644e+00 1.3200856010143540e+00
      7.5764575477758320e-02 7.7962973648274236e-01
      2.7975837276427179e-01 -5.6047660732322602e-01
      -3.6252832381947403e-01 6.1571670720220295e-01
      -5.7879339434242549e-01 -3.1796114626273653e-01
      5.5639082530109896e-01 5.4386476765757963e-01
      5.4306341208739961e-01 7.1045234673502622e-01
      -1.0391852511507256e+00 -1.3116518821494823e+00
      -1.3828135062005620e-01 4.9873243834133912e-01
      -3.2136685195787490e-01 -1.1397837049055479e+00
      5.0890689376177567e-01 -1.2737133156500660e-01
      5.1476310970687555e-01 -7.6021282712753624e-01
      -1.2593586095907718e+00 -1.3635481670072129e+00
      -5.9460501599899229e-01 -2.1181461035060384e-01
      -4.7267265544273168e-01 -5.4256041570012326e-01
      4.8959345818383249e-01 1.1881280499936639e+00
      1.3252658223660176e+00 -2.5832666880540200e-01
      -7.0249893697521404e-01 -4.5944935524753427e-01
      9.3550000304774883e-01 4.2803800029182038e-01
      -5.8138513771095482e-02 3.6143582394276413e-01
      -2.0246431739867962e-01 -5.2727660823021893e-01
      -2.1995367349231751e-01 9.2342447279144280e-01
      -8.6612348774352732e-01 3.5104986019885452e-02
      -5.9008393144123750e-01 -8.7725838381224863e-01
      3.0086729900762144e-01 -1.1628441438729904e+00
      -1.8820330152562664e-01 -1.1135125099716650e-01
      -6.6345287722109214e-01 -9.3755758801477532e-02
      -1.7465123011109700e+00 5.0561466333239680e-01
      3.0351279402046527e-01 8.3018138338468639e-01
      -8.7292286238799899e-01 -1.4282927147704588e-01
      -2.8519266963378864e-01 9.1204484490226467e-01
      2.7136499769741473e-01 6.4433239776119167e-01
      5.0420185801938799e-01 4.3136857655885841e-01
      1.0753447077236591e+00 -1.4527477052460921e-01
      -1.0795429526258968e-01 -5.6845748682447061e-01
      -7.3597265200889231e-02 -7.2175889772392962e-02
      6.8920256880029174e-01 -2.9182756932379300e-01
      -4.0867306265754660e-01 2.1101520210160049e-01
      4.7216407607268013e-01 -6.8231839976115594e-01
      -2.7966789806343317e-01 9.0643096772743070e-02
      -7.8000049731530310e-02 -4.6641983698244743e-01
      -4.1546305965293606e-01 -1.9026454020892833e-01
      -8.2430974867528040e-02 -5.0045006437701600e-01
      6.6116843045595264e-01 1.7924148334322443e-01
      2.6020865334497750e-01 -3.5077003530304618e-01
      -1.6460390000617628e-01 -2.8575957976438615e-01
      -6.5410122909199286e-01 6.1898874758324796e-01
      -3.2478295424783421e-01 -1.8007269420680377e-01
      1.9411827125297607e-01 5.2924131630641902e-01
      -1.6962126122252882e-01 -1.2652116211309434e+00
      4.1543104658190250e-01 -4.1668367776670080e-02
      -8.8424346231966233e-01 7.8256379662742959e-01
      -2.0617053111417333e-01 3.9425140249656365e-01
      9.7591611458471095e-01 6.2593832036652375e-01
      -2.3291910866437487e-02 6.0880542195081022e-01
      -8.6431077711513804e-01 -1.4952936003726847e-01
      -2.8384498435812888e-01 1.1607116028067019e+00
      2.0293097601778295e-01 5.8676886086643587e-01
      -2.1294943431371453e-02 -1.3841272503704166e-01
      -5.6485293687493787e-01 6.9561888001750138e-01
      9.4399724305833488e-01 -8.7564332299577063e-01
      -5.3061595670561013e-01 4.8481165576715890e-01
      9.7401922408464695e-02 3.0008524105326628e-01
      1.3104060336369983e+00 2.7990953075821369e-02
      -7.4473179187288718e-01 -4.8105988851356546e-01
      8.0927124509966319e-01 1.3521970684731270e+00
      -1.8393469307150884e-01 4.2017999778006843e-01
      -7.8852074285064611e-01 -1.2502941185554048e+00
      2.1415459449275787e-01 -9.1049573916773607e-01
      -7.8564087685852413e-01 -7.8734004767106491e-01
      3.0487836960033032e-01 8.5199167345518370e-02
      6.3047103699902141e-01 -2.3696403329741135e-02
      -5.6025010062343961e-01 1.2287365865876230e+00
      -3.8945338208649238e-01 1.2065310940484117e+00
      -4.2956519640806834e-01 5.3056865217967020e-01
      -4.6628216596331667e-01 8.8974549353488075e-01
      1.2382902934835118e+00 1.2435401485920299e+00
      -1.8473182573418107e-01 4.0333086249259409e-01
      2.2206884983130556e-01 2.7355298859659494e-01
      2.8135436527333868e-01 -3.0646194151893836e-02
      1.1900914047418096e+00 5.5089846823091382e-01
      -4.6340772522220958e-01 -1.6201615921715773e-01
      -8.7405946661677181e-01 1.3264467447693538e+00
      -7.5288966443025240e-02 -3.8887783671573051e-01
      -1.4687940370650451e-01 -1.1581691298836292e+00
      5.3576604213394363e-01 1.1531609915458878e+00
      -5.7549298968149065e-01 4.9221706396627041e-01
      5.7758273701414742e-01 -4.7092178890321668e-01
      -4.0823189198450044e-01 1.2445703493833891e-01
      -1.9939597886461424e-01 4.5700528565288545e-01
      8.0836786054690279e-01 2.8631370738587897e-01
      -8.2533327101924892e-01 7.2486269592882369e-01
      2.8058077258424835e-01 -5.1005694307872318e-01
      -6.2880488861895178e-02 -4.6565845512248721e-01
      1.2189420004189631e-01 1.2455615061854635e+00
      -9.9717438276436254e-01 -2.4865723767114356e-01
      1.1936652216081398e+00 3.4654469512308672e-01
      -6.3670453876839272e-01 4.8886928859022016e-02
      1.0942322955700547e+00 8.8933873666291563e-01
      2.3365395389171972e-01 1.7264700796221047e-01
      1.7586876295125170e-01 9.1044139662192713e-01
      7.6156082134041558e-01 -7.9767966489633757e-01
      6.2241001373256966e-01 1.1780103242766056e-01
      -1.0911954476946262e-01 -2.7112310042246718e-01
      9.1330819984277833e-01 -1.2567996777023135e-01
      4.8883843861986181e-01 1.1879220648520485e-01
      -1.4323558011363316e-01 4.2508156355111537e-01
      2.7595668226109554e-01 -4.3828831209122687e-01
      -4.6009350041080815e-01 -5.3559393613763173e-01
      -1.9337323259637756e-01 3.4675109467419235e-01
      5.4709087309752868e-01 -2.8679718531812354e-01
      1.2551552585981188e-01 -6.8625643062882868e-01
      -5.7681384922546608e-01 1.4968658711490881e-01
      -3.3919614698175693e-01 9.9222871863810139e-02
      3.5988274680734073e-01 3.4903970308713450e-01
      -5.1943347359096259e-01 2.7158458984537664e-01
      -9.1993140961818132e-01 -6.2705116852163498e-02
      -1.2842784894676776e-01 -9.0267750609436634e-04
      3.0496336765791493e-01 3.3424018436642938e-01
      -3.7223637101193335e-01 4.3839228378005618e-01
      -1.5328566123597429e-01 1.0842568900796759e-01
      2.2014490462661040e-01 5.0840260820774763e-01
      5.0192156511353003e-01 7.6511095281611208e-02
      -9.6305738325789494e-02 -1.3082397531801798e-01
      6.3947620482743370e-02 -3.3981869434348233e-01
      1.4698462983412552e-01 1.5988785527432434e-01
      -1.1950206512012553e-01 2.2281102618425230e-01
      -5.0990907286629431e-02 -1.5955240437679494e-01
      1.3385162393874023e-01 8.1589962880301067e-03
      -9.3868194749656617e-02 -6.4310606274249851e-02
      -6.9860233822853127e-02 -2.5860392746068956e-02
      -2.1499318669394965e-01 6.1160520844947476e-02
      -3.9308630299816336e-02 2.0179336609950551e-02
      -3.1312513019329030e-01 -3.8300579748182106e-01
      1.3536778690989928e-01 1.4408880081978329e-01
      -2.2855418035957412e-01 1.6803543699406595e-01
      1.8298169063025027e-01 -4.4612675384686334e-01
      -4.5726732278167218e-02 2.3936976609811517e-01
      -1.1611572629378195e-01 1.6417760404404066e-01
      4.5253973946117637e-01 -1.4631238660820287e-01
      -1.4674029584494761e-03 -1.1861443430002210e-03
      3.3200058411474544e-04 -1.3846627781464295e-03
      4.5207598638641461e-03 4.6365870979016028e-03
      1.5784378568975684e-05 -2.1127163164434640e-03
      3.5378189134443660e-03 -4.5058653109381376e-03
      -2.3115534566242567e-03 2.8243159934766807e-03
      4.3518378333462782e-03 2.0424276834163039e-03
      -3.4170268801699904e-03 -2.2201781341270200e-03
      -7.6474275985670707e-04 -1.4393891445302078e-03
      -2.9879335050641094e-03 3.5933554565490389e-03
      -2.7066725927831618e-03 5.5395918026377637e-04
      -2.9444886837459465e-03 -4.4686410843295535e-03
      3.6570744543285119e-04 2.4925562147825493e-03
      -1.2130869245374134e-03 -3.0607692187104435e-03
      -3.3417567428870314e-03 -1.6342254883046951e-03
      -3.6117374898663604e-03 -4.1306252656592305e-03
      -2.2180484639091661e-03 -7.3331726622777955e-04
      1.7980294206220082e-03 4.3578082028433614e-03
      8.6939091854130665e-04 -3.2406603707064233e-03
      1.6033110972953867e-03 2.2421915509995096e-03
      -1.2694572748037454e+00 -1.3704908213645572e-01
      7.3538558262044540e-01 -2.0466391910418259e-02
      5.1069645789773410e-01 1.5071592305878678e-01
      -3.6259129816418162e-01 4.9029115315723037e-01
      2.0223655715578154e-01 7.4079937688687009e-02
      2.6861543258836423e-01 1.3584234721487032e-01
      -6.3861564092554379e-01 -5.0693567740463918e-01
      2.1557452847532543e-01 -7.6247795465427615e-01
      -8.9420295330585910e-03 -2.7624900670808866e-01
      1.3517974547384939e-01 9.4299132693409626e-01
      -4.6376200312735050e-01 3.8910721136220316e-01
      1.4289251104436565e-01 3.0799632029852625e-01
      7.1020632770357384e-01 1.6926400108353032e+00
      -1.4629263383486291e-01 -1.1880431282157387e-01
      -5.8529030425053730e-01 1.2949451693123556e-01
      6.8437315460908599e-01 -1.0336938774733295e+00
      -2.2227200211481149e-01 7.5385288420861540e-01
      -5.2661854228277227e-01 -5.5045802403666155e-01
      -8.4150432112838947e-01 4.2157431031020362e-02
      1.5252257092761357e-01 4.6618689010705106e-01
      -5.1189612768428516e-01 -7.1220401150094015e-01
      -1.4587155917678826e-02 -5.3438063846516374e-03
      -6.3633050896572030e-01 3.4610468500634123e-01
      4.5051351569371090e-01 1.2844152170666381e+00
      -5.9291035106220114e-01 9.0934468092597209e-01
      -1.5614479842652956e-01 -1.5808093920029524e-02
      9.8737372796193504e-02 -5.9960683051234442e-01
      1.7101521154359878e-01 -1.2986976940163271e+00
      5.3900388392425558e-01 1.3103374426748776e-01
      -1.5486129663169526e-01 5.5217083317773819e-01
      7.9060207277089867e-01 2.4292824645955111e-01
      -3.1419291653240933e-01 -8.3645503525969034e-01
      5.6528216501094730e-01 -2.3650704570820308e-01
      9.5945030787566288e-01 1.6153097998786548e-01
      -3.1320860121024097e-01 -2.8124766596954642e-01
      7.4854494155839546e-01 -7.2438264938175079e-01
      -3.4605888698253739e-01 3.7510688203974279e-01
      -1.3910771338589317e-01 3.6767152362498240e-01
      8.1274445364925019e-01 6.6601040145089407e-01
      4.1163582552514311e-01 -2.4954640292230512e-01
      1.4627399772214406e-01 4.7690563850715922e-01
      -1.0217448886739091e+00 -3.5114010605576806e-01
      -5.5560303501703233e-03 -2.6619950574743750e-01
      -5.4020988758690824e-01 -1.2934341316365464e-01
      -3.5491904568595473e-01 9.2500048756431963e-01
      1.8268562812594963e-01 1.4889373541888798e-01
      6.4927165654448238e-01 -1.1952038796553237e-01
      7.0939898846013116e-01 2.4785401580616637e-02
      1.7302949532485961e+00 -6.4190573049210642e-01
      -5.0624136082758864e-01 -7.2109339327483901e-01
      -8.7861013637228824e-01 -2.9737537646719486e-01
      -3.2552274604208625e-01 8.6242752190277619e-02
      -6.6421453035215183e-01 -8.6276086982811376e-02
      2.5303798324113519e-01 -4.5097658272742885e-01
      -1.4846831257789830e-01 1.2187199014188470e-01
      1.4002778355537633e+00 -2.2583690714502311e-01
      -5.2512559093235955e-01 -9.5746482193637683e-02
      7.8721199092672256e-01 5.7146390992395690e-01
      1.0889997767074862e+00 -4.0342880662166453e-01
      -1.0527651440661491e-01 -6.6734315474274808e-01
      3.6077298308725952e-01 1.2110718122284894e+00
      4.6880266517715131e-02 -1.5694828340428282e-01
      -1.1407976233767783e+00 1.4224121799645828e+00
      -5.9207390946833238e-01 6.6036435103511038e-01
      7.9152120474373067e-01 -7.6096892449472053e-01
      1.0747172374120599e+00 3.5223088085565436e-02
      -3.1708000136676318e-01 -6.9319319466170748e-01
      2.9821046659109668e-01 -5.0513587986452113e-01
      -9.6275253303075115e-01 -4.8348163004278866e-01
      -7.5629643883309772e-01 4.0544204377451376e-01
      -1.0311011140506345e+00 -2.5118478162243149e-02
      -8.3550017323070547e-02 -3.6804923352593749e-01
      -1.4496278592082598e-01 8.8083407724315910e-01
      3.0449718662287539e-01 -2.8394115141050114e-01
      -4.9991314735555897e-01 9.8255346380403064e-01
      -2.9647655342011325e-01 -8.9068282624267903e-01
      5.1118006178526365e-01 -4.1283887796364899e-01
      5.0425323519377763e-01 2.7931041135319651e-01
      5.1388450968335919e-01 1.0598226372058133e+00
      7.1377709329885419e-01 1.2551908544558454e-01
      -2.5405873820295494e-01 1.2958003072130744e-01
      2.3648837740124964e-01 -8.7675701399555517e-01
      -4.4924385041128979e-02 5.7256534963079764e-01
      -1.0633353194220085e+00 6.7498410756193394e-01
      6.3740563638474645e-01 8.8117644811184137e-01
      9.1629262912069603e-02 8.0598006582512050e-01
      3.5916989702196706e-01 -7.9303385143617636e-02
      -1.4708737440976080e-01 7.4490295648960503e-01
      2.2667495729764148e-02 -1.0049621314463588e+00
      5.9084955379291382e-01 -1.0897139750382281e+00
      -2.4753306168203343e-02 5.1489460597474002e-01
      1.0846892201318077e-01 1.1781444823523588e+00
      8.8118173747996231e-01 2.4225691062954549e-01
      -1.7970373756858349e-01 -7.2547422433949516e-02
      7.5264427826662594e-01 -4.7294346756372246e-01
      1.8370029594509021e-01 8.5914257220414814e-01
      7.8212505969503698e-01 -2.4922319867128143e-01
      -1.6258914069575909e+00 6.3525236451675293e-01
      -8.8799438987751433e-01 -1.7871647969844573e-01
      2.4535924220562380e-01 -4.9476238521192056e-01
      -2.3063537448537885e-01 2.8787389816576892e-01
      -1.1588468810810000e+00 -8.6616966927967065e-01
      -5.4134288211290749e-01 -3.6205923483418734e-01
      -4.5297983633457256e-01 1.1370247390693365e-01
      5.9842908295367536e-01 5.6701228789218350e-01
      -8.9734233309482947e-01 3.7035273384423900e-01
      4.5018461805271165e-01 6.7948984830859727e-01
      -6.3269755789899951e-01 -1.3206169613576075e+00
      4.5642541980669760e-01 -2.4034984875088533e-01
      6.0205584699655222e-02 -6.1764417639222302e-01
      2.4702290071745112e-01 -8.1594401635817718e-03
      -4.9253721037434472e-01 9.5994426781910114e-01
      2.7896120815954750e-01 7.9625404343335404e-01
      -1.0330801944794217e+00 -7.3761614102153025e-02
      4.3165438870286876e-01 -1.4015362773079246e-01
      -3.4694229665246373e-01 -1.0955684702089408e+00
      2.0821934770405086e+00 5.4298782028261439e-01
      -1.2641794010090462e-01 -1.4841795533749666e-01
      5.9222225974246012e-01 1.3774136460677813e-01
      1.0288073487945595e+00 3.2617588879840026e-01
      1.0104006553505489e-01 1.3828205549184294e-01
      -1.4096560331909496e+00 1.3629011566952454e-01
      -1.1061001463397964e+00 3.5175879060534065e-01
      -3.5994249867097927e-01 -5.4209935712732504e-01
      7.0015816776191697e-01 2.0390002368909843e+00
      -4.9474770996966566e-01 5.8768352204003715e-01
      1.0447971132690643e+00 1.5251996875383464e+00
      -9.3956338049102181e-02 2.8862121895412857e-01
      -6.4787519479795719e-01 -1.5251668859631093e-01
      -8.2779540720568501e-01 -1.0021564366189191e+00
      -2.7136425981741930e-01 -3.5864994326961780e-01
      -8.1795523898232581e-01 7.6633146040305844e-01
      -1.4392520740954264e+00 2.7920385347392873e-01
      7.7968734871634221e-02 -5.6656473749252798e-02
      -2.0727927899012069e-01 -1.3575509919462156e+00
      -1.2598131688075502e+00 -1.7964930240683803e+00
      5.3140422585315694e-01 -9.2110390565605582e-01
      8.1776417887949301e-02 2.2434632426517245e-01
      -3.3094371011493523e-01 2.2577783895625633e-01
      -8.8769028611749556e-01 8.8023820768617422e-01
      1.4243825701289980e+00 3.0997897305221539e-01
      -2.8786723290799988e-02 -1.4219733207817240e+00
      6.9347443004986886e-01 -6.6741883870322660e-01
      -1.3804818411702358e+00 1.1989052421738730e-01
      1.1209950547467291e-01 1.1973017181315668e+00
      -3.0085558673896828e-01 -3.3633456332061523e-01
      2.8444435465755868e-01 2.2044248793037311e+00
      -1.4942006320461271e-01 -2.0911289244001399e-01
      -9.4961099496171063e-03 2.9812358199877254e-01
      5.2981438173555606e-01 -2.2679502064350926e-01
      -1.7763143483961910e-01 2.4428696958024410e-01
      -6.1541144598240571e-01 -8.7432748408229999e-01
      -1.2337793091993772e+00 -1.1881603961886761e-01
      -5.5696147340758095e-01 8.8661028709827849e-01
      8.2727427283913646e-01 -3.7126351584674983e-01
      1.2927637478965764e-01 2.3467979314788684e-01
      -1.0080725611461314e+00 2.7175762347526244e-01
      2.3666760031364517e-01 9.6428196052151138e-02
      -1.4561093487322621e+00 4.1988481482969497e-01
      -1.2781007917570366e+00 1.6340239920877808e-01
      8.9108032705609796e-01 -7.9326375152621154e-01
      -7.9559288752928736e-01 1.0002408102061338e+00
      -4.7826973071782819e-01 -1.7631817697874980e-01
      -5.4330112692331588e-02 -7.3651053301756086e-02
      -6.8230698704520054e-01 -6.7628251949251361e-01
      -9.9198226252891908e-01 1.2724812802955518e-01
      8.7918644094479392e-01 9.3194829294759263e-01
      -4.1828210418075407e-01 3.3202594536250507e-01
      -3.1390016084049688e-01 1.2917958063307882e+00
      4.4139959037636428e-01 -6.5937975936713777e-01
      -8.4063911375709821e-01 9.9108357511793491e-02
      1.1290149850310980e+00 -7.5295570280974222e-02
      -6.3498499901742178e-01 -3.0717761565802648e-01
      -4.5593451565229093e-01 -8.4728942368371341e-01
      4.5504362135769430e-02 -6.2630127172700234e-01
      1.0448102873746059e+00 8.5567586766579579e-02
      -1.6168334378967295e-01 -4.7723679329452395e-01
      -6.3884173864724869e-01 -3.0571758374116170e-01
      -5.1518022304936051e-01 -1.0006420198398236e-01
      8.1740297991841648e-01 1.6310945680187963e-01
      -1.7737675097004114e-02 3.7130162508950049e-01
      -3.1441432899233807e-01 -1.1106919718963223e-01
      -6.6100976585937321e-01 -8.6401756059870008e-02
      2.0327083994267187e-01 7.7567383500202458e-01
      6.6814440198795330e-02 -1.0189503248043422e-02
      6.9151098623809404e-01 -5.8653766659428393e-04
      3.2264984133384350e-01 -6.5630365828337001e-01
      3.1821775893738602e-01 7.9152645180755876e-01
      5.7707946810682342e-01 9.3242612052602059e-01
      1.8359022607039896e-01 -1.4299475511180845e-01
      -6.4054444070365080e-01 7.5926063056330118e-01
      -3.9852463090275003e-01 3.5812752736260506e-01
      1.6569029210180738e-01 2.5376897466158305e-01
      1.1283684543384238e+00 9.7104956482456084e-01
      1.7805263687276116e-02 -1.1018540096139444e+00
      2.6417942627788926e-01 3.1815141386062018e-01
      2.2217039123714710e-01 -1.5736511529872879e-01
      6.2893531470285102e-01 6.0625767106551021e-01
      -6.9098615137372377e-01 -3.8299942901050121e-01
      -1.6345287042701365e-01 4.8597119064962763e-01
      -1.3280125069093682e+00 -4.5366587763851433e-02
      8.3149111100860165e-02 2.9825582435636844e-01
      5.5788233707731427e-01 -2.7648464586445037e-01
      -4.4351032082554265e-01 -9.3618603513726736e-03
      2.2181535079797179e-01 -4.4608920354410075e-01
      8.7681449181373483e-01 6.5958498414174460e-01
      -4.5076953204309184e-01 -1.1271526450629876e+00
      -6.1909753448449878e-01 6.6216511102488151e-01
      -5.5990757838894856e-01 4.5673168769548417e-01
      2.9509671440696983e-01 5.2735222346634525e-01
      -1.0306020332483852e+00 3.8930187505224689e-01
      -3.2028140939480981e-01 2.9393773845704810e-02
      -2.9423733388711587e-01 -8.3795033119089124e-01
      2.9614348659258360e-01 -6.7134292895314918e-01
      1.0108699474918565e+00 -9.2362073679356405e-01
      2.8535638230503590e-01 -7.6591123743974077e-01
      4.3036025446887899e-03 2.4781507779951192e-04
      6.3055695598910999e-01 1.1046141975745412e+00
      -7.0162909098471227e-01 3.8799740362651471e-02
      -6.3020500704208809e-02 -2.4352849153015901e-01
      -2.2438378930497868e-01 1.9729088481130996e-01
      8.6643823269083112e-02 -6.3063664961639809e-01
      6.1408050599385877e-01 1.3063119274061561e+00
      4.7809834510242211e-01 1.1233503087278922e+00
      3.8184046659426940e-01 3.8809252107116626e-01
      5.4417079320037288e-02 -1.9699142155997151e-01
      -8.3094562395168226e-01 -2.2145346024111764e-01
      7.8645584658041667e-02 1.1658968952549160e-01
      1.0825334326641443e+00 6.3895284821625831e-01
      -2.6393012807126215e-01 1.9919752099641723e-03
      -1.6423488987324625e-01 -1.7574713284683663e-01
      -3.1419958946102261e-01 -1.0074221545496085e+00
      -3.6032811137872728e-01 1.6232674120969065e-01
      -1.0163750065027213e+00 9.4862566676541846e-02
      -8.9170532953274942e-02 -8.9276283395218137e-01
      3.6373478039242024e-01 1.4600172194158992e-01
      2.8991576839432764e-01 5.4948001584744977e-01
      5.5460509272062308e-01 1.0010931213766423e+00
      -7.4740499016721362e-01 -2.0761127204765586e-01
      -9.3423980266025486e-01 -5.4757009227381459e-01
      -2.0009901256002895e+00 1.3284876795640925e+00
      5.3171745398354198e-01 -1.4497190336581232e+00
      -6.5423132123278660e-01 8.2375276481068826e-01
      -4.1266420813981158e-01 5.0106652684948894e-01
      -2.7634159890613813e-01 2.6672807625174283e-01
      6.6934112049185956e-01 3.2476127126939064e-01
      -5.3442160178577891e-01 -2.2759007675142143e-01
      1.4786706845494044e+00 4.1049373122684008e-01
      -1.6601259727779077e-01 1.7083893872687748e-02
      5.1133757247084299e-01 1.0812210077234169e-01
      -2.7124614294261223e-01 -1.9844287378634548e-01
      -1.1834972360051523e+00 -5.1741981217021527e-01
      5.2298021847857001e-01 8.7050945956599446e-01
      1.0486931026101641e-01 9.1731906345294933e-01
      3.9983395496032098e-01 4.4109144462491512e-01
      8.5632486055336382e-02 6.7358046625074308e-01
      -5.2894473140768394e-01 -5.9827210014620336e-01
      1.2685438847061834e+00 -6.9126974287459808e-01
      -4.6956287259435914e-01 3.3111669868508553e-01
      -5.7168615258545663e-01 8.9516269964578543e-01
      -1.9342383978181732e-01 6.3525706853799280e-01
      -6.2052350858684191e-01 -4.9655169512053871e-01
      -4.8651175404878969e-02 -2.5511450598604370e+00
      -1.6845140213412221e-01 1.1793269648030395e-01
      -1.5343632843499777e+00 7.7089737032332362e-01
      -1.2750247563778705e+00 2.6577443902718390e-01
      5.0721182701009271e-01 3.2117716278551039e-01
      -8.5909604723911059e-01 -4.9190078811195798e-01
      3.4409349365541375e-01 -1.1855441004706728e+00
      -7.0129306157543825e-01 -6.3409175350315261e-01
      -1.4494734362505629e-01 3.3528995968067833e-02
      -1.0923200093135188e+00 1.4505174824920832e+00
      -7.7039218910922536e-01 1.8679639551003441e-01
      1.1112404114920942e+00 4.4306888936730121e-01
      4.2135568557210956e-01 -1.0596479815835955e-01
      1.1579817271997910e+00 1.1965977830679366e+00
      -3.2138700257095543e-01 3.8842651786496596e-01
      -2.2638937536535195e-01 -1.0232800802017823e+00
      3.1067030072509622e-01 -4.6849583511408915e-02
      -9.3948605642591310e-01 6.5555569539800951e-01
      -2.3205252799757197e-02 -2.6038303460572193e-01
      4.3786760985876394e-01 -1.6280989192364779e+00
      2.5007145717042345e-01 -1.8944356443129091e+00
      -5.5166028628900066e-01 1.2426864936448929e+00
      -7.0589134505044315e-01 6.6086066051873604e-01
      7.3948030862911984e-01 -4.5673215712713605e-01
      4.0381003773094315e-01 1.8935463162413749e-01
      -3.7904491316043559e-01 5.9881080648750633e-02
      1.2581531652501183e+00 8.0951931927439136e-01
      2.9842042597995694e-01 1.3298372791468802e-01
      8.2522065316221305e-01 -3.9074166655522935e-01
      -1.2048804926341493e-01 1.0107885237546885e+00
      -4.4953718406316540e-01 -5.4751990709259048e-02
      9.7468355311333976e-01 1.6194927075257212e-01
      -8.9250655445437599e-01 1.0598711229426918e+00
      8.4262717552962829e-01 7.4588006524494499e-01
      2.2046418056809913e-01 -7.2801598809156831e-01
      -6.7314735915902180e-01 -2.8954396191948456e-01
      2.2187472536203542e-01 7.5058745667311422e-01
      -6.3932464907098607e-01 1.3801610541079654e-01
      9.8154851526790643e-01 6.5223433713212065e-01
      -1.9823749428656893e-02 -5.7159041398392252e-01
      -1.5677983392682779e-01 -5.1527474705402077e-01
      -8.2168971947104119e-01 -7.5099517272664407e-01
      -4.2823146707145432e-02 9.8706682884668440e-01
      -5.8848306368683279e-01 4.0365916340042002e-01
      -3.2849423155442609e-01 2.8146404884389059e-01
      -4.3856154810927356e-01 -5.2016768329004426e-01
      6.0495907597263432e-01 -5.0328177962586507e-01
      -1.1180182395892221e-01 -8.0486286264374164e-04
      3.4854645321802219e-01 8.4189776615299550e-01
      6.9277831210631935e-01 1.0540901056595671e+00
      -7.0438255073691391e-02 -7.9118291247997208e-01
      3.1309760824582872e-01 1.3954066108527083e+00
      7.2205650037667291e-01 6.2429610486899689e-01
      -4.1423197401512091e-01 1.0605658093611624e-01
      -5.6162127266011212e-02 5.2217958733409509e-01
      -1.7591124948273491e+00 6.8409752890197462e-02
      -4.2077354420679286e-01 -2.4608368155839089e-01
      8.3204660813819920e-01 -7.1346477345286402e-02
      7.9695350754888372e-02 3.6121320325167450e-01
      -1.4572278881861223e+00 -9.1136855719550758e-01
      3.9442683566576320e-02 -6.7020225278432788e-01
      8.3326321114548352e-02 1.9343737791268572e+00
      -3.3076222209363110e-01 -3.0630497258284828e-01
      -2.0742687560726294e-01 -2.6745308877228802e-01
      4.7448263371969640e-01 -1.3140111718272096e+00
      -1.2605352307166844e+00 4.9898672959159937e-02
      1.7994011261162490e+00 4.6433066597068862e-01
      -9.1907885551488555e-01 6.6356288813740649e-01
      3.7683965560155291e-01 -1.4498630649888863e-01
      -2.3894392463445585e-01 6.7763790595272788e-01
      4.3748364872224228e-02 5.0849138392643278e-01
      -5.4934643954850704e-01 1.6580472758995007e-01
      2.9865780654795088e-01 7.7824277944316833e-01
      -3.9235080134487560e-01 3.7306208635570209e-01
      1.0277603591255404e+00 -1.3341252194756303e+00
      9.7384750451560875e-01 7.7318892392198824e-01
      9.2889807006577674e-01 5.0075710940787677e-01
      4.4667764153636819e-01 -6.9596416873259626e-01
      6.2253685534814640e-03 1.4308981067428411e-01
      -6.2451629324011559e-01 6.7342002003054358e-01
      1.7152165483124027e-02 -1.1021936427253033e-01
      -1.6641589413877575e-01 -1.9816244724702291e-02
      -1.3571561830515684e+00 -9.8324124810037483e-01
      -6.0441616019361440e-02 -1.7333198847745185e-01
      5.8308878885567639e-01 3.3387491553989936e-02
      -1.0903705411060445e+00 4.3410853296035296e-01
      -1.1972877973660816e-01 2.7318618407044248e-01
      5.8183794417291435e-01 6.7173675718534787e-01
      5.3628011872491188e-01 1.3124372211499267e+00
      3.8997063227892736e-01 5.9473781995123771e-02
      -1.2401545722452438e-02 1.7882917231067111e-01
      1.8629072589885340e-01 -1.4736354243501212e-01
      -2.9451014036030776e-01 -9.4169513823265860e-01
      -4.4861268867407195e-01 -2.2480137858104390e-01
      6.4780121228840326e-01 -2.4490791523659627e-01
      -4.4639377892262933e-01 -5.6070911757705628e-02
      -7.2193845082197272e-01 4.6894244438553456e-01
      -1.7943165607237677e-01 -4.1363781726067965e-02
      2.3496480316180726e-01 -1.1099959836470392e+00
      6.7841119093326574e-01 -1.2091398676563583e+00
      2.0430093140379901e-01 4.1150365747354362e-01
      8.8815122896838272e-01 2.4647639345396474e-01
      -1.1431200618004012e+00 6.8823674113804822e-01
      -1.4084567898773245e-01 5.7957045855362432e-01
      1.0495407179453151e+00 4.6786890829431264e-02
      -9.4979800741633924e-02 -2.1501162323371828e-01
      -5.5641466410838691e-01 4.8501251467849317e-02
      1.1212328232862691e-01 1.6090634054919539e-01
      8.9291619240286679e-01 -2.3400971475128760e-01
      -5.2414212783897129e-01 1.0510126427707170e-01
      1.9079270534195425e-01 4.6213551448174445e-01
      8.6505543949355623e-01 3.5973537572916875e-01
      4.5126128128116449e-02 -5.4117203612623226e-02
      -9.0069308918004864e-01 -1.1682368487502290e+00
      -1.0539810024700097e-01 2.2108702835626476e-01
      1.6757814443415331e-01 3.8163957514392513e-02
      -1.2209620398387400e+00 2.0815577542390068e-01
      -3.9501787125668686e-01 8.1006832063249351e-02
      3.1044467153512429e-03 -3.3516435444839541e-03
      3.1747817303490115e-03 6.2415607617067324e-04
      -7.3627042069427274e-04 1.0484913188569928e-03
      9.8125450624533209e-04 2.9153968171942869e-03
      -3.8055841491548672e-03 4.0709997726646342e-03
      4.2365929123344970e-03 5.1828841827730981e-04
      -1.5141313234234861e-03 -2.5419102906192115e-03
      1.1286105843357219e-03 -1.3302485459504743e-04
      2.6959156285544625e-03 -4.1489337092851207e-03
      -3.8804445708153093e-03 2.3660017471331999e-03
      -2.1781440317909045e-03 -1.6968758811316501e-03
      -2.1950216631281471e-03 -3.9366428847841606e-03
      -9.2221117884335759e-04 -2.0041863198549015e-04
      -4.2039151799843502e-03 -3.6989367424341184e-03
      -1.2677987254917774e-03 3.0788961208820160e-03
      2.8953475925536649e-03 -2.3112785829157580e-04
      -3.9382207007410191e-03 3.6933778790757968e-03
      -2.6906990286412907e-03 -2.1711104098817783e-04
      -2.6811810261356058e-03 -3.0052388201118299e-03
      5.7876298722439427e-04 1.9019526284064106e-04
      -2.2513828806465705e-03 -7.3612123448977052e-02
      2.7593652300546220e-02 3.3407405187101037e-02
      -4.3982718648146589e-02 -5.0483326845233079e-01
      -2.3674787576856929e-02 -3.4504811128351950e-02
      1.5617622340907987e-02 3.4402758868884648e-01
      4.8528734906682025e-02 3.9251864318392754e-02
      -1.4698527988592933e-01 5.4594565007919711e-02
      5.9407708758205903e-03 -4.4801557735964954e-02
      1.7374450651216489e-01 7.1853860411745574e-02
      -2.8007638393988475e-02 -7.3800062288802981e-02
      -8.0593745891280344e-01 -2.3154913935275356e-02
      -5.6062308301217410e-02 -5.5933023823470773e-01
      1.6499454151153231e-01 -6.5867727629394898e-02
      5.7750988086407024e-03 -5.1420045057038566e-01
      2.9376685042244253e-02 3.7611022309118232e-02
      -3.8696308616452783e-02 4.5715143102818656e-02
      4.0598988597404920e-02 -3.5136358961092427e-02
      -9.0797105066766602e-03 2.5256918745072418e-03
      -1.3651520834418959e-01 4.3493828729459776e-02
      -1.8184562717682007e-01 1.4016638697740943e-02
      4.9973866005121312e-02 -1.0787878892984020e+00
      2.6470376954595276e-01 6.4921307840581366e-02
      -6.6487981377542527e-01 -4.2689951014929162e-01
      -5.4932546209545366e-02 -8.1515244095419687e-02
      1.9272756814951614e-01 5.8434198742634036e-01
      4.4616621542881979e-01 1.0265836037405279e-01
      -6.9840002188037442e-01 1.2320304842982011e-01
      3.6031347254902885e-01 -1.0759881599937747e-01
      -1.7071635162196712e+00 -2.2737662462258227e-02
      -5.1067178860206390e-02 1.6913841568077811e-01
      3.5672491775649851e-01 -6.5931101394747549e-01
      2.6873485932055458e-01 -7.4521030620106943e-01
      -3.4318360050861701e-01 -6.1806935671530977e-02
      -4.3273420465303314e-01 -4.4713459711124601e-02
      8.7572960483989992e-02 1.0509233918873258e-01
      -2.8967859637644794e-01 -4.2844749063900134e-01
      1.5899673960770830e-01 -6.5894514451177588e-01
      -3.3736005882930614e-01 1.3150819615346419e+00
      1.0503482250910066e-01 6.2307446661802220e-02
      -7.3057835277902765e-03 -8.3999975433697055e-02
      -7.8245578929039683e-01 1.1696789405467813e+00
      -1.0151580599106114e-01 3.5725461107450335e-01
      -6.2406515532619922e-01 -2.8666413258768908e+00
      -1.0720575940552403e-01 -6.8021501953153163e-01
      1.5774574754548740e+00 1.1382258684029888e-01
      1.0421524481514168e+00 3.9950652806204112e-01
      -1.4349313818382166e+00 1.0093637519901437e+00
      -3.7741959848616780e-02 4.2385334122440349e-01
      5.6428691686076282e-01 8.1065423771915068e-01
      -1.0865092169905535e-01 -3.9920961158967072e-01
      -1.6747885354920966e+00 -3.9915363991209873e-01
      1.9126927063295541e-02 -2.2947977161592617e-01
      -1.7757044159696311e-01 -5.0972977935629438e-01
      -4.3042740554122932e-01 -4.6018489204493840e-01
      3.9740543361048632e-02 -5.2200251278756238e-01
      -4.1268106887966199e-01 6.4595148182999174e-01
      6.9319397174380326e-01 -3.6989516859531896e-01
      1.6956565533927465e-01 -9.5232980845239490e-01
      -7.0532780825820041e-02 3.4961807534585493e-01
      8.4221506851068406e-01 3.2622912256133452e-01
      -7.3967687236348345e-01 3.8615826163975148e-01
      7.6138980503062642e-02 2.8087720906083047e-01
      -1.1085187421349489e+00 7.0809739881093825e-01
      -1.0999146392886887e+00 -1.8196100856406058e-01
      -2.8610105877943809e-01 -4.3833324152463249e-01
      -1.3724890626762791e+00 -1.5074506109613947e-01
      -4.7919363041265889e-01 -2.6263215079474084e-01
      -7.0592742141312970e-01 8.7597440268725946e-01
      -1.0183607817653559e+00 8.3448464184576454e-01
      -7.4602922199279128e-04 -1.3413395742788226e-01
      -1.0856302526126751e+00 -6.4191788069380390e-02
      -3.0332768498150492e-01 -5.5599031253866671e-01
      4.6464151289761352e-01 3.8668696827364224e-01
      -5.9787700542855982e-01 -6.4749543116112224e-02
      -1.6566142760458267e+00 -2.1523475789278257e-01
      -5.4275311868801379e-01 6.8815990756643941e-01
      -1.1643635966075783e+00 -1.0206493717894400e+00
      6.7233633167465900e-01 -4.6342402412771422e-01
      -1.3685891943031736e+00 1.6035021920607676e-01
      -1.0476368887738547e+00 -2.9162164957975711e-01
      -4.9393232968879602e-01 -3.7025944148385831e-01
      -1.2521515029188363e-01 5.0749841352780334e-01
      -1.7696450223658514e-01 1.7472273743777733e-01
      -1.1061051979032002e-01 -2.1873707415764648e-01
      -7.1893625688743068e-01 -2.9513157714746241e-01
      5.3500578416606059e-01 -1.0853083161596233e-01
      -1.7756690199846248e-01 -3.3543041157279258e-01
      -1.8519327888157563e-01 7.0614111172213589e-01
      -1.5906621514386077e+00 -5.2724756896160774e-01
      1.1150465230988790e-01 -1.0497972682670396e+00
      6.5407647119630874e-01 -6.2677872401547319e-01
      1.3531839480320859e-01 1.2349465743052924e-01
      1.4321867156421347e-01 4.0268367929194127e-01
      -4.7185324642680757e-02 -8.0738228661013808e-02
      2.2992602607130602e-01 4.1244254918926476e-01
      -6.4033855301018650e-01 -3.4749917277785891e-01
      4.8580739884603708e-01 -2.3929387224417920e-01
      -1.1759036193713552e+00 -7.1261028027759563e-02
      6.1244465607523602e-01 -7.3891726031269833e-01
      -1.5862900767666752e-01 -4.6157897143086785e-01
      -8.2779203080428432e-01 2.2433792847008063e-01
      4.4776143515021771e-01 -4.8986727142382969e-01
      -1.0932562983547991e-01 -1.1462510372731795e-01
      -2.7764713429411847e-01 -3.8216468946627202e-01
      3.6965971405291298e-01 -2.5304579930773646e-01
      -3.0610337238261420e-01 3.9715031306074872e-01
      6.7240664449815107e-02 1.1865588601773676e-01
      3.6101981087630003e-01 -7.7110315476244307e-01
      -5.0708377510825853e-01 -2.6460877184054606e-02
      3.0043442809719495e-01 1.3203240851617565e-01
      4.5914852571041476e-01 -7.1778632027086420e-01
      -1.2459584732257710e-01 -6.4113500127636294e-02
      -9.2054695960398014e-01 5.6200268914235282e-02
      -2.4332383224146076e-01 -4.3056348470803696e-01
      -1.8874085173391084e-01 -1.6062586730536208e-02
      1.7504808812632924e-01 -4.3395794322170744e-01
      -7.8270871094425165e-01 -4.3767654891735369e-01
      2.5677176589809950e-02 -2.6266316749878871e-01
      3.8605387225505000e-01 6.2939531390390463e-02
      -7.3931633752625192e-01 -2.2457433174890282e-01
      -6.3949896996171526e-02 3.6888632191992199e-01
      -1.7863640103081840e-01 -3.4167848700836684e-01
      3.2998647792346875e-02 -3.5623967999181699e-01
      -2.2269767722835523e-01 -4.9955111303734229e-01
      5.7412247424514939e-01 9.1375578369699284e-01
      -2.0460391807408063e-01 -7.2558443234005138e-03
      -5.4443985207424599e-02 9.0957444932913933e-01
      -5.7515189759210238e-02 -1.7975907858861273e-01
      1.1430545459418271e+00 -1.0042625562284835e+00
      -1.0814782398764635e+00 -5.0909950807796811e-01
      5.1423196210234534e-01 7.2653961900079245e-01
      3.4348904833519867e-01 -9.3484174957197477e-02
      8.1630418333531085e-01 -5.1945640057170717e-01
      -4.9244157145909029e-01 -1.5092586333241220e-01
      -2.9991026588601322e-01 7.3756433993988166e-02
      -7.8483798318443987e-02 2.8714478637205926e-01
      8.5674442731919043e-01 1.3975947795148214e-01
      -4.4319775813974727e-01 2.9505082876592725e-01
      -4.1435310331657739e-02 -2.5716796901850431e-02
      -1.9907525080660957e-01 2.0827572062352914e-01
      -5.4408195389561187e-01 7.0276186529515094e-01
      5.2520104380035504e-01 -1.9218522085559731e-01
      6.7242026433414717e-02 4.4749704557037040e-01
      -4.2716045539500419e-01 -3.6515468976389288e-03
      -3.1713727292607163e-01 -1.8184910783447930e-02
      2.0092736148605825e-01 -5.4775360687219987e-01
      -3.8062239468638487e-01 -5.0198870361338445e-02
      -6.4172175765334263e-03 5.2046602935587445e-02
      -7.4225540514386068e-01 2.4150294188938978e-01
      -9.9614419510591312e-01 -5.4593348812386633e-01
      1.4357128618549575e+00 -8.1709011923336772e-01
      1.5413078331706453e-01 -7.3063799488228653e-01
      1.5685396691064596e-01 7.5912972088442110e-02
      -6.6129516275728828e-01 -8.4678427303457715e-01
      4.1478757674744260e-01 -1.5493977048021240e-01
      7.2598867806813094e-01 1.1379542267540110e-01
      3.8133902157521005e-01 -7.3390126468643946e-01
      -3.7045681879818770e-01 2.1690145531611679e-01
      -8.7939506820069346e-02 5.3343557355993743e-01
      5.4701776499211152e-01 -3.4924864640247827e-01
      8.1900581420757768e-01 -3.4710037246100478e-01
      -9.5202584956013325e-01 -8.8487691946973437e-02
      -2.6120599091349833e-01 4.8219770549624402e-01
      1.0416545652303233e+00 -3.3960319453419319e-01
      -4.5302635477616238e-01 -3.7440679976384644e-01
      -3.5465297068551538e-01 -7.6174599169099422e-01
      -8.3911946554549066e-01 -2.4803246732492115e-01
      5.0693431186743565e-01 2.6475592518975111e-01
      -8.4169670986809747e-02 7.7976979710779201e-02
      -1.0025774602239300e-01 -2.1846864158650436e-01
      -7.1509649572438916e-01 -1.6428618599217951e-01
      -1.6345682417577412e-01 3.7281766967868640e-02
      7.2356326032542584e-01 8.8675834291214506e-01
      6.5771894948366794e-01 -1.4492128610750041e+00
      5.7129713731552831e-02 -1.3089835984751999e-01
      -1.2480915030646071e-01 1.1728182844383181e+00
      -6.5100021567819655e-01 -3.0841944507813024e-01
      3.8758467452948941e-01 4.5764781825950535e-01
      -4.7026073376484434e-01 6.8232478456666334e-01
      3.0612789349022768e-01 2.1064367471077142e-01
      -3.6687053339253184e-01 -7.7932650471239862e-01
      5.2905529866706857e-01 6.0412979213354889e-01
      -4.5669527174929714e-01 8.8109779031202762e-01
      -3.5878072065091671e-01 4.2309913787715331e-01
      -2.2350482533802990e-01 6.2517926186874906e-01
      4.3327123023729525e-01 -2.8284849313128119e-01
      4.7339506049023022e-01 -1.0532482518098629e+00
      6.1031300936861411e-02 1.1149258397480422e+00
      -1.0708771139060469e-02 3.8715726289780611e-01
      3.0514140221900204e-01 3.5519338574054449e-01
      -8.5973065373519186e-01 5.3128205524726146e-01
      4.8042493933139513e-01 7.5220186478888251e-01
      8.2190609872605597e-02 -4.5939773453166699e-01
      -9.6300969988953100e-01 5.8687338066269912e-01
      4.2146378093102799e-01 -1.7003787492930827e-01
      -8.0801929281448892e-01 2.1969095749855574e-01
      -7.1258498876984860e-03 -1.5569345303503535e-01
      5.6645966758200772e-01 -8.8755073073409152e-01
      4.6910597205881288e-01 -2.8990095356740225e-01
      -7.8860275792541373e-02 1.4736656518972402e-02
      5.0977256851091013e-01 -8.1637304752819695e-01
      2.8637529929903943e-01 9.0053110702690098e-01
      -1.9954944078598852e-01 7.2304451277747539e-01
      6.9071792365712392e-01 -5.1555899025501262e-01
      -7.2071945777069990e-01 3.4358893293264220e-02
      4.9437674645166817e-02 1.3764061611593778e-01
      1.7049067081322877e-01 -4.2261378440344749e-01
      -1.1312896416717057e-01 1.6830177418102141e-01
      9.3566058038931943e-01 8.4048691330755632e-01
      9.0391964042323400e-02 2.7478864829584954e-01
      -1.3095428548465624e-01 4.8594851810290877e-02
      3.3616075584237637e-01 1.2761080653592077e-01
      1.0066793085323662e-01 -1.3160388269677119e+00
      1.1526962374486025e+00 1.3146180853077927e+00
      -5.9677185830046453e-01 -4.8883948038351666e-01
      1.1436882385450044e-01 6.9534239375630413e-01
      3.3631255071331551e-01 -9.8560323426598193e-02
      -2.8735791493691407e-02 9.4430030803517817e-01
      1.5973147253627427e+00 6.2866520665583264e-02
      -8.6311670288646739e-02 -3.1796662098090300e-01
      3.0777546180329918e-01 5.3222921837214687e-01
      8.0945178802347173e-01 -2.3395247437188257e-01
      6.9015911416012335e-02 6.2609530415061704e-02
      -2.4892975944591663e-02 -2.0220695896957191e-01
      -1.4430753846674937e-01 -5.4535580645150195e-01
      2.8805096284334469e-01 3.0364200195273139e-01
      1.3917375421360025e+00 1.2678708620383110e+00
      -7.8153877856649481e-03 1.1412385945058226e-01
      3.7465559507745855e-01 8.9621114914391568e-03
      -5.2365660663481417e-01 -1.2790032295958376e-01
      -6.7421426697737430e-01 -7.1144008308071438e-01
      -9.1568057987326312e-01 2.8656257829303811e-01
      -5.5639264189982451e-01 -1.2606756161793191e-03
      -1.4930688322670854e-01 -5.5638677291472327e-01
      2.0282153373211539e-01 -3.4777918912491768e-02
      -4.4620200312339037e-01 -8.1155389297732150e-01
      -3.9625064145279099e-01 -3.6065220847729340e-01
      6.1415395162752817e-01 -5.4273772194602909e-01
      -1.6588824034700137e-03 -1.2264865553146415e-01
      -9.4302390239404524e-02 7.4296124929313409e-02
      9.4478502867466152e-01 -7.7271871479142817e-01
      -4.9809292449162490e-01 5.7153901309166799e-01
      9.3275372989964148e-02 -9.9684275032820194e-02
      -4.6149357981779621e-01 -2.7495929159512500e-01
      7.4151921836442564e-02 -6.4403634673422072e-01
      -1.0649625042934319e+00 -1.8358267279458462e-01
      -2.9100113704545333e-01 5.7799112228045302e-01
      6.9704292059781803e-01 -1.3915241525144090e-01
      -1.5440679871735192e-02 -1.1882708124261226e-01
      6.7559026941798750e-01 -4.0498645609188338e-01
      6.3822812416156380e-02 -4.4507034483926022e-01
      -4.8816602533763093e-01 -5.0960810582565408e-01
      -2.9879039869824836e-01 2.3854642559667022e-01
      5.1473990986977425e-01 1.8014926193329794e-02
      4.3018941038995873e-01 7.1507294187232451e-01
      -1.0713144415430560e+00 4.9553104167042622e-01
      -1.0689074079641928e-01 6.8565894867024868e-01
      3.6406161109536178e-01 5.3320265066674744e-01
      -6.3421774967920141e-01 2.7313125248183251e-01
      -4.3427620870091430e-02 -8.3538981066307832e-02
      4.1129000815286920e-01 1.0424828823749188e+00
      1.9184312203151810e-01 -4.3442601711260576e-01
      1.4618797802063471e-01 1.4402907000400416e+00
      5.4788712990867794e-01 6.1450379477130418e-02
      9.8928572398981007e-01 -1.7390523087949605e+00
      1.9858091926270345e+00 7.0126239283552971e-01
      1.0421280401032604e+00 2.7046306786976965e-01
      7.4311090794824475e-01 -2.6702354802951905e-01
      -3.5033342825574826e-01 1.0218503462254076e+00
      -2.6786066968436795e-01 -3.5921376350813466e-01
      2.4426213050313267e-01 3.6047813903311438e-02
      -2.1121465539294676e-01 8.2230028356980261e-02
      -1.0504552767065187e+00 8.2322715937275825e-01
      8.2907060848153991e-01 -8.4627401365485161e-02
      -1.2159868371310070e+00 9.5010460561138446e-02
      -2.5141866878058045e-01 -7.6385957793643700e-01
      1.4713287495492327e+00 1.1306570322440075e-01
      2.8169001726978449e-01 4.4511516194616174e-01
      4.3570102331167510e-01 -3.5996358809759860e-01
      6.0777979625412593e-01 -7.2547182688286237e-03
      7.1183313387633818e-01 -1.7453964095986978e+00
      2.2817611845280994e-01 -1.6310304355027352e-01
      4.7574696639713004e-01 -3.7769218427118717e-01
      -1.8584698572452479e-01 3.4977796589849300e-02
      8.4015482881499792e-02 6.0749460958506973e-01
      -5.3038296449649935e-01 -1.2509921024361159e+00
      7.0228435211103968e-01 6.0111350702552857e-02
      1.0076230109393489e+00 -3.3955990358601718e-01
      2.0556455558067684e-02 -5.0204412769370088e-01
      -4.0509019177199629e-01 -5.8763554602142498e-01
      1.1424000073195927e-02 -7.4757402271865003e-01
      -3.1940420065147634e-01 2.2798629332980788e-01
      -2.7717781966516736e-01 -1.4310380559860131e-01
      3.8090741336259354e-01 -5.4792213343263715e-03
      1.1610435407651951e+00 6.5039041476316484e-01
      8.4405617755468704e-02 -5.6928319363416258e-01
      2.6602201425850691e-01 -1.2606750515936787e+00
      7.3582501249683588e-02 4.2717197997227419e-01
      -2.0553742781419437e-01 1.7759190096295299e-02
      8.7134945103707395e-02 -6.0507468982911139e-01
      3.2470800680949591e-01 -6.7105678471411867e-01
      4.3160669388942641e-01 -1.1065294578193117e+00
      5.0989737297800097e-01 -3.9768994713382362e-02
      9.0300661935122956e-02 8.4726255418451724e-01
      1.9696327762768551e-01 -4.7876055140867346e-01
      -1.3245142112498975e-01 3.0208716629926530e-01
      8.9494101009357074e-01 -3.4983510661080564e-01
      -2.4640215473097812e-01 -4.6313083176092895e-01
      5.8063067225988618e-01 -1.2013142708550849e-01
      9.7245330791245616e-02 -1.0087885915221499e+00
      -3.2520229679444806e-01 -4.6462377904461921e-01
      -2.6993813250505794e-01 4.2046542859478414e-01
      -6.0243583283490713e-02 1.8313886551492804e+00
      3.6668860638794570e-02 -3.7708033312083228e-01
      3.1147897383421685e-01 5.6173678982196676e-02
      -5.1365819545439853e-02 -8.3188062017130260e-01
      6.5775545785542711e-01 -9.0011726976277837e-02
      -4.6028274260638175e-01 2.1604097263642614e-02
      -5.2435013854257717e-01 5.7390446151887931e-01
      -2.4420016107896003e-01 -6.6209783289280968e-02
      -4.3634414814936168e-01 -1.4834062751004360e+00
      -7.8702864300684294e-01 -5.2970191440585357e-01
      -3.6276081618858667e-02 -1.2984088473341495e+00
      3.8348795564497395e-01 -8.2625561698239569e-01
      -2.1330502698899764e-01 1.1506242246319992e-01
      3.5384233013890154e-01 1.2174989113073771e+00
      -6.3544455507011890e-02 -2.4856016631354186e-01
      -1.0678646986759631e-01 -5.1239582090953018e-01
      -4.8200436817096920e-01 -5.6719688026915971e-01
      3.9445778034426227e-01 4.4178347134986118e-01
      5.4546832245009624e-01 4.5689691221235496e-01
      4.6777363741534225e-02 -1.3317699893481227e+00
      -1.3559259412303062e-01 2.3768167699392806e-01
      7.8744796431920983e-01 6.9591324772211494e-01
      1.4411679653067055e-01 4.7226600019218756e-01
      -5.0836512838683545e-01 6.5414200637922459e-01
      -6.0859554854561471e-01 -6.4419336049131748e-02
      9.4143331249291662e-01 -3.4488781976037663e-01
      -9.2773522440856993e-01 1.4630331260649457e-01
      -2.8627682502754720e-01 9.6894877882834785e-01
      7.4117636362378747e-01 -4.2654386230807406e-01
      6.2682202291014413e-02 -2.3639982920492095e-01
      9.3635685668479063e-01 7.2209715277775632e-01
      5.0753585480768793e-01 -1.7793613178176393e-01
      3.4753167789101602e-01 1.5644595464040498e-01
      6.3300716438661631e-01 2.0133731626455126e-01
      3.7667091988076745e-01 -2.6908063345842254e-01
      4.4318318626613215e-02 -2.1458716614078321e-01
      -1.7276782015069005e+00 -1.9785052622606786e-01
      3.2531431902405643e-02 5.1237417458482681e-01
      4.0140040887538719e-01 -4.1860689661762884e-01
      -3.4685699738962777e-01 -6.6595836500205563e-01
      -1.1104745013945716e+00 1.2771948286536858e-01
      1.2074369391772886e+00 4.7314514571596572e-01
      1.7668353225254033e-01 1.8587299500883769e-01
      -1.0590820160914298e-01 -6.1400852405940010e-01
      4.6403039542991459e-01 -1.0995575590556651e-01
      5.7014667504732341e-01 -2.6930054562086753e-01
      1.6150971875924312e-02 3.5702811554386660e-01
      7.3023213990718205e-02 -8.0138504678679515e-02
      -6.4674952056934673e-02 9.3131414234872423e-02
      1.6793494201161538e-01 5.1805999971790540e-01
      3.7964160445755468e-01 1.8513356103715951e-02
      -9.1039059556829657e-02 -1.1563733142223208e-01
      4.9923693525774138e-02 -9.3894552718440841e-02
      1.2930803070261399e-01 1.3972684256821985e-01
      -9.8457109103400040e-02 1.9375255956937931e-01
      -2.0109547300449733e-02 -1.4312366831413520e-01
      -1.7619354066189013e-02 3.7355648721049850e-02
      -8.1366340209114749e-02 1.5357608050267160e-01
      -5.2271195663717206e-02 -1.4003974883934661e-01
      -1.9164258377560950e-01 1.5777370111053962e-01
      1.9823976128139359e-01 -4.3165293526478320e-02
      -2.6454488374790219e-01 -4.9127186997353833e-01
      1.1734288629090532e-01 1.2327107920726975e-01
      -1.3018158857993328e-01 9.3299930051496546e-02
      1.5572310315070689e-01 -4.7105738712332235e-01
      -2.8456108288381066e-02 7.3478803496079964e-02
      6.1876346259088872e-03 1.4782283464929549e-01
      1.6147075852361761e-01 -1.3186859142953375e-01
      9.8107204792508679e-04 -3.4995414606945438e-03
      3.8734339904084080e-03 -1.4918879822942426e-03
      -3.5981068648137725e-03 1.0930633963702181e-03
      -1.8631457864005778e-03 -4.4915202858771775e-03
      3.9517347659716985e-03 1.3078425020027079e-03
      -3.1119380549924176e-03 -5.4499565266311544e-04
      -3.6477638289431815e-03 4.4871992437750367e-04
      -3.9382666630919270e-03 4.1536212465263338e-03
      -2.0557155528610942e-03 -3.7415842905395608e-03
      -1.0749446184655906e-03 -1.6204619771197683e-03
      -3.7547930431761599e-03 -2.7009816575945984e-03
      -3.6674030477933293e-03 -3.3151482891139008e-03
      -4.7724373157899175e-04 4.0595669614371744e-03
      -4.2053919045670117e-03 4.1708744349329792e-03
      3.6217327803037484e-05 3.1657007799340470e-05
      -1.9642101530742534e-03 -2.0690587169127621e-03
      1.0501708621656648e-03 -1.0350659218601958e-03
      -1.5021801429785822e-03 -1.2579833485594804e-03
      -3.3521477460195827e-03 3.9855353941341820e-03
      6.7247601590263867e-04 -4.0558405558528731e-03
      4.9119900144257121e-03 -7.4053292811304933e-02
      2.4662003972895110e-02 3.1977130309365311e-02
      -4.6459256342647658e-02 -5.0523305247022365e-01
      -2.1312347680667979e-02 -2.9696728812493328e-02
      1.2248514181388269e-02 3.4447160762124479e-01
      4.3440546597544705e-02 4.2641106672459558e-02
      -1.4459827216053653e-01 4.9254344555509956e-02
      1.3043403943221366e-02 -4.4678212344353881e-02
      1.6845694946836415e-01 7.3111948673347027e-02
      -1.9148154895054732e-02 -7.3898004503536507e-02
      -8.0493305721101871e-01 -2.2825414204377809e-02
      -5.3720030990586733e-02 -5.6203789740686638e-01
      1.6092064068732209e-01 -6.8685732444594347e-02
      9.6761178439509973e-03 -5.1402515959681661e-01
      3.5183083535326592e-02 3.2362162973979737e-02
      -3.5196324049326648e-02 4.6065746843020866e-02
      3.8022996626542252e-02 -3.6925968983245593e-02
      -8.2200253253515744e-03 2.4630031132982554e-03
      -1.3883617906503851e-01 4.3420175591313510e-02
      -1.8357373991254028e-01 1.3814411545545375e-02
      -4.7496268245424772e-01 -1.5056555629426699e-01
      -4.0971190697837606e-01 3.2606474315115597e-01
      5.3158461376552744e-02 -1.1203376021734865e-01
      -5.9609376285855088e-02 -7.4285769434391316e-02
      -9.1652778721713776e-02 6.3885751009544700e-01
      2.1615507438565804e-01 7.6852860275784460e-02
      -1.2445910419721538e-01 1.0345201147564358e-01
      4.4852225584851591e-01 -9.9241985990057305e-02
      -4.8033530980271683e-01 -3.0607905895341157e-02
      -5.8523290944020256e-02 -1.6307928537379718e-01
      2.9357050571308524e-01 -2.8878317314577756e-01
      -5.6773574425402644e-02 -3.6285616436187434e-01
      -9.0243544782081409e-01 3.6145341971340850e-01
      -1.0998381343788849e-01 2.2281689995448221e-02
      8.0729874027451645e-02 8.5229014784798746e-02
      -1.2099630240492928e-01 3.7232022357692107e-01
      1.1141546889043970e-01 1.7467180109709554e-01
      -1.6770735852487834e-01 4.4665612840409885e-01
      -2.3679553570663456e-02 6.6797766160610381e-02
      8.5744378851067837e-01 -9.5838893175967457e-02
      -1.0284908559023711e+00 -5.2334224967191090e-01
      -3.7231735167595359e-01 1.3477098295768461e-01
      -3.3375365408301322e-01 7.9680188195945323e-01
      -1.4252326787123051e-01 -5.3581356454971552e-01
      1.3003910515055608e-01 2.6824949822958305e-01
      8.3590433531640440e-01 -2.7265359624319452e-01
      4.1147689324080716e-01 8.5567390300644877e-02
      9.2245232148349932e-01 -2.3960246432498142e-01
      3.3627087914701304e-01 3.2848283512696735e-01
      3.4341981818975875e-01 -5.7652403838312945e-03
      -2.3570260525808412e-01 5.7505474794587758e-02
      5.4575186382129148e-01 -3.6716121190009460e-01
      5.4025532240519047e-01 3.7790518544650137e-01
      -3.8870830501640269e-01 4.4464731814632175e-02
      3.3885294220014300e-01 9.2586334876686396e-02
      5.3220013143096889e-01 -1.0096296232296670e-01
      -2.7485244338077147e-01 -2.0064456881997386e-02
      -5.1620133701993276e-01 -3.4487674956715914e-01
      2.0716020797563645e-01 3.9482898033425173e-01
      -7.3931170549149314e-02 1.5568812499273332e-01
      5.6354624192218108e-02 -2.7885455339900340e-02
      -1.0869646990851487e+00 -6.2694387822567177e-01
      1.0085638839841558e-01 3.2783394209408213e-02
      4.1818587668407908e-01 -7.5904321028577892e-01
      -1.4410880973493603e+00 1.3299280412074554e-01
      6.6852649034554756e-01 -1.6374085551997635e-02
      -2.4145354262339466e-01 -1.0805803410073237e-02
      -4.4567232402989326e-01 2.4351527521525845e-01
      -1.1196494703080422e+00 7.5978417244236141e-01
      1.5694422293139072e-02 -3.3689552739772105e-01
      1.7931618415147663e-01 7.6621972025544072e-01
      9.9181516976669284e-02 2.8557800261451094e-01
      -3.7831700704766109e-02 7.0145500528209437e-01
      3.7458886339049463e-01 -4.0288641109034923e-01
      6.6591683367983892e-02 2.9503214466221866e-01
      -8.4622307293885785e-02 -4.0190375901313008e-01
      8.9769512767641724e-01 1.2281596055303559e-01
      -1.5067732068193633e+00 -1.3907429244879607e-01
      -3.2052916625774236e-01 2.3391778582577191e-01
      -3.3270213880377364e-01 2.7286351421173505e-01
      1.1769335230496589e+00 -5.9561336717003488e-01
      -8.8853964353508263e-01 6.0180686376613307e-02
      -3.5356190505034130e-01 -3.0668448039621743e-01
      -5.3111755648202730e-01 -4.9933434773723717e-01
      -7.2020700065066290e-01 -3.3484526234246043e-01
      -4.4344595061431474e-01 -6.3988136083330305e-01
      2.9433333686041990e-01 -1.8297855895616302e-01
      1.0303029169429871e+00 -3.3444947013896620e-01
      6.7181499593949168e-01 2.9246990938234735e-01
      -9.8809288542838908e-02 -3.8768512573646263e-01
      1.1785262327640986e+00 8.4598102639252082e-01
      1.7792914596153706e-01 -6.3312632081894815e-01
      -3.5887505951352511e-01 -3.0058153889960970e-01
      -8.0062669842922241e-01 -7.8190823161030609e-01
      -4.7565116044208898e-02 -1.4585413826574004e-01
      -1.2626941921698160e-02 -1.6199493475245380e-02
      -2.9038691703468172e-01 1.4618606247721191e+00
      9.1015211125236495e-01 9.0702828934804336e-01
      2.3962877862642948e-01 -1.2554358579676073e-01
      -1.0320271170943685e+00 7.8171078736911065e-02
      -1.0440688382863196e-01 7.4838159636998591e-01
      -3.3448653518082333e-01 1.5768131506194838e-01
      -3.0650516840661474e-01 4.4602894134501697e-01
      8.0827613670760315e-02 5.7923478221330893e-01
      -6.6038574391472993e-01 -9.5852008702842786e-02
      3.5105399157341033e-01 1.6371307382233607e-01
      4.4042749520211135e-03 -1.0329148998853367e-01
      -2.5356385339388948e-01 -1.3855269879209006e-01
      -8.0534899258316095e-01 -6.7309300129538807e-01
      4.2578567349474095e-01 -1.4827299726902887e-01
      5.5942796911864434e-01 7.3322318479556381e-01
      -2.9652061739258923e-01 -2.9080744660974633e-01
      -4.1088545441493673e-01 -2.3293700437043180e-01
      -9.2783893487304170e-01 -2.3552266435427341e-01
      -2.7974799531817091e-01 -6.3856163745057481e-01
      1.5929815036702985e-01 3.4722989140573396e-01
      9.8766236520698758e-01 1.9123613898588665e-01
      -5.4829156000503687e-01 2.4757402390331132e-01
      -1.2400832320213224e+00 -1.2970919157141383e-01
      6.2333826935915304e-01 3.1179517276779894e-01
      -1.9381151184280915e-01 -5.9594532874051231e-01
      6.4174958873358934e-01 -1.6390305365132740e-01
      1.3551838342730291e-01 -3.0115996733313039e-01
      6.2249943824349729e-01 3.6076369985666190e-01
      9.4081829605240461e-02 -8.6719911247227915e-02
      4.9945700801036708e-01 -1.2232037830566784e+00
      1.0874750859003166e+00 -2.9210991823676641e-01
      1.7732144820096041e-01 8.5296360332921273e-01
      2.7413156570161684e-01 -7.1505425773269815e-01
      7.6218709572302978e-03 2.7268179117433877e-01
      8.7181317452495977e-01 -4.6481778261786455e-01
      9.6943970829101045e-01 2.7415464069508161e-01
      1.4813496060743847e-01 2.0960544723201108e-02
      6.0239422551382416e-01 -2.9704226913300663e-01
      -2.7667416671086753e-01 5.3808620382513306e-01
      6.7970900877547591e-01 -2.1673881073347750e-01
      -3.0509563730944500e-01 3.3158981801185525e-02
      6.9083778033421839e-01 1.1783279686544348e-02
      -6.1211313496807840e-01 1.6000317614968085e-01
      6.4435457982176161e-02 -1.2963816903999048e-01
      2.4111021200923968e-01 7.8167706561047678e-01
      6.0301667715284286e-02 2.5263598156085587e-01
      5.7201608550083494e-01 -1.6878556142358306e-01
      -7.0531361664355419e-01 1.0296197240396761e+00
      -8.2547697882391347e-01 2.1077159684924676e-01
      -5.9639516659843184e-01 1.0457986268988120e+00
      -4.2546027002684922e-01 8.4607229474707013e-01
      1.1555783200737325e-01 -4.8511786892040713e-02
      6.4620302080883574e-01 8.6813661560423960e-01
      -1.6063515787994836e-01 8.3745423474575020e-01
      -1.0936137324066024e+00 3.6631073941966524e-01
      1.9834019230105918e-01 3.7859409696433871e-01
      2.8687313314461588e-01 7.3440145065531925e-01
      5.3445211908120094e-01 -3.6275253021314229e-02
      9.0084481848464903e-02 3.5349231315579438e-01
      3.3063230757321976e-01 -4.6070736113223931e-01
      -6.4383205424906276e-01 -8.5756715552067453e-01
      -3.7235984316553228e-01 -1.3443289537108738e+00
      8.6945278944126148e-01 -5.0774138681456238e-01
      7.0351833947959086e-01 -7.4329121875999271e-01
      1.0004578014305781e+00 2.3620865419978876e-01
      3.6256530954005362e-01 -1.6146295470683736e-01
      -8.6656950779877318e-01 8.3196879641328925e-01
      -3.0176240624578453e-03 -1.2332242370959619e+00
      -1.6919687113804989e-02 5.9873406410355245e-01
      -3.9141817351582908e-01 4.4974678991160233e-01
      -3.2955787167050954e-01 -1.4959165461324127e+00
      -1.9318484647239759e-01 5.1011471970217126e-01
      -3.7341087319341165e-01 -2.5624079167688651e-01
      -1.0461196150454319e+00 6.7615283105268598e-01
      -7.7664765204957742e-01 7.5376020356602860e-02
      6.9109502419331281e-02 8.3947658338109646e-02
      9.9355965824198211e-01 -3.4169669306658157e-01
      2.8852419366296356e-01 1.1579717138764659e-01
      -3.5586656665106331e-01 -7.1907348905287369e-02
      2.4565984403609337e-01 -6.5219733276469927e-01
      1.8360046718959994e-01 -2.2391668744844909e-01
      -7.6674917582437307e-01 -1.3752280455156098e+00
      7.7767011984331513e-01 2.2055832527264568e-01
      3.7955918176291265e-01 -1.4571959659241432e-01
      1.9897735415958318e+00 6.4281872062894618e-01
      -2.8632746496420797e-01 -1.3320403804733421e+00
      2.7511448477528377e-01 7.8771554991215642e-01
      2.1290208487799039e-01 4.6612019092538426e-01
      -6.1984939544706341e-01 -1.2729765916995783e-01
      -8.5080736066900142e-01 1.3062970573594097e+00
      4.3182612732779714e-02 1.1978013035934756e+00
      -5.2753574452009211e-01 -2.5023390796407356e-02
      5.1062387602264347e-01 -7.9355665305810796e-01
      1.7736224635121534e-01 2.4141697992991207e-01
      1.3291202171939817e-01 -1.1387102597643373e+00
      -8.8212655648835891e-01 4.5615950923599435e-01
      -8.8799619884226211e-01 -3.2622307918844518e-01
      1.3008897151159680e+00 -2.9925630978846551e-01
      -5.0446029810407400e-01 -3.0774918584940511e-02
      8.5745396170372912e-01 4.0401777087339868e-01
      -4.8042191711603194e-01 -8.6776024024257259e-01
      -4.2205062127454973e-01 -6.9073547287149528e-01
      1.1020552328075137e+00 1.2256495701963155e-01
      3.6043189968878689e-02 -4.3711777755892745e-01
      -6.0014784756583517e-01 -6.7858409042804560e-02
      7.3512974547960042e-01 -4.0956903762963764e-01
      7.4187296720516299e-02 4.7349694863033108e-02
      -2.9194132646170552e-02 -5.1092852275009759e-01
      1.5208829394009651e-01 -6.5498665024971736e-01
      4.3677868378555657e-01 1.2917996663116618e-01
      -1.3639760957484988e+00 -9.0046190374625390e-01
      8.5346417392886909e-01 4.2886911604424577e-01
      1.3053673791146697e-01 -3.9717711372894715e-01
      -1.0301822139406264e-01 -9.9671783136187700e-02
      -2.9237104249819251e-01 -4.0966176407600891e-01
      1.6964698304911957e-02 2.0081792261775311e-01
      5.4942737673590064e-02 2.2772058067428541e-01
      -2.0536837164043648e-01 1.0106081743598925e+00
      3.8703454249224578e-01 2.2219394339243370e-01
      6.8719925142018179e-01 7.9863496092256026e-01
      2.6361853321635407e-02 -2.5925994548210535e-01
      -5.9763200023137375e-01 -2.4184699416440114e-01
      3.1425477872242435e-01 -1.2599961250543815e-01
      1.2247162782161030e+00 2.6654900743984400e-01
      -3.1638561528655201e-01 2.8289128854882584e-01
      6.2838179461720634e-01 5.5620344476573647e-01
      -1.6293514558356667e-01 -8.4854177467119984e-01
      -1.4449559542322155e-01 -1.6534639696805171e+00
