<?xml version="1.0"?>
<opencv_storage>
<opencv_ml_svm>
  <format>3</format>
  <svmType>C_SVC</svmType>
  <kernel>
    <type>RBF</type>
    <gamma>3.3750000000000002e-02</gamma></kernel>
  <C>6.2500000000000000e+01</C>
  <term_criteria><iterations>20000</iterations></term_criteria>
  <var_count>352</var_count>
  <class_count>2</class_count>
  <class_labels type_id="opencv-matrix">
    <rows>2</rows>
    <cols>1</cols>
    <dt>i</dt>
    <data>
      0 1</data></class_labels>
  <sv_total>518</sv_total>
  <support_vectors>
    <_>
      0. 0. 0. 0. 0. 0. 0. 6.89655170e-02 6.89655185e-01 3.44827585e-02
      3.44827585e-02 3.44827585e-02 2.06896544e-01 3.44827592e-01
      4.13793087e-01 4.13793087e-01 5.51724136e-01 3.79310340e-01
      2.75862068e-01 5.86206913e-01 6.55172408e-01 3.10344815e-01
      2.06896544e-01 1.03448272e-01 0. 0. 0. 6.89655170e-02
      2.41379306e-01 3.79310340e-01 4.48275864e-01 5.51724136e-01
      4.13793087e-01 4.13793087e-01 4.82758611e-01 5.51724136e-01
      4.48275864e-01 3.44827592e-01 1.72413796e-01 0. 0. 0. 0. 0. 0. 0.
      0. 0. 0. 5.17241359e-01 6.55172408e-01 7.24137902e-01
      2.41379306e-01 2.06896544e-01 1.72413796e-01 2.06896544e-01
      2.41379306e-01 2.06896544e-01 3.79310340e-01 3.79310340e-01
      3.10344815e-01 6.89655170e-02 0. 0. 0. 7.93103456e-01
      7.93103456e-01 7.24137902e-01 2.06896544e-01 1.72413796e-01
      2.06896544e-01 2.75862068e-01 4.13793087e-01 4.82758611e-01
      6.20689631e-01 4.48275864e-01 2.75862068e-01 0. 0. 0. 0.
      4.82758611e-01 5.86206913e-01 5.51724136e-01 3.10344815e-01
      3.10344815e-01 2.41379306e-01 2.75862068e-01 2.75862068e-01
      3.44827592e-01 5.51724136e-01 4.82758611e-01 3.44827592e-01 0. 0.
      0. 0. 2.75862068e-01 3.44827592e-01 2.41379306e-01 2.75862068e-01
      3.10344815e-01 3.44827592e-01 3.79310340e-01 5.17241359e-01
      5.17241359e-01 6.20689631e-01 5.17241359e-01 3.10344815e-01 0. 0.
      0. 5.51724136e-01 6.55172408e-01 7.24137902e-01 2.41379306e-01
      2.75862068e-01 1.72413796e-01 2.06896544e-01 2.41379306e-01
      2.41379306e-01 3.44827592e-01 6.89655185e-01 6.20689631e-01
      1.03448272e-01 3.44827585e-02 0. 1. 1.72413796e-01 0. 0. 0. 0. 0.
      0. 0. 0. 0. 1.47058830e-01 4.41176482e-02 5.88235296e-02
      1.47058824e-02 0. 1.91176474e-01 8.23529422e-01 1. 8.67647052e-01
      5.73529422e-01 4.70588237e-01 4.41176474e-01 4.41176474e-01
      5.29411793e-01 6.76470578e-01 6.91176474e-01 6.02941155e-01
      6.02941155e-01 5.73529422e-01 5.58823526e-01 5.44117630e-01
      5.44117630e-01 5.88235319e-01 6.61764681e-01 6.61764681e-01
      6.91176474e-01 8.67647052e-01 7.35294104e-01 3.82352948e-01
      1.47058824e-02 1.47058824e-02 1.47058824e-02 0. 0. 2.63157904e-01
      0. 0. 0. 0. 0. 9.21052620e-02 0. 0. 0. 0. 2.63157897e-02 0.
      1.18421055e-01 0. 0. 0. 0. 0. 5.26315793e-02 1.57894731e-01
      7.89473653e-02 0. 0. 1.57894731e-01 6.57894760e-02 0. 0. 0. 0.
      3.02631587e-01 0. 0. 0. 0. 1.31578952e-01 1.44736841e-01 0.
      1.31578948e-02 0. 3.94736826e-02 0. 4.07894731e-01 2.36842111e-01
      0. 1.31578948e-02 0. 0. 2.63157897e-02 0. 2.50000000e-01
      1.57894731e-01 1.31578948e-02 0. 0. 2.10526317e-01 9.21052620e-02
      3.94736826e-02 5.26315793e-02 1.31578948e-02 2.89473683e-01
      1.31578948e-02 7.89473653e-02 1.71052635e-01 3.94736826e-02
      1.31578952e-01 4.60526317e-01 1.31578952e-01 9.21052620e-02
      2.36842111e-01 2.63157904e-01 6.57894760e-02 1.05263159e-01
      1.18421055e-01 3.28947365e-01 3.81578952e-01 1.05263159e-01
      3.94736826e-02 0. 1.97368428e-01 8.55263174e-01 3.94736826e-02 0.
      4.07894731e-01 3.42105269e-01 1.71052635e-01 1.31578948e-02
      7.23684192e-01 7.89473653e-02 2.63157897e-02 1. 0. 1.84210524e-01
      3.68421048e-01 1.31578948e-02 8.15789461e-01 4.60526317e-01 0.
      7.50000000e-01 5.26315793e-02 0. 1. 0. 8.81578982e-01
      4.60526317e-01 1.44736841e-01 5.00000000e-01 1.05263159e-01
      3.94736826e-02 4.07894731e-01 3.42105269e-01 6.44736826e-01
      7.89473653e-02 1.97368428e-01 2.50000000e-01 2.63157904e-01
      1.44736841e-01 0. 1.31578948e-02 0. 6.97368443e-01 0.
      2.63157897e-02 0. 1.44736841e-01 3.28947365e-01 2.76315778e-01 0.
      3.94736826e-02 3.94736826e-02 3.94736826e-02 0. 3.28947365e-01
      1.57894731e-01 0. 2.63157897e-02 0. 0. 2.63157897e-02 0.
      4.21052635e-01 9.21052620e-02 1.31578948e-02 0. 0. 6.57894760e-02
      2.63157897e-02 1.31578948e-02 0. 0. 3.94736826e-02 0. 0. 0. 0. 0.
      2.63157904e-01 0. 2.63157897e-02 0. 1.05263159e-01 0. 0.
      6.57894760e-02 3.94736826e-02 1.71052635e-01 0. 0. 0.
      2.63157897e-02 3.94736826e-02 0. 0. 5.26315793e-02 0. 0. 0.
      1.31578948e-02 0. 0.</_>
    <_>
      4.19354826e-01 4.51612890e-01 7.41935492e-01 9.03225780e-01
      9.35483813e-01 7.74193525e-01 7.09677398e-01 7.09677398e-01
      9.67741907e-01 8.70967746e-01 8.38709652e-01 6.12903237e-01
      3.54838699e-01 2.90322572e-01 2.58064508e-01 2.58064508e-01
      4.19354826e-01 8.06451559e-01 9.67741907e-01 9.35483813e-01
      9.35483813e-01 7.41935492e-01 4.83870953e-01 4.51612890e-01
      4.51612890e-01 4.51612890e-01 4.51612890e-01 4.51612890e-01
      4.19354826e-01 3.54838699e-01 2.90322572e-01 2.90322572e-01
      2.25806445e-01 2.25806445e-01 2.58064508e-01 2.58064508e-01
      2.58064508e-01 2.58064508e-01 2.58064508e-01 2.25806445e-01
      2.25806445e-01 2.25806445e-01 3.87096763e-01 5.48387051e-01
      5.80645144e-01 6.77419305e-01 5.48387051e-01 5.16129017e-01
      6.45161271e-01 6.77419305e-01 7.09677398e-01 8.06451559e-01
      7.74193525e-01 8.06451559e-01 7.41935492e-01 7.09677398e-01
      5.48387051e-01 2.58064508e-01 2.58064508e-01 2.58064508e-01
      3.22580636e-01 3.54838699e-01 3.87096763e-01 4.19354826e-01
      4.19354826e-01 4.19354826e-01 4.51612890e-01 7.09677398e-01
      8.70967746e-01 1. 9.67741907e-01 8.38709652e-01 6.12903237e-01
      5.48387051e-01 4.51612890e-01 2.90322572e-01 2.90322572e-01
      2.90322572e-01 2.58064508e-01 4.19354826e-01 6.77419305e-01
      7.41935492e-01 8.06451559e-01 8.38709652e-01 7.41935492e-01
      7.74193525e-01 7.41935492e-01 6.77419305e-01 6.77419305e-01
      5.80645144e-01 6.45161271e-01 6.45161271e-01 5.80645144e-01
      5.16129017e-01 2.90322572e-01 2.58064508e-01 2.25806445e-01
      3.54838699e-01 6.12903237e-01 7.41935492e-01 8.06451559e-01
      8.06451559e-01 6.45161271e-01 6.12903237e-01 7.41935492e-01
      6.77419305e-01 7.09677398e-01 8.06451559e-01 9.67741907e-01
      9.67741907e-01 8.70967746e-01 6.12903237e-01 5.16129017e-01
      3.54838699e-01 3.54838699e-01 5.16129017e-01 6.12903237e-01
      7.09677398e-01 7.74193525e-01 8.06451559e-01 8.06451559e-01
      8.70967746e-01 8.70967746e-01 8.06451559e-01 8.06451559e-01
      8.38709652e-01 7.74193525e-01 7.74193525e-01 7.09677398e-01
      7.74193525e-01 7.74193525e-01 7.41935492e-01 7.74193525e-01
      5.48387051e-01 2.25806445e-01 9.67741907e-02 3.95522386e-01
      5.44776082e-01 6.79104447e-01 8.88059676e-01 1. 9.92537320e-01
      9.92537320e-01 8.88059676e-01 7.46268630e-01 6.41791046e-01
      3.73134315e-01 3.73134315e-01 4.32835817e-01 4.62686568e-01
      4.32835817e-01 4.77611929e-01 5.07462680e-01 4.02985066e-01
      3.58208954e-01 3.95522386e-01 3.80596995e-01 3.88059705e-01
      3.88059705e-01 3.88059705e-01 4.55223858e-01 4.55223858e-01
      4.10447747e-01 3.65671635e-01 3.65671635e-01 3.58208954e-01
      4.02985066e-01 4.47761178e-01 4.25373137e-01 3.80596995e-01
      4.10447747e-01 3.58208954e-01 9.71291840e-01 0. 0. 0. 0. 0.
      2.05741614e-01 4.78468882e-03 3.82775106e-02 1.91387553e-02
      1.43540669e-02 1.57894731e-01 1.43540669e-02 3.97129178e-01
      7.65550211e-02 2.39234436e-02 1.91387549e-01 2.87081338e-02
      2.87081338e-02 2.34449759e-01 6.12440169e-01 2.20095679e-01
      5.26315756e-02 1.19617224e-01 7.99043059e-01 3.49282295e-01
      3.34928222e-02 0. 0. 0. 9.99999940e-01 0. 0. 0. 4.30621989e-02
      1.10047840e-01 2.58373201e-01 0. 0. 0. 0. 0. 2.39234436e-02
      4.78468882e-03 0. 0. 0. 0. 0. 0. 7.17703328e-02 0. 0. 0. 0. 0. 0.
      0. 0. 0. 0. 0. 0. 0. 0. 0. 4.78468882e-03 0. 0. 0. 0. 0. 0. 0. 0.
      2.77511954e-01 0. 0. 0. 0. 4.78468882e-03 0. 0. 2.39234436e-02 0.
      0. 0. 0. 0. 0. 9.56937764e-03 0. 0. 0. 0. 0. 8.61243978e-02 0. 0.
      0. 0. 0. 0. 3.34928222e-02 0. 0. 0. 0. 0. 0. 2.63157874e-01 0. 0.
      0. 2.39234436e-02 0. 0. 0. 0. 0. 3.11004788e-01 0. 0. 0. 0.
      1.43540669e-02 1.14832535e-01 0. 0. 0. 0. 0. 4.78468882e-03 0. 0.
      0. 0. 0. 0. 0. 1.10047840e-01 0. 0. 0. 0. 4.78468882e-03 0. 0. 0.
      0. 0. 0. 0. 0. 0. 0. 3.82775106e-02 0. 0. 0. 0. 0. 0. 0. 0.
      3.11004788e-01 0. 0. 0. 0. 5.74162677e-02 0. 0. 1.14832535e-01 0.
      0. 0. 9.56937764e-03 0. 0.</_>
    <_>
      9.37500000e-01 9.68750000e-01 9.68750000e-01 9.68750000e-01 1. 1.
      9.68750000e-01 1. 1. 1. 1. 1. 1. 1. 1. 1. 1.25000000e-01
      3.12500000e-02 3.12500000e-02 3.12500000e-02 6.56250000e-01
      7.18750000e-01 6.25000000e-02 6.25000000e-02 6.25000000e-02
      1.25000000e-01 1.56250000e-01 1.87500000e-01 2.50000000e-01
      6.25000000e-02 6.25000000e-02 1.25000000e-01 1.87500000e-01
      2.18750000e-01 1.25000000e-01 3.12500000e-02 6.25000000e-02
      6.25000000e-02 5.93750000e-01 6.56250000e-01 4.37500000e-01
      1.56250000e-01 1.56250000e-01 1.56250000e-01 1.56250000e-01
      1.56250000e-01 2.18750000e-01 1.56250000e-01 9.37500000e-02
      3.12500000e-02 3.12500000e-02 3.12500000e-02 3.12500000e-02
      3.12500000e-02 3.12500000e-02 3.12500000e-02 3.12500000e-02
      3.12500000e-02 3.12500000e-02 5.93750000e-01 5.93750000e-01
      1.56250000e-01 1.56250000e-01 1.87500000e-01 1.87500000e-01
      1.56250000e-01 1.87500000e-01 3.43750000e-01 6.25000000e-01
      5.62500000e-01 3.12500000e-02 3.12500000e-02 3.12500000e-02
      4.37500000e-01 5.00000000e-01 2.50000000e-01 1.56250000e-01
      1.56250000e-01 2.18750000e-01 2.18750000e-01 2.18750000e-01
      2.18750000e-01 4.06250000e-01 3.75000000e-01 3.12500000e-02
      3.12500000e-02 3.12500000e-02 3.12500000e-02 1.87500000e-01
      2.18750000e-01 9.37500000e-02 1.56250000e-01 2.50000000e-01
      2.50000000e-01 2.81250000e-01 3.12500000e-01 4.06250000e-01
      2.81250000e-01 6.25000000e-02 3.12500000e-02 3.12500000e-02
      3.12500000e-02 6.25000000e-02 1.87500000e-01 2.50000000e-01
      2.18750000e-01 2.18750000e-01 2.50000000e-01 2.18750000e-01
      2.18750000e-01 2.50000000e-01 3.12500000e-01 1.87500000e-01 0. 0.
      0. 0. 3.75000000e-01 4.37500000e-01 1.87500000e-01 1.56250000e-01
      1.56250000e-01 1.25000000e-01 1.25000000e-01 1.87500000e-01
      3.43750000e-01 3.12500000e-01 3.12500000e-02 0. 0. 3.75000000e-01
      5.93750000e-01 0. 0. 6.25000000e-02 4.68750000e-01 1.
      1.04166672e-01 1.97916672e-01 1.87500000e-01 1.87500000e-01
      1.77083343e-01 2.50000000e-01 2.18750000e-01 2.08333343e-01
      1.97916672e-01 1.97916672e-01 5.83333373e-01 6.66666687e-01
      4.58333343e-01 4.27083343e-01 4.06250000e-01 4.37500000e-01
      4.47916687e-01 4.68750000e-01 6.35416687e-01 6.14583373e-01
      4.37500000e-01 3.95833343e-01 4.37500000e-01 4.27083343e-01
      4.89583343e-01 5.00000000e-01 5.00000000e-01 6.45833373e-01
      4.37500000e-01 1.66666672e-01 1.77083343e-01 1.04166672e-01
      5.20833358e-02 0. 0. 0. 0. 0. 0. 0. 0. 0. 0. 0. 0. 0. 0. 0. 0. 0.
      0. 0. 0. 0. 0. 7.81250000e-03 0. 0. 0. 0. 0. 0. 0. 0. 0.
      1.17187500e-02 0. 0. 0. 0. 0. 0. 0. 0. 0. 0. 0. 0. 0. 0. 0. 0. 0.
      0. 0. 2.34375000e-02 0. 0. 0. 0. 0. 0. 0. 0. 0. 0. 0. 0. 0. 0. 0.
      1.17187500e-02 0. 0. 3.90625000e-03 3.12500000e-02 0. 0.
      3.90625000e-03 3.90625000e-02 8.98437500e-02 1.56250000e-02 0. 0.
      2.34375000e-02 1.48437500e-01 0. 0. 1.05468750e-01 7.81250000e-03
      2.73437500e-02 0. 6.25000000e-02 3.90625000e-03 0. 1.36718750e-01
      0. 0. 7.81250000e-03 0. 3.12500000e-02 2.61718750e-01 0.
      3.12500000e-02 0. 0. 8.98437500e-02 1.56250000e-02 2.81250000e-01
      7.81250000e-02 3.51562500e-02 3.04687500e-01 5.46875000e-02
      8.20312500e-02 3.47656250e-01 4.06250000e-01 6.44531250e-01
      7.57812500e-01 1.83593750e-01 1. 2.07031250e-01 5.15625000e-01
      1.52343750e-01 3.90625000e-02 2.34375000e-02 1.13281250e-01 0.
      2.34375000e-02 0. 3.90625000e-03 3.90625000e-03 1.95312500e-02 0.
      0. 0. 0. 0. 0. 0. 0. 0. 0. 0. 0. 0. 0. 0. 0. 0. 0. 0. 0. 0. 0. 0.
      0. 0. 0. 0. 0. 0. 0. 0. 0. 0. 0. 0. 0. 0. 0. 0. 0. 0. 0. 0. 0. 0.
      0. 0. 0. 0. 0. 0. 0. 0.</_>
    <_>
      4.16666657e-01 1. 1. 3.05555552e-01 5.55555560e-02 2.77777780e-02
      8.33333358e-02 4.44444448e-01 6.38888896e-01 1.11111112e-01
      2.77777780e-02 0. 0. 0. 5.55555560e-02 1.11111112e-01
      1.94444448e-01 6.11111104e-01 1. 1. 1. 0. 0. 0. 0. 0.
      7.22222209e-01 7.22222209e-01 6.94444478e-01 6.38888896e-01
      6.38888896e-01 6.38888896e-01 6.11111104e-01 4.16666657e-01
      4.16666657e-01 5.00000000e-01 6.11111104e-01 9.72222209e-01 1. 1.
      1. 8.05555582e-01 7.77777791e-01 8.05555582e-01 8.33333313e-01 1.
      1. 1. 1. 1. 1. 1. 1. 9.72222209e-01 0. 0. 0. 0. 5.55555560e-02 1.
      1. 1. 1. 1. 1. 1. 1. 9.16666687e-01 7.50000000e-01 6.11111104e-01
      3.88888896e-01 2.22222224e-01 1.11111112e-01 1.11111112e-01
      2.50000000e-01 4.16666657e-01 2.77777791e-01 1.11111112e-01
      1.38888896e-01 3.05555552e-01 4.16666657e-01 6.66666687e-01
      8.33333313e-01 9.72222209e-01 1. 1. 1. 7.50000000e-01
      6.11111104e-01 5.55555582e-01 5.27777791e-01 4.44444448e-01
      4.44444448e-01 4.44444448e-01 4.44444448e-01 5.00000000e-01
      2.77777791e-01 0. 0. 0. 1.11111112e-01 7.77777791e-01 1. 1. 1. 1.
      6.66666687e-01 4.44444448e-01 3.05555552e-01 2.50000000e-01
      2.22222224e-01 3.05555552e-01 3.05555552e-01 3.61111104e-01
      3.88888896e-01 3.88888896e-01 4.16666657e-01 2.77777791e-01
      3.05555552e-01 5.00000000e-01 6.11111104e-01 7.77777791e-01 1. 1.
      1. 1. 1. 1. 9.72222209e-01 1. 8.33333313e-01 0. 0. 0. 0.
      8.33333313e-01 9.78260875e-01 9.23913062e-01 8.80434811e-01
      8.36956561e-01 8.36956561e-01 8.80434811e-01 8.91304374e-01
      8.80434811e-01 9.02173936e-01 8.80434811e-01 8.80434811e-01
      8.69565248e-01 8.47826123e-01 8.26086998e-01 7.82608688e-01
      6.95652187e-01 6.63043499e-01 6.63043499e-01 6.63043499e-01
      6.63043499e-01 6.95652187e-01 7.60869563e-01 8.69565248e-01
      8.69565248e-01 8.69565248e-01 8.58695686e-01 7.82608688e-01
      7.93478251e-01 7.50000000e-01 7.60869563e-01 7.39130437e-01
      7.06521749e-01 8.04347813e-01 8.69565248e-01 9.56521749e-01 1.
      4.60829493e-03 6.91244239e-03 1.61290318e-02 4.60829493e-03
      2.07373276e-02 2.99539175e-02 2.76497696e-02 3.22580636e-02
      4.83870953e-02 5.06912433e-02 6.91244230e-02 1.15207374e-01
      2.02764973e-01 4.07834113e-01 7.16589868e-01 1. 6.68202758e-01
      2.02764973e-01 4.83870953e-02 4.60829511e-02 2.30414756e-02
      1.61290318e-02 2.07373276e-02 4.60829493e-03 1.38248848e-02
      4.60829493e-03 0. 0. 0. 0. 4.60829493e-03 0. 0. 0. 0. 0. 0. 0.
      4.60829493e-03 0. 0. 0. 0. 0. 0. 0. 0. 0. 4.60829493e-03 0. 0. 0.
      0. 0. 0. 0. 0. 0. 0. 0. 0. 0. 0. 0. 0. 0. 0. 0. 0. 0. 0. 0. 0. 0.
      0. 0. 0. 0. 0. 0. 0. 0. 0. 0. 0. 0. 0. 0. 0. 0. 0. 0. 0. 0. 0. 0.
      0. 0. 0. 0. 0. 0. 0. 0. 0. 0. 0. 0. 0. 0. 0. 0. 0. 0. 0. 0. 0. 0.
      0. 0. 0. 0. 0. 0. 0. 0. 0. 0. 0. 0. 0. 0. 0. 0. 0. 0. 0. 0. 0. 0.
      0. 0. 0. 0. 0. 0. 0. 0. 0. 0. 0. 0. 0. 0. 0. 0. 0. 0. 0. 0. 0. 0.
      0. 0. 0. 0. 0. 0. 0. 0. 0. 0. 0. 0. 0. 0. 0. 0. 0. 0.</_>
    <_>
      1.11111112e-01 0. 0. 0. 0. 0. 3.70370373e-02 1.48148149e-01
      3.70370388e-01 4.07407403e-01 5.55555582e-01 5.55555582e-01
      2.59259254e-01 2.59259254e-01 6.66666687e-01 8.14814806e-01
      4.07407403e-01 1.48148149e-01 7.40740746e-02 0. 0. 0.
      4.81481493e-01 9.62962985e-01 1. 5.92592597e-01 3.33333343e-01
      3.33333343e-01 3.33333343e-01 3.70370388e-01 3.70370388e-01
      4.07407403e-01 3.70370388e-01 2.22222224e-01 1.48148149e-01
      7.40740746e-02 0. 0. 0. 7.40740746e-02 1.11111112e-01 0. 0. 0.
      7.40740746e-02 1.48148149e-01 3.33333343e-01 4.44444448e-01
      5.55555582e-01 5.92592597e-01 5.92592597e-01 5.92592597e-01
      5.55555582e-01 5.92592597e-01 5.18518507e-01 4.07407403e-01
      1.48148149e-01 1.48148149e-01 0. 0. 0. 4.44444448e-01
      6.66666687e-01 7.40740776e-01 4.81481493e-01 4.07407403e-01
      3.33333343e-01 3.70370388e-01 3.70370388e-01 3.70370388e-01
      4.44444448e-01 6.66666687e-01 5.92592597e-01 3.33333343e-01 0. 0.
      0. 1.11111112e-01 5.55555582e-01 8.51851881e-01 8.14814806e-01
      5.18518507e-01 3.70370388e-01 4.07407403e-01 4.07407403e-01
      4.44444448e-01 7.03703701e-01 8.88888896e-01 7.03703701e-01
      2.96296299e-01 0. 0. 0. 2.96296299e-01 7.77777791e-01
      8.88888896e-01 6.66666687e-01 2.96296299e-01 2.59259254e-01
      3.33333343e-01 4.07407403e-01 4.81481493e-01 4.81481493e-01
      9.25925910e-01 8.88888896e-01 7.77777791e-01 0. 0. 0.
      3.70370373e-02 2.59259254e-01 4.07407403e-01 4.81481493e-01
      5.18518507e-01 5.55555582e-01 4.81481493e-01 4.44444448e-01
      5.55555582e-01 5.92592597e-01 5.92592597e-01 4.44444448e-01
      2.59259254e-01 0. 0. 0. 2.96296299e-01 0. 3.70370373e-02
      3.70370373e-02 3.70370373e-02 3.70370373e-02 3.70370373e-02 0. 0.
      0. 0. 9.23076943e-02 1.53846154e-02 1.53846154e-02 0.
      1.84615389e-01 6.92307711e-01 8.46153855e-01 1. 7.53846169e-01
      6.15384638e-01 5.07692337e-01 5.38461566e-01 5.38461566e-01
      4.61538464e-01 4.76923078e-01 4.92307693e-01 5.23076952e-01
      6.00000024e-01 7.53846169e-01 6.76923096e-01 6.30769253e-01
      4.92307693e-01 5.07692337e-01 4.92307693e-01 5.07692337e-01
      5.69230795e-01 6.30769253e-01 5.53846180e-01 7.23076940e-01
      8.61538470e-01 8.46153855e-01 7.53846169e-01 4.76923078e-01
      2.30769232e-01 4.61538471e-02 0. 3.38983047e-03 0. 0. 0. 0. 0. 0.
      0. 0. 0. 0. 0. 0. 0. 0. 0. 0. 0. 0. 0. 1.01694912e-02 0. 0. 0. 0.
      3.38983047e-03 0. 0. 0. 0. 0. 0. 0. 0. 0. 1.69491526e-02
      6.77966094e-03 0. 0. 0. 0. 0. 1.01694912e-02 2.03389823e-02 0. 0.
      0. 0. 0. 0. 1.35593219e-02 1.35593219e-02 0. 0. 0. 0. 0. 0. 0. 0.
      0. 0. 0. 0. 0. 0. 2.03389823e-02 0. 0. 0. 0. 0. 0. 0. 0. 0. 0. 0.
      0. 0. 0. 0. 0. 3.38983051e-02 0. 0. 0. 0. 0. 0. 1.69491526e-02 0.
      0. 1.35593219e-02 0. 6.77966094e-03 3.05084735e-02 0.
      2.37288140e-02 0. 0. 3.05084735e-02 0. 4.06779647e-02
      1.35593219e-02 3.38983047e-03 2.37288140e-02 3.72881368e-02
      5.42372875e-02 1.01694912e-01 1.49152547e-01 1.42372876e-01
      4.00000006e-01 4.98305082e-01 5.96610188e-01 5.22033870e-01 1.
      6.74576283e-01 3.55932206e-01 2.03389823e-01 1.52542368e-01
      1.11864403e-01 8.81355926e-02 3.05084735e-02 4.06779647e-02
      5.42372875e-02 1.69491526e-02 0. 6.77966094e-03 6.77966094e-03
      6.77966094e-03 0. 0. 0. 0. 0. 0. 0. 0. 0. 3.38983047e-03 0. 0. 0.
      0. 0. 0. 0. 0. 0. 0. 0. 0. 0. 0. 0. 3.38983047e-03 0. 0. 0. 0. 0.
      0. 0. 0. 0. 0. 0. 0. 0. 0. 0. 0. 0. 0. 0. 0. 0. 0. 0.</_>
    <_>
      7.50000000e-01 2.22222224e-01 8.33333358e-02 2.77777780e-02
      1.66666672e-01 7.77777791e-01 8.61111104e-01 8.88888896e-01
      9.16666687e-01 9.16666687e-01 8.88888896e-01 9.16666687e-01
      9.16666687e-01 8.05555582e-01 5.55555582e-01 5.27777791e-01
      5.27777791e-01 7.22222209e-01 1. 1. 1. 1. 1. 8.61111104e-01
      8.61111104e-01 8.61111104e-01 9.16666687e-01 1. 1. 1. 1.
      7.50000000e-01 2.77777780e-02 0. 0. 4.44444448e-01 7.77777791e-01
      8.05555582e-01 7.77777791e-01 6.94444478e-01 5.55555582e-01
      4.44444448e-01 4.16666657e-01 4.72222239e-01 5.00000000e-01
      3.88888896e-01 4.44444448e-01 5.55555582e-01 7.22222209e-01 1. 1.
      1. 1. 1. 8.88888896e-01 7.77777791e-01 6.66666687e-01
      5.55555582e-01 5.55555582e-01 5.83333313e-01 6.38888896e-01
      6.94444478e-01 7.22222209e-01 6.66666687e-01 6.38888896e-01
      6.11111104e-01 5.55555582e-01 4.44444448e-01 5.00000000e-01
      6.11111104e-01 7.77777791e-01 1. 1. 1. 8.05555582e-01
      6.38888896e-01 5.27777791e-01 4.44444448e-01 4.72222239e-01
      5.27777791e-01 5.00000000e-01 5.55555582e-01 5.55555582e-01
      5.83333313e-01 5.55555582e-01 6.11111104e-01 6.38888896e-01
      4.44444448e-01 4.72222239e-01 5.55555582e-01 6.94444478e-01
      8.88888896e-01 1. 1. 1. 1. 1. 1. 1. 1. 1. 1. 9.16666687e-01
      4.44444448e-01 0. 0. 1.38888896e-01 6.38888896e-01 1. 1. 1. 1. 1.
      1. 1. 1. 1. 1. 9.44444478e-01 8.61111104e-01 8.05555582e-01
      8.33333313e-01 8.88888896e-01 7.77777791e-01 6.94444478e-01
      6.94444478e-01 6.38888896e-01 5.55555582e-01 5.00000000e-01
      3.61111104e-01 3.61111104e-01 1.66666672e-01 2.77777791e-01
      3.61111104e-01 5.55555582e-01 9.16666687e-01 6.60550416e-01
      6.23853207e-01 5.96330225e-01 7.24770606e-01 8.53210986e-01
      8.71559620e-01 8.80733907e-01 8.99082541e-01 8.99082541e-01
      9.08256829e-01 9.63302732e-01 9.81651306e-01 9.90825653e-01
      9.99999940e-01 9.90825653e-01 9.81651306e-01 9.72477019e-01
      9.44954097e-01 9.44954097e-01 8.44036639e-01 7.70642161e-01
      7.98165083e-01 8.07339430e-01 8.07339430e-01 8.62385273e-01
      9.17431176e-01 9.35779750e-01 9.44954097e-01 9.54128385e-01
      9.26605463e-01 9.17431176e-01 9.26605463e-01 8.99082541e-01
      8.62385273e-01 8.34862351e-01 8.25688064e-01 0. 0. 0. 0. 0. 0. 0.
      0. 0. 0. 0. 0. 0. 0. 0. 0. 1.96078438e-02 5.60224103e-03
      1.68067235e-02 2.80112047e-02 5.88235296e-02 7.56302550e-02
      3.55742306e-01 3.08123261e-01 8.76750708e-01 5.82633078e-01 1.
      3.36134464e-01 2.57703096e-01 1.90476194e-01 1.45658270e-01
      2.80112047e-02 7.28291348e-02 1.73669472e-01 3.64145674e-02
      4.20168079e-02 0. 1.40056023e-02 5.60224103e-03 8.40336177e-03 0.
      0. 0. 0. 0. 0. 0. 0. 0. 0. 0. 0. 0. 0. 0. 0. 0. 0. 0. 0. 0. 0. 0.
      0. 0. 0. 0. 0. 0. 0. 0. 0. 0. 0. 0. 0. 0. 0. 0. 0. 0. 0. 0. 0. 0.
      0. 0. 0. 0. 0. 0. 0. 0. 0. 0. 0. 0. 0. 0. 0. 0. 0. 0. 0. 0. 0. 0.
      0. 0. 0. 0. 0. 0. 0. 0. 0. 0. 0. 0. 0. 0. 0. 0. 0. 0. 0. 0. 0. 0.
      0. 0. 0. 0. 0. 0. 0. 0. 0. 0. 0. 0. 0. 0. 0. 0. 0. 0. 0. 0. 0. 0.
      0. 0. 0. 0. 0. 0. 0. 0. 0. 0. 0. 0. 0. 0. 0. 0. 0. 0. 0. 0. 0. 0.
      0. 0. 0. 0. 0. 0. 0.</_>
    <_>
      0. 5.55555560e-02 0. 0. 0. 0. 0. 0. 0. 1.38888896e-01
      2.77777791e-01 3.33333343e-01 4.44444448e-01 5.55555582e-01
      5.00000000e-01 2.50000000e-01 3.05555552e-01 6.66666687e-01
      7.50000000e-01 2.22222224e-01 2.50000000e-01 1.66666672e-01 0. 0.
      0. 0. 0. 1.11111112e-01 1.66666672e-01 1.66666672e-01
      1.11111112e-01 1.11111112e-01 1.11111112e-01 1.11111112e-01
      1.11111112e-01 1.11111112e-01 1.11111112e-01 8.88888896e-01
      8.61111104e-01 8.05555582e-01 0. 0. 0. 0. 5.55555560e-02
      1.11111112e-01 5.55555560e-02 0. 0. 0. 0. 1. 1. 9.72222209e-01
      2.22222224e-01 1.94444448e-01 2.22222224e-01 2.77777791e-01
      3.88888896e-01 4.72222239e-01 5.55555582e-01 6.66666687e-01
      5.83333313e-01 3.88888896e-01 0. 0. 0. 0. 1.11111112e-01
      3.88888896e-01 5.55555582e-01 5.00000000e-01 5.00000000e-01
      4.16666657e-01 3.88888896e-01 3.88888896e-01 3.61111104e-01
      3.88888896e-01 3.88888896e-01 4.72222239e-01 3.61111104e-01
      1.94444448e-01 0. 0. 0. 0. 2.22222224e-01 6.11111104e-01
      8.33333313e-01 6.94444478e-01 4.72222239e-01 3.61111104e-01
      3.05555552e-01 3.05555552e-01 3.88888896e-01 4.72222239e-01
      7.77777791e-01 7.50000000e-01 5.55555582e-01 5.55555560e-02 0. 0.
      0. 0. 3.33333343e-01 5.27777791e-01 5.83333313e-01 5.27777791e-01
      4.16666657e-01 3.88888896e-01 3.88888896e-01 3.88888896e-01
      3.88888896e-01 4.16666657e-01 5.00000000e-01 3.61111104e-01
      2.22222224e-01 0. 0. 0. 0. 6.38888896e-01 7.77777791e-01
      8.61111104e-01 2.77777791e-01 2.22222224e-01 2.22222224e-01
      2.22222224e-01 2.22222224e-01 1.94444448e-01 2.22222224e-01
      2.22222224e-01 8.61111104e-01 7.77777791e-01 4.72222239e-01 0.
      2.45901629e-01 5.08196712e-01 6.72131121e-01 8.85245860e-01
      7.54098296e-01 7.37704873e-01 5.40983558e-01 5.08196712e-01
      4.59016383e-01 4.26229477e-01 4.09836054e-01 4.59016383e-01
      4.75409806e-01 5.24590135e-01 5.90163887e-01 6.22950792e-01
      8.03278625e-01 8.68852437e-01 9.18032765e-01 9.01639283e-01
      7.37704873e-01 6.72131121e-01 6.55737638e-01 6.55737638e-01
      6.22950792e-01 6.22950792e-01 6.06557369e-01 6.22950792e-01
      6.39344215e-01 6.88524544e-01 7.04917967e-01 8.03278625e-01
      9.99999940e-01 9.18032765e-01 7.04917967e-01 4.75409806e-01
      3.30033014e-03 0. 0. 0. 0. 0. 1.32013205e-02 0. 0. 0. 0. 0. 0.
      1.32013205e-02 0. 0. 0. 0. 0. 0. 6.60066027e-03 0. 0. 0.
      6.60066027e-03 9.90099087e-03 0. 0. 0. 0. 0. 0. 0. 0. 0.
      6.60066027e-03 6.60066027e-03 0. 0. 0. 0. 0. 0. 0. 0. 0. 0. 0. 0.
      0. 0. 0. 0. 0. 0. 0. 0. 0. 0. 0. 0. 0. 0. 0. 0. 0. 0. 0. 0. 0. 0.
      0. 0. 0. 0. 9.90099087e-03 0. 0. 0. 0. 0. 0. 0. 0. 0. 0. 0. 0. 0.
      0. 0. 0. 0. 0. 0. 0. 0. 0. 0. 0. 0. 0. 0. 0. 0. 6.60066027e-03
      2.64026411e-02 2.97029708e-02 4.29042913e-02 5.94059415e-02
      2.04620466e-01 1.98019803e-01 3.00330043e-01 2.44224429e-01
      6.40264034e-01 3.92739296e-01 1. 5.54455459e-01 3.79537970e-01
      3.49835008e-01 3.00330043e-01 2.07920805e-01 6.27062693e-02
      1.08910896e-01 6.60066009e-02 6.27062693e-02 2.64026411e-02
      3.30033014e-03 1.32013205e-02 1.98019817e-02 9.90099087e-03 0. 0.
      9.90099087e-03 0. 1.32013205e-02 0. 0. 6.60066027e-03 0.
      3.30033014e-03 3.30033014e-03 0. 0. 0. 3.30033014e-03 0. 0. 0. 0.
      0. 0. 0. 0. 0. 0. 0. 0. 0. 0. 6.60066027e-03 0. 0. 0. 0.
      3.30033014e-03 0. 0. 0. 0. 9.90099087e-03 0. 0. 1.98019817e-02 0.
      0. 0. 0. 0. 0.</_>
    <_>
      5.88235296e-02 0. 0. 0. 9.11764681e-01 9.70588267e-01
      6.76470578e-01 4.41176474e-01 2.64705896e-01 2.94117659e-01
      2.05882356e-01 3.23529422e-01 3.82352948e-01 4.41176474e-01
      1.17647059e-01 1.47058830e-01 2.35294119e-01 6.47058845e-01
      6.17647052e-01 6.47058845e-01 9.70588267e-01 9.70588267e-01
      8.82352948e-01 7.94117630e-01 7.64705896e-01 7.64705896e-01
      8.23529422e-01 8.82352948e-01 9.11764681e-01 8.23529422e-01
      5.58823526e-01 4.11764711e-01 2.94117659e-01 1.76470593e-01
      5.88235296e-02 1.17647059e-01 2.35294119e-01 2.35294119e-01
      3.23529422e-01 3.52941185e-01 4.41176474e-01 5.58823526e-01
      6.76470578e-01 8.23529422e-01 9.41176474e-01 9.70588267e-01
      9.70588267e-01 8.52941155e-01 6.76470578e-01 5.29411793e-01
      4.41176474e-01 4.41176474e-01 4.70588237e-01 5.29411793e-01
      5.58823526e-01 5.00000000e-01 4.41176474e-01 4.41176474e-01
      4.41176474e-01 5.58823526e-01 6.47058845e-01 9.70588267e-01
      9.70588267e-01 9.70588267e-01 8.23529422e-01 6.17647052e-01
      5.88235319e-01 6.76470578e-01 5.58823526e-01 5.29411793e-01
      5.00000000e-01 4.70588237e-01 5.00000000e-01 4.11764711e-01
      3.23529422e-01 2.94117659e-01 4.11764711e-01 5.29411793e-01
      7.94117630e-01 9.41176474e-01 9.41176474e-01 8.82352948e-01
      2.35294119e-01 2.64705896e-01 2.94117659e-01 4.41176474e-01
      6.76470578e-01 7.35294104e-01 7.05882370e-01 7.35294104e-01
      7.35294104e-01 6.76470578e-01 2.35294119e-01 2.94117659e-01
      3.82352948e-01 4.70588237e-01 9.70588267e-01 9.41176474e-01
      7.64705896e-01 5.58823526e-01 3.82352948e-01 2.94117659e-01
      1.76470593e-01 1.17647059e-01 1.17647059e-01 2.94117659e-01
      4.11764711e-01 3.52941185e-01 3.52941185e-01 3.82352948e-01
      4.11764711e-01 6.17647052e-01 8.23529422e-01 9.70588267e-01
      9.70588267e-01 9.70588267e-01 9.70588267e-01 6.76470578e-01
      3.23529422e-01 2.35294119e-01 3.23529422e-01 2.94117659e-01
      3.23529422e-01 4.11764711e-01 4.11764711e-01 2.94117659e-01
      4.41176474e-01 5.00000000e-01 5.88235319e-01 8.82352948e-01 1.
      9.41176474e-01 0. 0. 0. 8.82352963e-02 2.70270277e-02
      1.62162170e-01 7.65765786e-01 9.36936975e-01 9.09909904e-01
      6.48648679e-01 5.49549580e-01 4.86486495e-01 4.50450450e-01
      5.85585594e-01 6.39639676e-01 6.75675690e-01 7.20720768e-01
      6.84684694e-01 5.94594598e-01 6.12612605e-01 5.49549580e-01
      4.95495498e-01 5.58558583e-01 6.12612605e-01 6.21621609e-01
      6.57657683e-01 6.48648679e-01 6.30630672e-01 5.85585594e-01
      5.85585594e-01 5.22522509e-01 5.13513505e-01 5.40540576e-01
      5.85585594e-01 7.29729772e-01 7.92792797e-01 9.72972989e-01 1.
      9.45945978e-01 0. 6.96132600e-01 1.16022103e-01 1.10497244e-01
      4.97237593e-02 8.28729346e-02 8.28729346e-02 4.53038692e-01
      2.76243109e-02 6.62983432e-02 2.20994484e-02 5.52486209e-03
      9.94475186e-02 0. 9.94475186e-02 5.52486209e-03 0. 0. 0. 0.
      3.86740342e-02 1. 0. 0. 0. 2.98342556e-01 1.65745858e-02 0. 0. 0.
      0. 9.50276256e-01 0. 0. 0. 0. 2.20994484e-02 2.98342556e-01 0. 0.
      0. 0. 0. 1.10497244e-01 2.20994484e-02 0. 0. 0. 0. 0. 0.
      7.12707222e-01 0. 0. 0. 0. 9.94475186e-02 0. 0. 0. 0.
      6.07734844e-02 0. 0. 0. 0. 0. 3.14917147e-01 0. 0. 0.
      1.87845305e-01 0. 0. 3.31491716e-02 1.65745858e-02 5.85635364e-01
      0. 0. 5.52486209e-03 4.41988967e-02 5.08287311e-01 0. 0.
      5.80110490e-01 2.20994484e-02 5.52486209e-03 0. 3.86740342e-02 0.
      0. 7.73480684e-02 0. 0. 1.10497242e-02 0. 1.10497242e-02
      1.82320446e-01 0. 1.10497242e-02 0. 0. 0. 0. 2.76243109e-02 0. 0.
      0. 0. 0. 0. 1.71270728e-01 0. 0. 0. 1.65745858e-02 0. 0. 0. 0. 0.
      2.76243109e-02 0. 0. 0. 0. 0. 0. 0. 0. 0. 0. 0. 1.10497242e-02 0.
      0. 0. 0. 0. 0. 0. 7.73480684e-02 0. 0. 0. 0. 0. 0. 0. 0. 0. 0. 0.
      0. 0. 0. 0. 2.76243109e-02 0. 0. 0. 1.65745858e-02 0. 0. 0. 0.
      3.03867429e-01 0. 0. 0. 0. 7.18232095e-02 0. 0. 1.16022103e-01 0.
      0. 0. 3.86740342e-02 2.76243109e-02 3.31491716e-02</_>
    <_>
      1. 1. 1. 1. 1. 1. 1. 1. 1. 1. 1. 8.33333358e-02 2.77777780e-02
      2.77777780e-02 0. 1.66666672e-01 8.05555582e-01 6.11111104e-01
      4.44444448e-01 3.61111104e-01 2.77777791e-01 3.33333343e-01
      4.16666657e-01 4.16666657e-01 2.77777791e-01 2.50000000e-01
      5.00000000e-01 6.11111104e-01 6.94444478e-01 8.33333313e-01
      8.33333313e-01 3.61111104e-01 2.77777791e-01 2.22222224e-01
      5.27777791e-01 5.55555582e-01 5.00000000e-01 4.16666657e-01
      3.88888896e-01 2.50000000e-01 2.22222224e-01 3.05555552e-01
      4.16666657e-01 6.94444478e-01 7.50000000e-01 7.77777791e-01
      7.50000000e-01 7.50000000e-01 8.05555582e-01 8.61111104e-01
      8.61111104e-01 6.66666687e-01 5.55555582e-01 4.44444448e-01
      3.88888896e-01 4.16666657e-01 4.44444448e-01 4.16666657e-01
      3.61111104e-01 3.33333343e-01 4.16666657e-01 5.27777791e-01
      6.66666687e-01 8.61111104e-01 8.61111104e-01 7.50000000e-01
      6.11111104e-01 4.72222239e-01 4.16666657e-01 4.72222239e-01
      5.00000000e-01 5.27777791e-01 4.44444448e-01 4.16666657e-01
      4.16666657e-01 5.00000000e-01 6.11111104e-01 8.61111104e-01
      8.61111104e-01 6.94444478e-01 5.27777791e-01 4.44444448e-01
      4.16666657e-01 4.44444448e-01 4.72222239e-01 4.72222239e-01
      5.00000000e-01 4.72222239e-01 4.44444448e-01 5.83333313e-01
      7.22222209e-01 8.61111104e-01 8.61111104e-01 3.33333343e-01
      1.66666672e-01 8.33333358e-02 5.55555560e-02 4.44444448e-01
      4.72222239e-01 5.55555582e-01 5.27777791e-01 5.00000000e-01
      2.50000000e-01 2.77777791e-01 3.61111104e-01 8.61111104e-01
      8.61111104e-01 8.61111104e-01 3.61111104e-01 3.05555552e-01
      2.50000000e-01 6.38888896e-01 6.11111104e-01 6.66666687e-01
      6.38888896e-01 5.83333313e-01 2.22222224e-01 2.22222224e-01
      3.05555552e-01 6.94444478e-01 7.22222209e-01 4.44444448e-01 0.
      2.77777780e-02 5.55555560e-02 1.11111112e-01 3.05555552e-01
      8.05555582e-01 8.88888896e-01 9.44444478e-01 9.44444478e-01
      9.44444478e-01 9.44444478e-01 9.72222209e-01 9.72222209e-01
      9.44444478e-01 2.36842111e-01 2.10526317e-01 2.01754391e-01
      8.33333313e-01 9.21052635e-01 9.03508782e-01 9.21052635e-01
      7.36842096e-01 6.57894731e-01 5.43859661e-01 5.26315808e-01
      6.57894731e-01 7.19298244e-01 7.98245609e-01 8.24561417e-01
      7.89473712e-01 7.10526347e-01 6.49122834e-01 6.57894731e-01
      6.84210539e-01 7.36842096e-01 7.45614052e-01 7.10526347e-01
      6.84210539e-01 7.01754391e-01 6.57894731e-01 5.00000000e-01
      5.08771956e-01 5.52631557e-01 6.75438583e-01 1. 9.56140339e-01
      9.73684192e-01 8.24561417e-01 1.57894731e-01 9.64912325e-02 0. 0.
      0. 0. 0. 0. 0. 0. 0. 0. 0. 6.04229607e-03 0. 9.06344410e-03
      6.04229607e-03 3.02114803e-03 1.51057402e-02 4.22960743e-02
      1.20845921e-01 3.77643496e-01 7.73413897e-01 8.21752250e-01 1.
      5.83081543e-01 3.05135965e-01 1.81268886e-01 2.68882185e-01
      1.20845921e-01 6.64652586e-02 6.34441078e-02 5.43806627e-02
      4.83383685e-02 1.81268882e-02 5.13595156e-02 3.32326293e-02
      2.41691843e-02 9.06344410e-03 0. 0. 0. 0. 0. 0. 0. 0. 0. 0. 0. 0.
      0. 0. 0. 0. 0. 0. 0. 0. 0. 0. 0. 0. 0. 0. 0. 0. 0. 0. 0. 0. 0. 0.
      0. 0. 0. 0. 0. 0. 0. 0. 0. 0. 0. 0. 0. 0. 0. 0. 0. 0. 0. 0. 0. 0.
      0. 0. 0. 0. 0. 0. 0. 0. 0. 0. 0. 0. 0. 0. 0. 0. 0. 0. 0. 0. 0. 0.
      0. 0. 0. 0. 0. 0. 0. 0. 0. 0. 0. 0. 0. 0. 0. 0. 0. 0. 0. 0. 0. 0.
      0. 0. 0. 0. 0. 0. 0. 0. 0. 0. 0. 0. 0. 0. 0. 0. 0. 0. 0. 0. 0. 0.
      0. 0. 0. 0. 0. 0. 0. 0. 0. 0. 0. 0. 0. 0. 0. 0. 0. 0. 0. 0. 0.</_>
    <_>
      1.19999997e-01 7.99999982e-02 3.99999991e-02 3.99999991e-02
      3.99999991e-02 3.99999991e-02 3.99999991e-02 3.99999991e-02
      3.99999991e-02 3.99999991e-02 3.99999991e-02 3.99999991e-02
      3.99999991e-02 3.99999991e-02 3.99999991e-02 3.99999991e-02
      3.19999993e-01 7.59999990e-01 6.80000007e-01 1.19999997e-01
      1.59999996e-01 2.39999995e-01 7.99999952e-01 8.79999995e-01
      3.19999993e-01 2.39999995e-01 1.19999997e-01 3.99999991e-02
      3.99999991e-02 3.99999991e-02 7.99999982e-02 3.99999976e-01
      5.99999964e-01 7.19999969e-01 6.39999986e-01 5.19999981e-01
      5.19999981e-01 6.39999986e-01 5.60000002e-01 4.39999998e-01
      2.39999995e-01 3.99999991e-02 3.99999991e-02 7.99999982e-02
      3.99999991e-02 1.59999996e-01 1.59999996e-01 7.99999982e-02
      7.99999982e-02 7.99999982e-02 9.59999979e-01 1. 1. 3.19999993e-01
      2.80000001e-01 3.59999985e-01 3.19999993e-01 3.19999993e-01
      3.19999993e-01 3.19999993e-01 2.39999995e-01 2.39999995e-01
      7.99999982e-02 7.99999982e-02 3.99999991e-02 2.39999995e-01
      4.39999998e-01 4.39999998e-01 4.79999989e-01 3.59999985e-01
      3.59999985e-01 3.99999976e-01 3.59999985e-01 3.99999976e-01
      4.79999989e-01 2.80000001e-01 0. 0. 0. 3.19999993e-01
      8.79999995e-01 8.79999995e-01 2.39999995e-01 1.99999988e-01
      1.99999988e-01 1.99999988e-01 1.99999988e-01 2.39999995e-01
      2.39999995e-01 1.19999997e-01 7.99999982e-02 0. 0. 0.
      1.19999997e-01 1.19999997e-01 1.19999997e-01 1.19999997e-01
      1.19999997e-01 4.79999989e-01 5.99999964e-01 6.80000007e-01
      4.39999998e-01 3.19999993e-01 1.99999988e-01 0. 0. 0. 0.
      3.59999985e-01 5.19999981e-01 5.19999981e-01 4.39999998e-01
      4.39999998e-01 3.99999976e-01 3.59999985e-01 3.59999985e-01
      4.39999998e-01 3.19999993e-01 1.59999996e-01 0. 0. 1.99999988e-01
      0. 0. 0. 0. 0. 0. 0. 0. 0. 0. 0. 0. 3.99999991e-02 1.
      4.09090936e-01 1.51515156e-02 0. 1.81818187e-01 4.54545468e-02 0.
      0. 0. 3.48484874e-01 8.33333373e-01 8.63636374e-01 5.90909123e-01
      3.93939406e-01 3.63636374e-01 3.48484874e-01 3.63636374e-01
      3.63636374e-01 3.78787875e-01 6.36363626e-01 6.81818187e-01
      6.21212125e-01 3.93939406e-01 3.78787875e-01 3.93939406e-01
      3.93939406e-01 4.39393938e-01 4.69696999e-01 4.24242437e-01
      4.24242437e-01 5.15151501e-01 3.78787875e-01 1.51515156e-02 0. 0.
      0. 2.04081628e-02 0. 0. 0. 0. 0. 0. 0. 0. 0. 0. 0. 0. 0. 0. 0. 0.
      0. 0. 0. 0. 0. 0. 0. 0. 0. 0. 0. 0. 0. 4.08163248e-03 0. 0. 0. 0.
      0. 0. 0. 0. 0. 0. 0. 8.16326495e-03 0. 0. 0. 0. 0. 0. 0.
      8.16326495e-03 8.16326495e-03 4.08163248e-03 0. 0. 4.08163248e-03
      4.08163248e-03 0. 0. 0. 0. 0. 0. 0. 0. 0. 1.22448970e-02 0. 0. 0.
      0. 0. 0. 4.08163248e-03 0. 9.38775465e-02 0. 0. 0. 0.
      8.16326495e-03 0. 0. 2.04081628e-02 0. 0. 0. 1.22448970e-02 0. 0.
      1.63265299e-02 0. 0. 4.08163248e-03 0. 0. 6.93877488e-02 0.
      4.08163248e-03 4.08163248e-03 0. 8.16326495e-03 8.16326495e-03
      1.02040812e-01 2.04081628e-02 1.63265299e-02 3.67346928e-02
      4.48979586e-02 2.85714269e-02 7.34693855e-02 2.97959179e-01
      1.91836730e-01 3.06122422e-01 4.97959167e-01 9.99999940e-01
      7.91836679e-01 9.46938753e-01 5.87755084e-01 4.28571403e-01
      1.91836730e-01 2.48979583e-01 1.02040812e-01 9.79591757e-02
      4.48979586e-02 4.08163257e-02 7.34693855e-02 9.38775465e-02
      8.16326495e-03 2.44897939e-02 4.08163248e-03 8.16326495e-03 0.
      4.08163248e-03 2.04081628e-02 4.08163248e-03 4.08163248e-03
      8.16326495e-03 0. 4.08163248e-03 0. 8.16326495e-03 1.22448970e-02
      4.08163248e-03 4.08163248e-03 0. 4.08163248e-03 8.16326495e-03 0.
      0. 0. 1.22448970e-02 0. 0. 0. 0. 4.08163248e-03 1.22448970e-02 0.
      0. 4.08163248e-03 4.08163248e-03 0. 0. 0. 0. 0. 0. 0. 0. 0. 0. 0.
      0. 0. 0. 0. 0. 0. 0. 0.</_>
    <_>
      7.99999982e-02 1.19999997e-01 1.19999997e-01 1.19999997e-01 0. 0.
      0. 0. 0. 0. 0. 0. 0. 0. 0. 0. 0. 9.59999979e-01 3.99999991e-02 0.
      0. 4.79999989e-01 4.39999998e-01 3.99999991e-02 1.99999988e-01
      6.80000007e-01 2.39999995e-01 2.80000001e-01 1.59999996e-01
      3.59999985e-01 3.59999985e-01 0. 0. 0. 6.39999986e-01
      7.99999952e-01 7.19999969e-01 2.80000001e-01 2.39999995e-01
      2.39999995e-01 2.39999995e-01 3.19999993e-01 5.19999981e-01
      4.39999998e-01 2.80000001e-01 0. 0. 0. 1.19999997e-01
      7.99999982e-02 0. 0. 0. 1.59999996e-01 5.99999964e-01
      8.39999974e-01 4.79999989e-01 3.59999985e-01 3.59999985e-01
      3.59999985e-01 4.79999989e-01 8.39999974e-01 6.39999986e-01
      2.80000001e-01 3.99999991e-02 0. 0. 3.99999976e-01 5.60000002e-01
      5.19999981e-01 5.60000002e-01 4.39999998e-01 3.99999976e-01
      4.39999998e-01 4.79999989e-01 4.39999998e-01 3.59999985e-01
      3.99999991e-02 3.99999991e-02 3.99999991e-02 1.19999997e-01
      1.59999996e-01 1.59999996e-01 1.59999996e-01 6.39999986e-01 1. 1.
      1.59999996e-01 1.59999996e-01 1.59999996e-01 1.59999996e-01
      3.99999991e-02 3.99999991e-02 3.99999991e-02 7.99999982e-02
      3.99999991e-02 3.99999991e-02 3.99999991e-02 9.59999979e-01 1.
      3.99999991e-02 3.99999991e-02 3.99999991e-02 3.99999991e-02
      3.99999991e-02 3.99999991e-02 0. 3.99999991e-02 4.79999989e-01
      8.79999995e-01 6.39999986e-01 4.39999998e-01 3.59999985e-01
      3.99999976e-01 4.39999998e-01 6.39999986e-01 7.99999952e-01
      4.79999989e-01 3.99999991e-02 3.99999991e-02 3.99999991e-02 0. 0.
      0. 0. 0. 0. 0. 0. 0. 0. 0. 7.99999982e-02 0. 7.99999982e-02
      7.99999982e-02 8.92857164e-02 1.78571437e-02 1.78571437e-02
      1.78571437e-02 1.78571437e-02 4.10714298e-01 6.60714328e-01
      7.85714328e-01 5.35714328e-01 4.64285731e-01 5.35714328e-01
      4.46428597e-01 4.28571463e-01 3.92857164e-01 4.28571463e-01
      5.17857194e-01 6.42857194e-01 7.67857194e-01 6.60714328e-01
      4.82142866e-01 4.82142866e-01 5.17857194e-01 5.35714328e-01
      6.07142866e-01 5.89285731e-01 6.25000000e-01 7.14285731e-01
      6.07142866e-01 3.21428597e-01 0. 0. 0. 0. 1.78571437e-02 1. 0.
      2.49999985e-02 0. 0. 0. 0. 0. 9.99999978e-03 0. 0. 0. 0. 0. 0.
      9.99999978e-03 0. 0. 0. 0. 0. 0. 9.99999978e-03 0. 0. 0.
      1.49999997e-02 0. 0. 0. 0. 0. 5.99999987e-02 0. 0. 0. 0.
      4.49999981e-02 6.49999976e-02 0. 0. 0. 0. 0. 1.99999988e-01
      1.14999995e-01 0. 0. 0. 0. 0. 0. 6.49999976e-02 1.99999996e-02 0.
      0. 0. 8.99999961e-02 0. 0. 0. 0. 5.49999997e-02 0. 0.
      4.99999989e-03 0. 0. 8.50000009e-02 0. 9.99999978e-03 0.
      2.99999993e-02 0. 0. 2.49999985e-02 9.99999978e-03 5.49999997e-02
      0. 0. 0. 1.99999996e-02 7.00000003e-02 0. 0. 4.49999981e-02 0. 0.
      0. 4.99999970e-02 0. 0. 1.99999996e-02 0. 0. 1.49999997e-02 0.
      4.99999989e-03 4.99999970e-02 0. 9.99999978e-03 0. 0.
      2.99999993e-02 1.49999997e-02 1.99999988e-01 1.49999997e-02
      2.99999993e-02 4.49999981e-02 1.14999995e-01 1.74999997e-01
      2.09999993e-01 3.44999999e-01 2.84999996e-01 7.94999957e-01
      9.24999952e-01 1. 7.69999981e-01 5.79999983e-01 4.79999989e-01
      2.34999999e-01 2.54999995e-01 9.99999940e-02 5.49999997e-02
      3.99999991e-02 2.49999985e-02 2.99999993e-02 3.99999991e-02
      5.49999997e-02 9.99999978e-03 9.99999978e-03 4.99999989e-03
      4.99999989e-03 0. 4.99999989e-03 0. 0. 0. 4.99999989e-03 0. 0. 0.
      1.49999997e-02 0. 0. 0. 0. 0. 0. 0. 0. 0. 0. 0. 0. 0. 0. 0.
      3.50000001e-02 0. 0. 0. 4.99999989e-03 0. 0. 9.99999978e-03 0.
      1.49999997e-02 0. 0. 0. 0. 4.99999989e-03 0. 0. 1.49999997e-02 0.
      0. 0. 0. 0. 0.</_>
    <_>
      7.69230798e-02 1.15384623e-01 7.69230798e-02 1.15384623e-01
      1.15384623e-01 7.69230798e-02 3.84615399e-02 0. 0. 0. 0. 0. 0. 0.
      0. 0. 0. 0. 0. 0. 0. 0. 0. 0. 7.69230798e-02 3.84615399e-02
      2.30769247e-01 6.92307711e-01 4.61538494e-01 5.76923072e-01
      7.69230783e-01 8.46153855e-01 8.46153855e-01 3.84615391e-01
      5.76923072e-01 7.69230783e-01 1.53846160e-01 3.84615399e-02
      3.84615399e-02 7.30769277e-01 8.84615421e-01 1. 4.23076928e-01
      3.46153855e-01 3.46153855e-01 3.07692319e-01 3.46153855e-01
      5.76923072e-01 5.38461566e-01 2.69230783e-01 3.84615399e-02
      3.84615399e-02 1.53846160e-01 1.92307696e-01 1.92307696e-01
      3.84615399e-02 3.84615399e-02 3.84615399e-02 3.46153855e-01
      6.53846204e-01 7.69230783e-01 6.15384638e-01 4.23076928e-01
      5.38461566e-01 6.92307711e-01 6.15384638e-01 4.23076928e-01
      2.30769247e-01 7.69230798e-02 7.69230798e-02 1.15384623e-01
      8.07692349e-01 8.46153855e-01 8.07692349e-01 4.61538494e-01
      4.61538494e-01 5.00000000e-01 5.76923072e-01 7.69230783e-01
      6.92307711e-01 5.38461566e-01 3.84615399e-02 3.84615399e-02
      3.84615399e-02 7.30769277e-01 8.84615421e-01 8.46153855e-01
      5.00000000e-01 5.00000000e-01 5.00000000e-01 5.76923072e-01
      7.69230783e-01 7.30769277e-01 5.76923072e-01 7.69230798e-02
      7.69230798e-02 3.84615399e-02 3.84615391e-01 5.00000000e-01
      6.92307711e-01 5.38461566e-01 5.00000000e-01 5.76923072e-01
      6.53846204e-01 7.30769277e-01 6.15384638e-01 4.61538494e-01
      7.69230798e-02 7.69230798e-02 3.84615399e-02 3.84615391e-01
      6.15384638e-01 7.69230783e-01 5.76923072e-01 5.76923072e-01
      5.00000000e-01 6.53846204e-01 8.07692349e-01 6.53846204e-01
      4.61538494e-01 7.69230798e-02 7.69230798e-02 8.07692349e-01
      1.15384623e-01 0. 0. 0. 0. 0. 0. 0. 0. 0. 0. 0. 1.15384623e-01
      7.00000003e-02 1. 2.69999981e-01 3.99999991e-02 9.99999978e-03
      9.99999978e-03 9.99999978e-03 9.99999978e-03 9.99999978e-03
      3.49999994e-01 4.69999999e-01 5.50000012e-01 5.79999983e-01
      3.99999976e-01 4.19999987e-01 3.70000005e-01 3.59999985e-01
      3.10000002e-01 3.59999985e-01 3.89999986e-01 4.79999989e-01
      5.39999962e-01 5.09999990e-01 3.79999995e-01 2.89999992e-01
      3.40000004e-01 3.40000004e-01 3.59999985e-01 3.79999995e-01
      3.70000005e-01 3.79999995e-01 4.39999998e-01 4.39999998e-01
      3.89999986e-01 2.19999999e-01 9.99999978e-03 8.58725756e-02 0. 0.
      0. 0. 0. 0. 0. 0. 0. 0. 0. 0. 0. 0. 2.77008303e-03 0. 0. 0. 0.
      2.77008303e-03 0. 0. 0. 0. 0. 0. 0. 0. 0. 3.87811624e-02 0. 0. 0.
      0. 0. 5.54016605e-03 0. 5.54016605e-03 0. 0. 0. 5.54016605e-03 0.
      0. 0. 0. 0. 2.77008303e-03 0. 2.49307472e-02 2.77008303e-03 0. 0.
      0. 0. 0. 0. 0. 0. 5.54016605e-03 0. 2.77008303e-03 0. 0. 0.
      5.54016605e-03 0. 0. 0. 5.54016605e-03 0. 0. 2.77008303e-03 0.
      6.37119114e-02 2.77008303e-03 0. 0. 8.31024908e-03 1.93905812e-02
      0. 0. 1.93905812e-02 0. 2.77008303e-03 2.77008303e-03
      3.32409963e-02 5.54016605e-03 0. 3.04709133e-02 2.77008303e-03
      2.77008303e-03 8.31024908e-03 0. 1.66204982e-02 8.31024945e-02
      2.77008303e-03 2.77008303e-02 8.31024908e-03 1.66204982e-02
      3.87811624e-02 1.66204982e-02 1.24653734e-01 3.87811624e-02
      9.69529077e-02 2.07756221e-01 2.40997225e-01 5.59556782e-01
      8.08864236e-01 1. 4.40443188e-01 8.86426568e-02 4.15512472e-02
      6.09418266e-02 2.77008303e-02 2.49307472e-02 0. 0. 0.
      6.64819926e-02 0. 5.54016605e-03 0. 5.54016605e-03 3.60110775e-02
      4.43213284e-02 0. 0. 0. 0. 0. 1.93905812e-02 1.38504151e-02 0. 0.
      0. 0. 0. 0. 8.31024908e-03 5.54016605e-03 0. 0. 0. 0. 0. 0. 0. 0.
      0. 0. 0. 0. 0. 0. 5.54016605e-03 0. 0. 0. 0. 0. 0. 0. 0.
      2.77008303e-03 0. 0. 0. 0. 0. 0. 0. 0. 0. 0. 0. 0. 0. 0.</_>
    <_>
      3.47826093e-01 1.73913047e-01 4.34782617e-02 4.34782617e-02 0. 0.
      0. 0. 0. 1.30434781e-01 6.08695686e-01 6.52173936e-01
      2.60869563e-01 2.17391312e-01 5.21739125e-01 4.34782624e-01
      4.34782624e-01 6.95652187e-01 5.65217376e-01 3.47826093e-01
      4.34782617e-02 4.34782617e-02 4.34782617e-02 4.34782617e-02
      4.34782624e-01 1. 1. 3.04347843e-01 2.60869563e-01 2.60869563e-01
      2.60869563e-01 2.60869563e-01 3.04347843e-01 3.47826093e-01
      7.39130437e-01 8.69565248e-01 7.82608688e-01 1.73913047e-01
      8.69565234e-02 8.69565234e-02 8.69565234e-02 8.69565234e-02
      8.69565234e-02 8.69565234e-02 8.69565234e-02 8.69565234e-02
      3.04347843e-01 9.13043499e-01 9.56521749e-01 3.91304344e-01
      1.30434781e-01 1.30434781e-01 1.30434781e-01 1.30434781e-01
      1.30434781e-01 1.73913047e-01 5.21739125e-01 8.69565248e-01
      8.69565248e-01 2.60869563e-01 0. 0. 0. 3.04347843e-01
      4.78260875e-01 4.78260875e-01 3.91304344e-01 4.34782624e-01
      3.47826093e-01 3.47826093e-01 3.47826093e-01 4.34782624e-01
      4.34782624e-01 4.34782624e-01 2.60869563e-01 0. 0. 0. 0.
      2.17391312e-01 3.91304344e-01 4.78260875e-01 3.47826093e-01
      3.91304344e-01 3.47826093e-01 3.47826093e-01 3.47826093e-01
      3.47826093e-01 3.47826093e-01 4.34782624e-01 3.04347843e-01
      1.30434781e-01 0. 0. 0. 2.17391312e-01 3.04347843e-01
      5.21739125e-01 4.78260875e-01 5.65217376e-01 5.21739125e-01
      4.34782624e-01 5.21739125e-01 4.78260875e-01 3.91304344e-01
      5.21739125e-01 4.34782624e-01 2.60869563e-01 8.69565234e-02
      8.69565234e-02 8.69565234e-02 3.04347843e-01 7.39130437e-01
      8.26086998e-01 5.21739125e-01 3.91304344e-01 3.91304344e-01
      3.04347843e-01 3.04347843e-01 3.47826093e-01 4.34782624e-01
      6.52173936e-01 6.52173936e-01 5.21739125e-01 2.17391312e-01
      8.69565234e-02 8.69565234e-02 3.47826093e-01 8.69565234e-02
      8.69565234e-02 1.30434781e-01 1.30434781e-01 2.17391312e-01
      4.34782624e-01 6.08695686e-01 7.39130437e-01 5.78125000e-01
      4.53125000e-01 3.59375000e-01 6.40625000e-01 3.75000000e-01
      1.25000000e-01 1.40625000e-01 1.71875000e-01 1.71875000e-01
      2.65625000e-01 4.06250000e-01 6.09375000e-01 7.96875000e-01 1.
      8.43750000e-01 6.25000000e-01 5.46875000e-01 5.00000000e-01
      5.00000000e-01 3.90625000e-01 3.75000000e-01 5.31250000e-01
      5.00000000e-01 5.93750000e-01 5.46875000e-01 4.53125000e-01
      4.37500000e-01 4.53125000e-01 4.53125000e-01 5.62500000e-01
      5.00000000e-01 4.37500000e-01 3.90625000e-01 3.12500000e-02 0. 0.
      8.96861032e-03 0. 0. 0. 0. 0. 0. 0. 0. 0. 0. 0. 0. 0. 0. 0. 0. 0.
      0. 0. 4.48430516e-03 0. 0. 0. 0. 0. 0. 0. 0. 0. 3.13901380e-02 0.
      1.79372206e-02 0. 8.96861032e-03 0. 8.96861032e-03 0.
      4.48430516e-03 0. 0. 0. 4.48430516e-03 4.48430516e-03 0.
      8.96861032e-03 4.48430516e-03 0. 8.96861032e-03 0. 2.24215258e-02
      1.34529155e-02 0. 0. 0. 8.96861032e-03 4.48430516e-03
      4.48430516e-03 0. 0. 2.24215258e-02 0. 1.34529155e-02
      4.48430516e-03 0. 2.24215258e-02 3.58744413e-02 1.34529155e-02
      2.69058309e-02 3.58744413e-02 3.13901380e-02 8.96861032e-03 0.
      8.96861032e-03 6.27802759e-02 3.58744413e-02 1.79372206e-02
      8.96861032e-03 0. 4.48430516e-03 7.62331858e-02 4.48430516e-03 0.
      2.69058309e-02 1.79372206e-02 4.48430516e-03 4.48430516e-03
      2.69058309e-02 0. 0. 5.82959652e-02 1.79372206e-02 4.48430516e-03
      1.34529155e-02 0. 5.38116619e-02 4.03587446e-02 1.79372206e-02
      6.27802759e-02 1.79372206e-02 2.69058309e-02 1.07623324e-01
      8.52017999e-02 1.43497765e-01 9.86547172e-02 2.28699565e-01
      2.78026909e-01 5.42600930e-01 5.73991060e-01 9.19282556e-01 1.
      6.90582991e-01 6.59192860e-01 2.64573991e-01 2.46636778e-01
      1.25560552e-01 1.52466372e-01 4.03587446e-02 4.93273586e-02
      1.79372206e-02 4.93273586e-02 0. 1.34529155e-02 0. 1.34529155e-02
      3.58744413e-02 1.79372206e-02 0. 0. 4.48430516e-03 1.34529155e-02
      0. 8.96861032e-03 4.48430516e-03 0. 0. 0. 0. 0. 0. 4.48430516e-03
      4.48430516e-03 8.96861032e-03 0. 0. 4.48430516e-03 4.48430516e-03
      8.96861032e-03 0. 0. 0. 0. 0. 0. 0. 0. 4.48430516e-03 0. 0. 0. 0.
      0. 0. 0. 0. 0. 0. 0. 0. 0. 0. 0. 0. 0. 0. 0. 0. 0. 0. 0.</_>
    <_>
      0. 0. 3.33333351e-02 0. 0. 0. 0. 0. 0. 0. 0. 0. 0. 0. 0. 0. 0. 0.
      1. 8.66666734e-01 3.33333351e-02 3.33333351e-02 1.66666672e-01
      3.33333343e-01 4.33333367e-01 5.00000000e-01 5.00000000e-01
      3.00000012e-01 2.33333349e-01 6.66666687e-01 6.66666687e-01
      2.00000018e-01 2.33333349e-01 3.33333351e-02 3.33333351e-02
      3.33333351e-02 3.33333351e-02 8.00000072e-01 8.00000072e-01
      8.00000072e-01 2.00000018e-01 1.66666672e-01 1.33333340e-01
      1.33333340e-01 2.00000018e-01 2.00000018e-01 7.00000048e-01
      6.66666687e-01 5.66666722e-01 0. 0. 0. 6.66666701e-02
      1.00000009e-01 6.66666701e-02 0. 0. 0. 4.00000036e-01
      7.66666710e-01 7.66666710e-01 2.33333349e-01 1.66666672e-01
      1.66666672e-01 2.33333349e-01 4.00000036e-01 5.33333361e-01
      5.00000000e-01 3.66666675e-01 1.00000009e-01 0. 0. 0. 0.
      2.00000018e-01 2.33333349e-01 2.33333349e-01 2.66666681e-01
      2.66666681e-01 3.33333343e-01 3.66666675e-01 4.00000036e-01
      4.00000036e-01 4.66666698e-01 3.66666675e-01 1.00000009e-01 0. 0.
      0. 4.00000036e-01 5.33333361e-01 5.66666722e-01 3.00000012e-01
      2.33333349e-01 2.33333349e-01 2.66666681e-01 2.33333349e-01
      3.33333343e-01 5.00000000e-01 4.33333367e-01 2.00000018e-01 0. 0.
      0. 5.33333361e-01 6.33333385e-01 7.00000048e-01 2.33333349e-01
      2.00000018e-01 1.33333340e-01 1.66666672e-01 1.66666672e-01
      2.00000018e-01 7.00000048e-01 6.33333385e-01 5.33333361e-01 0. 0.
      0. 7.33333349e-01 7.66666710e-01 7.66666710e-01 2.00000018e-01
      1.66666672e-01 2.33333349e-01 2.66666681e-01 2.33333349e-01
      3.66666675e-01 4.66666698e-01 5.33333361e-01 2.00000018e-01
      3.33333351e-02 6.66666701e-02 4.66666698e-01 6.66666701e-02 0. 0.
      8.47457647e-02 8.47457647e-02 3.38983051e-02 3.38983051e-02
      3.38983051e-02 3.72881353e-01 9.32203412e-01 1. 7.28813589e-01
      6.77966118e-01 5.93220353e-01 5.76271176e-01 5.25423706e-01
      6.27118647e-01 7.96610177e-01 9.49152529e-01 8.81355941e-01
      7.28813589e-01 6.61016941e-01 6.44067824e-01 6.44067824e-01
      6.44067824e-01 7.11864412e-01 6.61016941e-01 6.94915235e-01
      7.45762706e-01 9.32203412e-01 8.64406765e-01 3.38983059e-01
      3.38983051e-02 3.38983051e-02 1.69491526e-02 1.69491526e-02
      6.77966103e-02 3.38983059e-01 3.37552726e-02 0. 0. 0. 0. 0. 0. 0.
      0. 0. 0. 0. 0. 0. 0. 0. 0. 0. 0. 0. 0. 0. 0. 0. 0. 0. 0. 0. 0. 0.
      3.37552726e-02 0. 0. 0. 0. 0. 8.43881816e-03 0. 0. 0. 0. 0.
      8.43881816e-03 0. 0. 0. 0. 0. 0. 0. 4.64134999e-02 0. 0. 0. 0. 0.
      0. 0. 0. 0. 0. 0. 0. 0. 0. 0. 1.26582272e-02 0. 0. 0. 0. 0. 0. 0.
      0. 8.43881816e-02 0. 0. 0. 0. 0. 0. 0. 0. 0. 0. 0. 0. 0. 0. 0. 0.
      0. 2.10970454e-02 0. 4.21940908e-03 1.68776363e-02 4.21940908e-03
      4.21940908e-03 0. 0. 4.21940908e-03 4.21940908e-03 2.53164545e-02
      1.26582272e-02 4.21940908e-03 3.79746817e-02 3.79746817e-02
      9.70464051e-02 1.68776363e-01 5.69620252e-01 2.91139215e-01
      7.00421929e-01 8.52320611e-01 9.99999940e-01 5.86497843e-01
      6.24472558e-01 4.17721510e-01 2.70042181e-01 2.10970461e-01
      2.48945132e-01 1.43459916e-01 8.43881816e-02 5.90717271e-02
      5.48523180e-02 6.32911325e-02 8.43881816e-02 2.53164545e-02
      1.26582272e-02 4.21940908e-03 4.21940908e-03 0. 0. 0. 0. 0. 0. 0.
      0. 0. 8.43881816e-03 0. 0. 0. 0. 0. 0. 0. 0. 0. 0. 0. 0. 0. 0. 0.
      0. 0. 0. 0. 0. 0. 0. 0. 0. 0. 0. 0. 0. 0. 0. 0. 0. 0. 0. 0. 0. 0.
      0. 0.</_>
    <_>
      0. 0. 0. 6.25000000e-02 1. 5.31250000e-01 1.25000000e-01
      5.62500000e-01 8.12500000e-01 8.12500000e-01 7.81250000e-01
      6.56250000e-01 5.62500000e-01 7.18750000e-01 6.87500000e-01
      5.31250000e-01 2.81250000e-01 0. 3.12500000e-02 8.12500000e-01
      8.43750000e-01 8.43750000e-01 7.50000000e-01 2.50000000e-01
      2.81250000e-01 2.18750000e-01 3.12500000e-01 7.81250000e-01
      7.81250000e-01 7.50000000e-01 6.56250000e-01 0. 6.25000000e-02
      3.75000000e-01 5.62500000e-01 3.43750000e-01 1.56250000e-01
      3.43750000e-01 5.00000000e-01 6.56250000e-01 7.50000000e-01
      6.56250000e-01 6.25000000e-01 5.62500000e-01 7.50000000e-01
      7.18750000e-01 5.93750000e-01 4.68750000e-01 9.37500000e-02
      9.37500000e-02 8.75000000e-01 8.75000000e-01 8.75000000e-01
      7.81250000e-01 3.43750000e-01 3.43750000e-01 3.75000000e-01
      4.68750000e-01 5.00000000e-01 5.00000000e-01 6.87500000e-01
      3.12500000e-01 1.25000000e-01 5.00000000e-01 5.93750000e-01
      5.93750000e-01 6.56250000e-01 5.93750000e-01 7.18750000e-01
      6.56250000e-01 7.81250000e-01 6.56250000e-01 4.68750000e-01
      3.12500000e-01 1.25000000e-01 6.25000000e-02 3.43750000e-01
      5.31250000e-01 4.68750000e-01 5.62500000e-01 5.62500000e-01
      5.62500000e-01 5.31250000e-01 6.87500000e-01 6.87500000e-01
      7.18750000e-01 5.93750000e-01 1.25000000e-01 2.81250000e-01
      5.93750000e-01 8.12500000e-01 7.81250000e-01 7.81250000e-01
      6.56250000e-01 5.62500000e-01 6.87500000e-01 8.43750000e-01
      8.12500000e-01 7.18750000e-01 3.43750000e-01 2.50000000e-01
      7.18750000e-01 2.50000000e-01 0. 6.25000000e-02 1.56250000e-01
      1.87500000e-01 1.87500000e-01 1.56250000e-01 1.56250000e-01
      1.56250000e-01 1.56250000e-01 1.56250000e-01 1.56250000e-01
      1.56250000e-01 1.56250000e-01 1.56250000e-01 1.56250000e-01
      1.56250000e-01 1.56250000e-01 1.56250000e-01 1.56250000e-01
      1.56250000e-01 1.56250000e-01 1.56250000e-01 2.18750000e-01
      1.87500000e-01 2.50000000e-01 2.50000000e-01 2.50000000e-01
      2.81250000e-01 2.81250000e-01 2.81250000e-01 2.81250000e-01
      2.50000000e-01 2.81250000e-01 2.34042540e-01 4.89361674e-01
      1.59574464e-01 2.12765951e-02 2.12765951e-02 1.70212761e-01
      4.46808487e-01 6.17021263e-01 7.65957415e-01 8.93616974e-01
      9.99999940e-01 9.46808457e-01 9.04255271e-01 8.82978678e-01
      8.51063788e-01 8.08510602e-01 7.97872305e-01 7.55319118e-01
      7.87234008e-01 7.55319118e-01 7.44680822e-01 6.38297856e-01
      6.06382966e-01 6.17021263e-01 5.95744669e-01 6.27659559e-01
      6.59574449e-01 6.80851042e-01 6.80851042e-01 6.06382966e-01
      4.99999970e-01 8.51063803e-02 3.19148935e-02 1.17021270e-01
      3.29787225e-01 2.76595742e-01 1.25000000e-01 0. 0. 0. 0. 0. 0. 0.
      0. 0. 0. 0. 0. 0. 0. 0. 0. 0. 0. 0. 1.25000011e-02 0. 0. 0. 0. 0.
      0. 0. 0. 0. 0. 0. 0. 0. 0. 0. 0. 0. 0. 0. 0. 0. 4.16666688e-03 0.
      0. 0. 0. 0. 0. 0. 4.16666688e-03 0. 0. 0. 0. 0. 0. 0. 0. 0.
      4.16666688e-03 0. 0. 0. 0. 0. 4.16666688e-03 0. 0. 0.
      8.33333377e-03 0. 0. 0. 0. 1.45833343e-01 0. 0. 0. 1.25000011e-02
      3.33333351e-02 0. 0. 2.91666687e-02 2.08333340e-02 1.66666675e-02
      8.33333377e-03 6.66666701e-02 4.16666688e-03 0. 1.33333340e-01 0.
      4.16666688e-03 2.50000022e-02 1.66666675e-02 7.50000030e-02
      2.12500006e-01 3.75000015e-02 1.75000012e-01 1.41666681e-01
      1.54166669e-01 5.45833349e-01 4.12500024e-01 1. 5.58333337e-01
      7.33333349e-01 4.79166687e-01 3.79166692e-01 1.12500004e-01
      2.37500012e-01 2.87500024e-01 7.91666731e-02 8.33333358e-02
      2.08333340e-02 1.50000006e-01 6.25000000e-02 5.00000045e-02 0.
      8.33333377e-03 1.25000011e-02 1.00000009e-01 0. 4.16666688e-03 0.
      4.16666688e-03 2.91666687e-02 3.75000015e-02 0. 0. 0.
      4.16666688e-03 0. 1.66666675e-02 4.16666688e-03 0. 0. 0. 0. 0. 0.
      4.16666688e-03 0. 0. 0. 0. 4.16666688e-03 0. 0. 0. 0.
      4.16666688e-03 0. 0. 0. 0. 0. 0. 0. 0. 0. 0. 0. 0. 0. 0. 0. 0. 0.
      0. 0. 0. 0. 0. 0. 0. 0. 0. 0. 0. 0.</_>
    <_>
      0. 2.77777780e-02 5.55555560e-02 1. 1. 1. 8.05555582e-01
      6.38888896e-01 5.83333313e-01 5.00000000e-01 4.72222239e-01
      5.83333313e-01 6.66666687e-01 6.38888896e-01 4.16666657e-01
      3.88888896e-01 4.44444448e-01 7.50000000e-01 7.50000000e-01 1. 1.
      1. 1. 3.05555552e-01 3.05555552e-01 3.05555552e-01 6.66666687e-01
      7.50000000e-01 7.22222209e-01 7.22222209e-01 6.38888896e-01
      6.11111104e-01 6.38888896e-01 6.38888896e-01 6.11111104e-01
      6.66666687e-01 8.33333313e-01 9.72222209e-01 1. 1. 9.72222209e-01
      9.16666687e-01 9.16666687e-01 9.44444478e-01 1. 1. 1.
      3.05555552e-01 2.77777791e-01 2.77777791e-01 3.88888896e-01
      8.05555582e-01 8.05555582e-01 8.05555582e-01 8.05555582e-01
      8.05555582e-01 7.77777791e-01 7.22222209e-01 2.77777791e-01
      2.77777791e-01 2.77777791e-01 9.72222209e-01 9.72222209e-01
      9.72222209e-01 9.16666687e-01 2.77777791e-01 2.50000000e-01
      2.50000000e-01 7.50000000e-01 7.77777791e-01 7.77777791e-01
      7.77777791e-01 7.77777791e-01 7.50000000e-01 7.50000000e-01
      7.50000000e-01 7.77777791e-01 8.61111104e-01 9.16666687e-01
      9.72222209e-01 9.72222209e-01 9.72222209e-01 8.05555582e-01
      6.94444478e-01 6.38888896e-01 5.55555582e-01 6.11111104e-01
      6.38888896e-01 6.38888896e-01 6.11111104e-01 5.83333313e-01
      5.83333313e-01 4.72222239e-01 5.55555582e-01 6.66666687e-01
      8.05555582e-01 9.72222209e-01 9.72222209e-01 9.16666687e-01
      8.05555582e-01 4.16666657e-01 3.33333343e-01 3.05555552e-01
      5.00000000e-01 6.11111104e-01 6.11111104e-01 6.94444478e-01
      6.94444478e-01 6.66666687e-01 5.55555582e-01 5.00000000e-01
      5.55555582e-01 6.66666687e-01 9.72222209e-01 9.72222209e-01
      9.72222209e-01 9.72222209e-01 5.27777791e-01 4.16666657e-01
      4.16666657e-01 4.72222239e-01 6.38888896e-01 6.38888896e-01
      6.38888896e-01 6.38888896e-01 6.66666687e-01 6.11111104e-01
      4.44444448e-01 5.00000000e-01 5.83333313e-01 8.33333313e-01
      9.72222209e-01 1. 3.88888896e-01 0. 0. 3.92307699e-01
      9.15384591e-01 8.99999976e-01 8.99999976e-01 9.07692313e-01
      9.30769205e-01 6.61538482e-01 4.61538464e-01 4.00000006e-01
      3.84615391e-01 6.46153867e-01 6.46153867e-01 6.92307711e-01
      7.23076940e-01 7.30769217e-01 6.53846145e-01 6.23076916e-01
      4.15384620e-01 3.84615391e-01 5.07692337e-01 6.92307711e-01
      7.38461554e-01 7.46153831e-01 7.46153831e-01 6.92307711e-01
      6.84615374e-01 7.07692325e-01 6.84615374e-01 6.15384638e-01
      5.53846180e-01 6.00000024e-01 7.46153831e-01 1. 1. 1. 1. 0. 0.
      2.55102036e-03 0. 2.55102036e-03 1.02040814e-02 7.65306130e-03 0.
      7.65306130e-03 5.10204071e-03 5.10204071e-03 3.06122452e-02
      4.84693870e-02 4.59183678e-02 6.88775480e-02 1.25000000e-01
      2.60204077e-01 4.46428567e-01 1. 8.72448981e-01 5.61224461e-01
      2.50000000e-01 1.07142858e-01 9.94897932e-02 6.37755096e-02
      2.55102031e-02 5.35714291e-02 2.80612241e-02 1.27551015e-02
      1.27551015e-02 1.78571418e-02 1.02040814e-02 7.65306130e-03
      7.65306130e-03 5.10204071e-03 1.27551015e-02 2.55102036e-03 0.
      5.10204071e-03 2.55102036e-03 0. 0. 0. 0. 0. 0. 0. 0. 0. 0. 0. 0.
      0. 0. 0. 0. 0. 0. 0. 0. 0. 0. 0. 0. 0. 0. 0. 0. 0. 0. 0. 0. 0. 0.
      0. 0. 0. 0. 0. 0. 0. 0. 0. 0. 0. 0. 0. 0. 0. 0. 0. 0. 0. 0. 0. 0.
      0. 0. 0. 0. 0. 0. 0. 0. 0. 0. 0. 0. 0. 0. 0. 0. 0. 0. 0. 0. 0. 0.
      0. 0. 0. 0. 0. 0. 0. 0. 0. 0. 0. 0. 0. 0. 0. 0. 0. 0. 0. 0. 0. 0.
      0. 0. 0. 0. 0. 0. 0. 0. 0. 0. 0. 0. 0. 0. 0. 0. 0. 0. 0. 0. 0. 0.
      0. 0. 0. 0. 0. 0. 0. 0. 0. 0. 0. 0. 0. 0. 0. 0. 0. 0.</_>
    <_>
      0. 0. 0. 3.33333351e-02 0. 3.33333343e-01 9.33333397e-01
      9.66666698e-01 8.66666734e-01 6.66666687e-01 4.33333367e-01
      3.33333343e-01 3.66666675e-01 4.00000036e-01 5.33333361e-01
      7.00000048e-01 3.00000012e-01 3.00000012e-01 4.00000036e-01
      7.33333349e-01 7.33333349e-01 8.00000072e-01 9.66666698e-01
      9.66666698e-01 9.66666698e-01 3.66666675e-01 2.00000018e-01
      2.00000018e-01 2.33333349e-01 6.33333385e-01 6.66666687e-01
      6.00000024e-01 4.00000036e-01 3.66666675e-01 3.00000012e-01
      6.66666701e-02 1.00000009e-01 1.00000009e-01 3.00000012e-01
      7.00000048e-01 7.66666710e-01 8.66666734e-01 9.66666698e-01
      8.33333373e-01 8.33333373e-01 8.66666734e-01 9.66666698e-01
      9.66666698e-01 9.66666698e-01 2.66666681e-01 2.00000018e-01
      2.33333349e-01 2.33333349e-01 8.00000072e-01 8.00000072e-01
      7.66666710e-01 7.66666710e-01 7.66666710e-01 7.66666710e-01
      7.66666710e-01 7.66666710e-01 7.66666710e-01 8.66666734e-01
      9.66666698e-01 1. 9.66666698e-01 8.66666734e-01 8.66666734e-01
      8.66666734e-01 8.33333373e-01 8.33333373e-01 8.33333373e-01
      5.33333361e-01 4.33333367e-01 4.33333367e-01 3.66666675e-01
      5.00000000e-01 6.33333385e-01 7.33333349e-01 8.33333373e-01 1. 1.
      9.66666698e-01 9.66666698e-01 5.00000000e-01 4.33333367e-01
      3.66666675e-01 4.00000036e-01 6.33333385e-01 6.00000024e-01
      6.33333385e-01 6.33333385e-01 6.33333385e-01 6.00000024e-01
      4.66666698e-01 5.00000000e-01 5.33333361e-01 7.33333349e-01 1.
      9.66666698e-01 8.33333373e-01 2.33333349e-01 1.00000009e-01
      1.00000009e-01 2.00000018e-01 5.00000000e-01 5.00000000e-01
      6.00000024e-01 6.33333385e-01 6.33333385e-01 6.66666687e-01
      3.00000012e-01 3.00000012e-01 3.66666675e-01 4.66666698e-01 1. 1.
      1. 7.66666710e-01 6.66666687e-01 6.00000024e-01 5.33333361e-01
      5.33333361e-01 5.66666722e-01 5.66666722e-01 6.00000024e-01
      6.00000024e-01 5.33333361e-01 5.00000000e-01 5.33333361e-01
      6.00000024e-01 7.33333349e-01 9.66666698e-01 9.33333397e-01
      1.00000009e-01 0. 0. 1.92660540e-01 5.32110095e-01 7.61467874e-01
      9.99999940e-01 9.26605463e-01 6.78899050e-01 4.86238509e-01
      4.03669715e-01 5.59633017e-01 6.78899050e-01 7.61467874e-01
      8.07339430e-01 8.16513717e-01 7.98165083e-01 7.61467874e-01
      6.05504572e-01 6.23853207e-01 6.51376128e-01 7.79816508e-01
      7.70642161e-01 7.43119240e-01 7.24770606e-01 6.97247684e-01
      6.14678860e-01 6.14678860e-01 6.42201781e-01 8.53210986e-01
      9.54128385e-01 9.90825653e-01 9.90825653e-01 5.68807304e-01
      1.92660540e-01 0. 0. 0. 2.94840299e-02 0. 0. 2.45700241e-03
      7.37100746e-03 9.82800964e-03 9.82800964e-03 7.37100746e-03
      4.91400482e-03 7.37100746e-03 4.91400482e-03 2.70270258e-02
      1.71990171e-02 3.93120386e-02 3.43980342e-02 4.17690426e-02
      5.89680597e-02 5.89680597e-02 8.59950855e-02 2.57985264e-01
      4.32432413e-01 5.94594598e-01 1. 8.32923830e-01 3.07125300e-01
      6.63390681e-02 3.68550345e-02 7.37100746e-03 2.45700241e-03 0.
      4.17690426e-02 0. 2.45700241e-03 0. 0. 2.45700241e-03
      2.45700241e-03 0. 2.45700241e-03 0. 0. 0. 2.45700241e-03 0. 0. 0.
      0. 0. 0. 0. 0. 0. 0. 0. 0. 0. 0. 0. 0. 0. 0. 0. 0. 0. 0. 0.
      2.45700241e-03 0. 0. 0. 0. 0. 0. 0. 0. 2.45700241e-03 0. 0. 0. 0.
      0. 0. 0. 2.45700241e-03 0. 0. 0. 0. 0. 0. 0. 0. 0. 0. 0. 0. 0. 0.
      0. 0. 0. 0. 0. 0. 0. 0. 0. 0. 0. 0. 0. 0. 0. 0. 0. 0. 0. 0. 0. 0.
      0. 0. 0. 0. 0. 0. 0. 0. 0. 0. 0. 0. 0. 0. 0. 0. 0. 0. 0. 0. 0. 0.
      0. 0. 0. 0. 0. 0. 0. 0. 0. 0. 0. 0. 0. 0. 4.91400482e-03 0. 0. 0.
      0. 0. 0. 0. 0. 4.91400482e-03 0. 0. 0. 0. 0. 0. 0. 1.22850118e-02
      0. 0. 0. 0. 0. 0.</_>
    <_>
      8.27586174e-01 8.62068951e-01 9.65517223e-01 9.65517223e-01 1. 1.
      1. 1. 9.31034505e-01 0. 0. 0. 1.03448272e-01 3.44827585e-02
      3.44827585e-02 1.37931034e-01 5.51724136e-01 5.51724136e-01
      2.06896544e-01 4.82758611e-01 7.24137902e-01 6.20689631e-01
      3.79310340e-01 3.44827592e-01 2.75862068e-01 4.13793087e-01
      4.48275864e-01 3.44827585e-02 3.44827585e-02 3.44827585e-02
      2.06896544e-01 3.79310340e-01 5.51724136e-01 6.55172408e-01
      6.89655185e-01 5.17241359e-01 5.51724136e-01 7.24137902e-01
      6.55172408e-01 4.48275864e-01 2.75862068e-01 1.03448272e-01
      6.89655170e-02 0. 3.44827585e-02 1.37931034e-01 1.37931034e-01
      6.89655170e-02 3.44827585e-02 3.44827585e-02 3.44827585e-02
      3.44827585e-02 3.44827585e-02 3.44827585e-02 0. 8.96551728e-01
      9.65517223e-01 9.31034505e-01 3.44827585e-02 3.44827585e-02
      3.44827585e-02 3.44827585e-02 3.44827585e-02 3.44827585e-02
      3.44827585e-02 1.72413796e-01 3.10344815e-01 4.13793087e-01
      4.82758611e-01 4.48275864e-01 4.48275864e-01 4.82758611e-01
      4.82758611e-01 4.82758611e-01 4.13793087e-01 3.44827592e-01
      2.06896544e-01 3.44827585e-02 3.44827585e-02 3.44827585e-02
      6.89655170e-02 1.37931034e-01 1.37931034e-01 1.72413796e-01
      1.72413796e-01 5.17241359e-01 6.55172408e-01 7.24137902e-01
      5.51724136e-01 3.44827592e-01 2.41379306e-01 1.37931034e-01 0. 0.
      3.44827585e-02 3.44827592e-01 4.48275864e-01 4.82758611e-01
      4.48275864e-01 3.79310340e-01 4.48275864e-01 4.48275864e-01
      4.13793087e-01 5.17241359e-01 4.82758611e-01 4.13793087e-01
      1.03448272e-01 0. 0. 2.06896544e-01 4.48275864e-01 6.20689631e-01
      5.17241359e-01 5.51724136e-01 4.13793087e-01 4.13793087e-01
      3.79310340e-01 4.13793087e-01 4.82758611e-01 3.44827592e-01
      1.72413796e-01 0. 0. 0. 0. 0. 0. 1. 1. 1. 1. 1. 1. 1.
      9.65517223e-01 8.27586174e-01 8.20895493e-01 2.83582091e-01
      5.37313402e-01 4.32835817e-01 3.88059705e-01 3.43283564e-01
      2.83582091e-01 2.68656701e-01 2.68656701e-01 4.77611929e-01
      8.95522356e-01 1. 9.70149219e-01 7.16417909e-01 7.46268630e-01
      7.46268630e-01 6.86567128e-01 7.16417909e-01 7.31343269e-01
      6.56716406e-01 6.56716406e-01 7.61193991e-01 8.20895493e-01
      8.80596995e-01 7.46268630e-01 6.71641767e-01 6.41791046e-01
      6.41791046e-01 5.82089543e-01 4.62686568e-01 4.32835817e-01
      4.92537290e-01 4.47761178e-01 5.67164183e-01 6.41791046e-01
      5.67164183e-01 5.27704507e-03 0. 0. 0. 0. 0. 0. 0. 0. 0. 0. 0. 0.
      0. 0. 0. 0. 0. 0. 0. 0. 0. 0. 0. 0. 0. 0. 0. 0. 0. 0. 0. 0. 0. 0.
      0. 0. 0. 0. 0. 0. 0. 0. 0. 0. 0. 0. 0. 0. 0. 1.58311352e-02 0. 0.
      0. 0. 0. 0. 0. 0. 0. 1.05540901e-02 0. 0. 0. 0. 0. 2.37467028e-02
      0. 0. 0. 1.58311352e-02 0. 0. 0. 0. 6.59630597e-02 0. 0. 0. 0.
      5.01319282e-02 0. 0. 5.01319282e-02 0. 0. 0. 5.27704507e-03 0. 0.
      5.54089732e-02 0. 0. 2.63852254e-03 0. 5.27704507e-03
      1.00263856e-01 0. 3.16622704e-02 0. 0. 5.80474958e-02 0.
      1.16094992e-01 3.69393155e-02 2.11081803e-02 3.95778380e-02
      2.11081803e-02 2.37467028e-02 5.01319282e-02 7.91556761e-02
      1.50395781e-01 3.03430080e-01 1.34564653e-01 1. 3.85224283e-01
      9.78891850e-01 3.24538261e-01 1.26649082e-01 4.48548831e-02
      2.11081803e-02 0. 0. 0. 0. 0. 1.58311352e-02 0. 0. 0. 0. 0. 0. 0.
      0. 0. 0. 0. 0. 0. 0. 0. 0. 0. 0. 0. 0. 0. 0. 0. 0. 0. 0. 0. 0. 0.
      0. 0. 0. 0. 0. 0. 0. 0. 0. 0. 0. 0. 0. 0. 0. 0. 0. 0. 0. 0. 0. 0.
      0. 0.</_>
    <_>
      0. 3.22580636e-02 0. 6.45161271e-02 0. 9.67741907e-02
      5.80645144e-01 5.16129017e-01 3.87096763e-01 5.48387051e-01
      2.58064508e-01 1.29032254e-01 1.93548381e-01 5.48387051e-01
      3.22580636e-01 6.12903237e-01 7.09677398e-01 3.22580636e-01
      1.93548381e-01 3.22580636e-02 0. 0. 0. 3.87096763e-01
      7.74193525e-01 9.67741907e-01 4.51612890e-01 3.54838699e-01
      2.90322572e-01 3.54838699e-01 3.22580636e-01 3.54838699e-01
      3.22580636e-01 3.87096763e-01 4.51612890e-01 9.67741907e-01
      7.41935492e-01 3.87096763e-01 0. 0. 0. 3.22580636e-02
      6.45161271e-02 0. 0. 0. 0. 0. 0. 9.67741907e-01 1. 9.67741907e-01
      3.22580636e-01 2.58064508e-01 3.87096763e-01 5.16129017e-01
      7.09677398e-01 5.48387051e-01 5.80645144e-01 7.41935492e-01
      5.48387051e-01 3.22580636e-01 3.22580636e-02 0. 0. 0.
      1.93548381e-01 4.19354826e-01 5.16129017e-01 4.19354826e-01
      3.87096763e-01 3.54838699e-01 3.87096763e-01 3.87096763e-01
      4.19354826e-01 4.51612890e-01 5.16129017e-01 5.16129017e-01
      3.54838699e-01 3.22580636e-02 0. 0. 0. 0. 0. 0. 0. 3.22580636e-02
      5.48387051e-01 9.67741907e-01 7.74193525e-01 2.90322572e-01 0. 0.
      0. 0. 0. 0. 0. 0. 9.67741907e-02 5.16129017e-01 7.09677398e-01
      6.45161271e-01 3.87096763e-01 3.22580636e-01 2.90322572e-01
      3.54838699e-01 2.90322572e-01 3.87096763e-01 6.12903237e-01
      5.80645144e-01 4.51612890e-01 1.93548381e-01 0. 0. 0. 0.
      1.61290318e-01 1.61290318e-01 1.61290318e-01 9.67741907e-02
      6.45161271e-02 6.45161271e-02 6.45161271e-02 6.45161271e-02
      9.67741907e-02 1.29032254e-01 3.87096763e-01 8.38709652e-01
      7.74193525e-01 3.87096763e-01 3.22580636e-02 0. 0. 0.
      7.54716992e-02 1.32075474e-01 2.83018887e-01 5.09433985e-01
      7.35849082e-01 9.05660391e-01 8.49056602e-01 8.30188692e-01
      6.79245293e-01 6.60377383e-01 7.16981173e-01 7.35849082e-01
      6.22641504e-01 6.03773594e-01 6.60377383e-01 8.67924571e-01 1.
      9.62264180e-01 9.43396211e-01 8.49056602e-01 6.60377383e-01
      6.60377383e-01 6.41509414e-01 6.60377383e-01 6.98113203e-01
      6.41509414e-01 5.66037774e-01 6.03773594e-01 6.03773594e-01
      6.03773594e-01 5.28301895e-01 5.09433985e-01 5.09433985e-01
      3.58490586e-01 3.20754707e-01 2.45283023e-01 0. 0. 0. 0. 0. 0. 0.
      0. 0. 0. 0. 0. 0. 0. 0. 0. 0. 0. 0. 0. 0. 0. 0. 0. 0. 0. 0. 0. 0.
      0. 0. 0. 0. 0. 0. 0. 0. 0. 0. 0. 0. 0. 0. 0. 0. 0. 0. 0. 0. 0. 0.
      0. 0. 0. 0. 0. 0. 0. 0. 0. 0. 0. 0. 0. 0. 0. 0. 0. 0. 0. 0. 0. 0.
      0. 0. 0. 0. 0. 0. 0. 0. 0. 0. 0. 0. 0. 0. 0. 0. 0. 0. 0. 0. 0. 0.
      0. 0. 0. 0. 0. 0. 0. 4.79616318e-03 1.19904075e-02 7.19424477e-03
      0. 3.11750602e-02 9.59232636e-03 2.39808159e-03 6.23501204e-02
      4.31654677e-02 1.39088735e-01 3.21342945e-01 1.19904079e-01
      9.16067183e-01 1.79856122e-01 1. 4.02877718e-01 1.94244608e-01
      2.51798570e-01 1.24700241e-01 2.39808159e-03 2.63788980e-02
      1.07913673e-01 7.19424477e-03 0. 0. 4.79616318e-03 0. 0. 0. 0. 0.
      0. 0. 0. 0. 0. 0. 0. 0. 0. 0. 0. 0. 0. 0. 0. 0. 0. 0. 0. 0. 0. 0.
      0. 0. 0. 0. 0. 0. 0. 0. 0. 0. 0. 0. 0. 0. 0. 0. 0. 0. 0. 0. 0. 0.
      0. 0. 0.</_>
    <_>
      6.94444478e-01 1. 1. 8.33333313e-01 6.66666687e-01 6.11111104e-01
      5.83333313e-01 5.55555582e-01 5.83333313e-01 6.66666687e-01
      7.77777791e-01 6.66666687e-01 4.72222239e-01 5.27777791e-01
      7.77777791e-01 8.33333313e-01 9.16666687e-01 1. 1. 1.
      9.44444478e-01 5.27777791e-01 4.44444448e-01 4.16666657e-01
      7.77777791e-01 8.33333313e-01 8.33333313e-01 8.33333313e-01
      8.33333313e-01 7.50000000e-01 7.50000000e-01 6.11111104e-01
      6.11111104e-01 6.38888896e-01 8.33333313e-01 1. 1. 1. 1.
      9.44444478e-01 9.16666687e-01 9.44444478e-01 1. 1. 1. 1.
      9.16666687e-01 8.05555582e-01 6.94444478e-01 6.11111104e-01
      5.55555582e-01 5.27777791e-01 6.94444478e-01 7.22222209e-01
      6.11111104e-01 5.27777791e-01 5.55555582e-01 6.94444478e-01
      8.05555582e-01 9.16666687e-01 1. 1. 1. 1. 7.77777791e-01
      6.11111104e-01 5.55555582e-01 6.38888896e-01 6.66666687e-01
      7.22222209e-01 6.94444478e-01 7.50000000e-01 6.94444478e-01
      7.22222209e-01 6.11111104e-01 6.38888896e-01 7.50000000e-01
      8.88888896e-01 1. 1. 1. 9.44444478e-01 7.22222209e-01
      5.27777791e-01 4.16666657e-01 5.00000000e-01 6.66666687e-01
      6.94444478e-01 7.22222209e-01 7.50000000e-01 7.50000000e-01
      6.38888896e-01 3.88888896e-01 4.16666657e-01 5.55555582e-01
      8.05555582e-01 1. 1. 9.16666687e-01 8.88888896e-01 7.77777791e-01
      8.05555582e-01 8.61111104e-01 8.88888896e-01 7.50000000e-01
      3.33333343e-01 3.05555552e-01 3.33333343e-01 7.22222209e-01 1. 1.
      1. 1. 9.72222209e-01 9.72222209e-01 9.72222209e-01 9.72222209e-01
      8.61111104e-01 6.11111104e-01 4.72222239e-01 3.88888896e-01
      5.55555582e-01 6.66666687e-01 7.50000000e-01 7.50000000e-01
      7.22222209e-01 6.94444478e-01 5.83333313e-01 3.88888896e-01
      5.00000000e-01 5.83333313e-01 1. 1. 1. 9.72222209e-01
      1.66666672e-01 9.19117630e-01 9.92647052e-01 1. 9.85294104e-01
      9.77941155e-01 9.70588267e-01 9.63235319e-01 7.42647052e-01
      6.32352948e-01 5.22058845e-01 6.02941155e-01 6.61764681e-01
      6.91176474e-01 7.42647052e-01 7.42647052e-01 7.35294104e-01
      6.98529422e-01 6.54411793e-01 6.17647052e-01 6.47058845e-01
      6.69117630e-01 6.76470578e-01 6.91176474e-01 6.54411793e-01
      6.61764681e-01 6.54411793e-01 6.76470578e-01 6.25000000e-01
      5.36764681e-01 5.66176474e-01 6.76470578e-01 9.11764681e-01
      9.48529422e-01 9.11764681e-01 9.04411793e-01 8.97058845e-01 0. 0.
      0. 0. 2.98507465e-03 0. 0. 2.98507465e-03 5.97014930e-03
      8.95522349e-03 0. 2.08955221e-02 2.98507465e-03 8.95522349e-03 0.
      2.68656723e-02 5.37313446e-02 1.13432840e-01 1.31343290e-01
      3.34328353e-01 6.26865685e-01 7.82089531e-01 1. 6.29850745e-01
      4.00000006e-01 1.55223876e-01 2.89552242e-01 1.34328365e-01
      5.67164198e-02 5.67164198e-02 6.56716451e-02 8.95522349e-03
      5.97014930e-03 1.49253737e-02 2.98507465e-03 0. 0. 0. 0. 0. 0. 0.
      0. 0. 0. 0. 0. 0. 0. 0. 0. 0. 0. 0. 0. 0. 0. 0. 0. 0. 0. 0. 0. 0.
      0. 0. 0. 0. 0. 0. 0. 0. 0. 0. 0. 0. 0. 0. 0. 0. 0. 0. 0. 0. 0. 0.
      0. 0. 0. 0. 0. 0. 0. 0. 0. 0. 0. 0. 0. 0. 0. 0. 0. 0. 0. 0. 0. 0.
      0. 0. 0. 0. 0. 0. 0. 0. 0. 0. 0. 0. 0. 0. 0. 0. 0. 0. 0. 0. 0. 0.
      0. 0. 0. 0. 0. 0. 0. 0. 0. 0. 0. 0. 0. 0. 0. 0. 0. 0. 0. 0. 0. 0.
      0. 0. 0. 0. 0. 0. 0. 0. 0. 0. 0. 0. 0. 0. 0. 0. 0. 0. 0. 0. 0. 0.
      0. 0. 0. 0. 0. 0.</_>
    <_>
      0. 0. 0. 0. 0. 0. 0. 0. 8.62068951e-01 8.96551728e-01
      5.51724136e-01 3.79310340e-01 3.10344815e-01 2.75862068e-01
      3.79310340e-01 5.17241359e-01 3.44827592e-01 2.41379306e-01
      2.41379306e-01 3.44827592e-01 6.89655185e-01 8.62068951e-01
      8.96551728e-01 1. 1. 1. 8.62068951e-01 8.62068951e-01
      8.62068951e-01 8.96551728e-01 9.65517223e-01 9.31034505e-01
      5.51724136e-01 1.72413796e-01 1.72413796e-01 2.06896544e-01
      3.44827592e-01 5.86206913e-01 6.55172408e-01 6.55172408e-01
      6.55172408e-01 6.20689631e-01 2.41379306e-01 1.72413796e-01
      2.06896544e-01 3.10344815e-01 5.17241359e-01 9.65517223e-01
      9.65517223e-01 9.31034505e-01 6.89655185e-01 5.17241359e-01
      3.44827592e-01 1.03448272e-01 2.06896544e-01 2.75862068e-01
      3.79310340e-01 2.06896544e-01 2.75862068e-01 3.10344815e-01
      4.48275864e-01 5.51724136e-01 6.89655185e-01 9.31034505e-01
      9.31034505e-01 9.31034505e-01 3.44827592e-01 2.41379306e-01
      1.72413796e-01 1.37931034e-01 4.82758611e-01 6.20689631e-01
      6.55172408e-01 6.20689631e-01 6.20689631e-01 5.51724136e-01
      1.03448272e-01 1.37931034e-01 2.06896544e-01 3.10344815e-01
      8.27586174e-01 9.31034505e-01 8.96551728e-01 3.10344815e-01
      2.06896544e-01 1.72413796e-01 1.03448272e-01 5.51724136e-01
      5.86206913e-01 6.20689631e-01 6.20689631e-01 5.86206913e-01
      5.86206913e-01 1.03448272e-01 1.72413796e-01 2.06896544e-01
      3.10344815e-01 8.96551728e-01 8.96551728e-01 8.62068951e-01
      7.24137902e-01 5.86206913e-01 5.86206913e-01 5.17241359e-01
      3.44827592e-01 3.79310340e-01 3.10344815e-01 3.44827592e-01
      3.79310340e-01 2.41379306e-01 2.41379306e-01 3.44827592e-01
      5.17241359e-01 7.24137902e-01 1. 1. 1. 1. 7.58620679e-01
      5.51724136e-01 4.82758611e-01 6.55172408e-01 7.58620679e-01
      7.58620679e-01 6.89655185e-01 6.55172408e-01 6.20689631e-01
      5.86206913e-01 6.89655185e-01 9.31034505e-01 9.31034505e-01 0. 0.
      0. 0. 0. 6.86274543e-02 6.86274543e-02 1.96078438e-02
      6.86274543e-02 2.15686277e-01 4.41176474e-01 1. 9.01960790e-01
      7.35294163e-01 5.78431368e-01 5.00000000e-01 5.00000000e-01
      6.07843161e-01 6.76470637e-01 6.96078479e-01 7.64705896e-01
      7.25490212e-01 7.25490212e-01 6.96078479e-01 6.86274529e-01
      7.15686321e-01 7.05882370e-01 6.96078479e-01 6.96078479e-01
      6.96078479e-01 6.27451003e-01 5.78431368e-01 5.78431368e-01
      4.50980395e-01 4.41176474e-01 5.78431368e-01 7.25490212e-01
      7.84313738e-01 3.43137264e-01 0. 0. 2.89036542e-01 4.31893691e-02
      1.99335553e-02 4.31893691e-02 2.65780725e-02 5.64784035e-02
      4.11960125e-01 6.64451811e-03 6.31229207e-02 1.66112948e-02
      2.65780725e-02 1.26245841e-01 0. 5.71428537e-01 1.32890362e-02
      5.64784035e-02 9.96677764e-03 0. 2.65780725e-02 1.22923583e-01
      8.97009969e-01 3.98671106e-02 6.64451811e-03 2.99003311e-02 1.
      2.12624580e-01 0. 0. 0. 0. 6.74418569e-01 0. 0. 0. 6.64451811e-03
      9.63455141e-02 3.92026573e-01 0. 0. 0. 0. 0. 0. 0. 0. 0. 0. 0. 0.
      0. 9.96677764e-03 0. 0. 0. 0. 0. 0. 0. 0. 0. 0. 0. 0. 0. 0. 0.
      6.64451811e-03 0. 0. 0. 6.64451811e-03 0. 0. 0. 0. 2.99003311e-02
      0. 0. 0. 0. 0. 0. 0. 1.32890362e-02 0. 0. 0. 0. 0. 0. 0. 0. 0. 0.
      0. 0. 0. 0. 0. 0. 0. 0. 0. 0. 0. 0. 0. 0. 0. 0. 6.64451811e-03 0.
      0. 0. 0. 0. 0. 0. 0. 0. 4.98338863e-02 0. 0. 0. 0. 0. 0. 0. 0. 0.
      0. 0. 0. 0. 0. 0. 0. 0. 0. 0. 0. 0. 0. 0. 0. 0. 0. 0. 0. 0. 0. 0.
      0. 0. 0. 0. 0. 0. 0. 0. 0. 0. 0. 0. 0. 4.65116277e-02 0. 0. 0. 0.
      9.96677764e-03 0. 0. 2.65780725e-02 0. 0. 0. 6.64451811e-03 0.
      3.32225906e-03</_>
    <_>
      0. 1.00000009e-01 1.66666672e-01 2.00000018e-01 2.66666681e-01
      3.00000012e-01 3.33333343e-01 2.66666681e-01 1.66666672e-01
      1.33333340e-01 0. 0. 0. 0. 0. 0. 0. 0. 0. 0. 0. 1.33333340e-01
      3.66666675e-01 5.33333361e-01 5.66666722e-01 3.66666675e-01
      4.00000036e-01 5.00000000e-01 7.33333349e-01 5.66666722e-01
      3.00000012e-01 0. 0. 0. 0. 5.33333361e-01 9.66666698e-01 1.
      8.33333373e-01 3.00000012e-01 2.33333349e-01 2.33333349e-01
      3.00000012e-01 2.66666681e-01 3.66666675e-01 8.66666734e-01
      7.66666710e-01 7.00000048e-01 0. 0. 0. 0. 6.66666701e-02 0. 0. 0.
      0. 1.00000009e-01 3.00000012e-01 4.66666698e-01 5.66666722e-01
      6.00000024e-01 5.66666722e-01 5.66666722e-01 6.00000024e-01
      6.33333385e-01 5.33333361e-01 4.66666698e-01 3.00000012e-01
      3.33333351e-02 0. 0. 2.33333349e-01 7.00000048e-01 8.33333373e-01
      8.66666734e-01 3.33333343e-01 2.66666681e-01 3.66666675e-01
      4.00000036e-01 4.33333367e-01 4.66666698e-01 7.33333349e-01
      6.66666687e-01 4.66666698e-01 0. 0. 0. 0. 0. 0. 0. 0.
      9.33333397e-01 9.33333397e-01 9.00000036e-01 0. 0. 0. 0. 0. 0. 0.
      0. 5.33333361e-01 6.33333385e-01 6.66666687e-01 4.66666698e-01
      4.33333367e-01 4.00000036e-01 4.00000036e-01 4.00000036e-01
      5.33333361e-01 6.66666687e-01 5.66666722e-01 2.66666681e-01 0. 0.
      0. 2.00000018e-01 3.66666675e-01 4.33333367e-01 4.66666698e-01
      4.66666698e-01 4.33333367e-01 4.66666698e-01 5.00000000e-01
      5.33333361e-01 6.66666687e-01 5.33333361e-01 3.33333343e-01 0. 0.
      0. 0. 0. 1.40845068e-02 4.22535203e-02 8.45070407e-02
      9.85915512e-02 1.12676054e-01 4.78873223e-01 7.60563374e-01
      8.59154940e-01 1. 6.90140843e-01 5.91549277e-01 5.63380241e-01
      3.94366205e-01 3.52112681e-01 3.52112681e-01 3.66197169e-01
      4.92957741e-01 6.47887290e-01 7.32394338e-01 7.46478856e-01
      5.91549277e-01 4.92957741e-01 4.64788735e-01 4.08450693e-01
      4.22535211e-01 4.22535211e-01 4.36619699e-01 4.64788735e-01
      4.64788735e-01 4.78873223e-01 5.63380241e-01 7.18309820e-01
      6.61971807e-01 6.19718313e-01 3.94366205e-01 1.12676054e-01 0. 0.
      0. 0. 0. 0. 0. 0. 0. 0. 0. 0. 0. 0. 0. 0. 0. 0. 0. 0. 0. 0. 0. 0.
      0. 0. 0. 0. 0. 0. 8.57142881e-02 0. 0. 0. 0. 0. 0. 0. 0. 0. 0. 0.
      0. 0. 0. 0. 0. 0. 0. 0. 4.28571440e-02 0. 0. 0. 0. 0. 0. 0. 0. 0.
      0. 0. 0. 0. 0. 0. 7.14285718e-03 0. 0. 0. 0. 0. 0. 0. 0.
      3.00000012e-01 0. 0. 0. 0. 1.42857144e-02 0. 0. 4.28571440e-02 0.
      0. 0. 1.42857144e-02 0. 0. 3.57142873e-02 0. 0. 2.85714287e-02 0.
      8.57142881e-02 1.28571436e-01 1.42857144e-02 7.14285746e-02
      2.85714287e-02 1.42857144e-02 1.85714290e-01 1.14285715e-01
      3.92857134e-01 3.21428567e-01 3.71428579e-01 2.21428573e-01
      4.71428573e-01 2.92857140e-01 6.85714304e-01 6.78571403e-01
      7.78571427e-01 8.99999976e-01 1.92857146e-01 1. 1.85714290e-01
      7.14285731e-01 1.50000006e-01 3.07142854e-01 2.14285716e-01
      2.14285716e-01 4.28571440e-02 2.57142872e-01 2.07142860e-01
      1.57142863e-01 4.35714275e-01 2.14285720e-02 3.21428567e-01
      1.42857149e-01 3.57142873e-02 1.71428576e-01 7.85714313e-02
      9.28571448e-02 1.07142858e-01 2.14285720e-02 5.00000007e-02
      7.85714313e-02 3.57142873e-02 5.00000007e-02 2.14285720e-02
      1.42857144e-02 3.57142873e-02 0. 2.14285720e-02 2.14285720e-02
      4.28571440e-02 2.14285720e-02 0. 7.14285718e-03 2.14285720e-02 0.
      0. 0. 0. 0. 0. 7.14285718e-03 0. 0. 0. 0. 0. 0. 0. 0. 0. 0. 0. 0.
      0. 0. 0. 0. 0. 0. 0. 0. 0. 0. 0.</_>
    <_>
      4.72222239e-01 8.05555582e-01 8.88888896e-01 9.16666687e-01
      8.88888896e-01 7.77777791e-01 7.77777791e-01 7.22222209e-01
      9.44444478e-01 1. 9.16666687e-01 5.00000000e-01 4.44444448e-01
      3.33333343e-01 0. 0. 0. 0. 2.50000000e-01 4.16666657e-01
      5.83333313e-01 7.22222209e-01 8.61111104e-01 8.88888896e-01
      6.94444478e-01 6.66666687e-01 8.61111104e-01 8.88888896e-01
      8.61111104e-01 6.94444478e-01 5.27777791e-01 3.05555552e-01
      1.94444448e-01 0. 0. 0. 0. 0. 0. 0. 0. 0. 0. 3.61111104e-01
      8.05555582e-01 9.16666687e-01 9.72222209e-01 9.72222209e-01
      3.61111104e-01 3.05555552e-01 3.05555552e-01 3.33333343e-01
      3.05555552e-01 3.33333343e-01 4.44444448e-01 1. 1. 9.16666687e-01
      8.33333313e-01 5.83333313e-01 0. 0. 8.33333358e-02 2.22222224e-01
      3.05555552e-01 2.77777791e-01 2.77777791e-01 1.38888896e-01
      1.11111112e-01 1.11111112e-01 1.38888896e-01 1.38888896e-01
      1.38888896e-01 2.22222224e-01 9.44444478e-01 1. 9.72222209e-01
      8.88888896e-01 3.61111104e-01 0. 0. 1.38888896e-01 3.61111104e-01
      4.72222239e-01 6.11111104e-01 7.50000000e-01 6.66666687e-01
      6.66666687e-01 6.94444478e-01 7.77777791e-01 7.50000000e-01
      7.22222209e-01 7.50000000e-01 7.50000000e-01 7.22222209e-01
      5.55555582e-01 3.88888896e-01 0. 0. 0. 6.38888896e-01
      8.61111104e-01 9.44444478e-01 9.72222209e-01 9.44444478e-01
      3.33333343e-01 2.77777791e-01 2.77777791e-01 3.05555552e-01
      2.77777791e-01 3.33333343e-01 5.83333313e-01 1. 9.72222209e-01
      9.16666687e-01 8.05555582e-01 5.55555560e-02 0. 0. 7.22222209e-01
      8.61111104e-01 9.16666687e-01 9.72222209e-01 1. 3.61111104e-01
      3.05555552e-01 2.77777791e-01 2.77777791e-01 3.05555552e-01
      3.88888896e-01 7.50000000e-01 9.72222209e-01 9.44444478e-01
      8.61111104e-01 7.22222209e-01 0. 6.58823550e-01 7.64705896e-01
      8.70588243e-01 9.17647064e-01 9.52941179e-01 1. 8.35294127e-01
      7.17647076e-01 6.23529434e-01 6.47058845e-01 6.94117665e-01
      7.05882370e-01 7.29411781e-01 7.41176486e-01 7.76470602e-01
      8.23529422e-01 8.00000012e-01 8.11764717e-01 8.11764717e-01
      8.00000012e-01 7.64705896e-01 7.64705896e-01 7.41176486e-01
      7.29411781e-01 7.41176486e-01 7.76470602e-01 8.00000012e-01
      7.76470602e-01 7.76470602e-01 8.00000012e-01 8.47058833e-01
      9.64705884e-01 9.88235295e-01 9.41176474e-01 8.35294127e-01
      7.88235307e-01 2.23529413e-01 0. 0. 0. 0. 0. 9.41176489e-02 0. 0.
      0. 0. 1.17647061e-02 0. 8.23529437e-02 0. 0. 0. 0. 0.
      2.35294122e-02 1.17647061e-02 5.88235296e-02 0. 0. 2.35294122e-02
      3.52941193e-02 0. 0. 0. 0. 1.17647059e-01 0. 0. 0. 1.64705887e-01
      3.64705890e-01 7.05882385e-02 7.05882385e-02 2.00000003e-01
      1.17647061e-02 8.23529437e-02 1.17647061e-02 1.17647059e-01
      1.64705887e-01 0. 4.70588244e-02 4.70588244e-02 0. 1.29411772e-01
      0. 2.11764708e-01 1.29411772e-01 5.88235296e-02 0. 1.17647061e-02
      1.05882354e-01 5.88235296e-02 2.35294122e-02 3.52941193e-02 0.
      2.82352954e-01 0. 0. 1.17647061e-02 0. 7.05882385e-02
      6.23529434e-01 8.23529437e-02 1.52941182e-01 5.88235296e-02
      1.88235298e-01 2.35294122e-02 0. 1.88235298e-01 1.76470593e-01
      2.70588249e-01 5.88235296e-02 2.35294122e-02 0. 2.35294119e-01
      7.88235307e-01 0. 0. 2.58823544e-01 1.41176477e-01 2.00000003e-01
      1.17647061e-02 4.82352942e-01 0. 0. 4.94117647e-01 0.
      2.35294122e-02 1.64705887e-01 0. 2.58823544e-01 4.47058827e-01 0.
      3.88235301e-01 7.05882385e-02 2.35294122e-02 6.35294139e-01
      5.88235296e-02 1. 2.58823544e-01 2.82352954e-01 6.35294139e-01
      2.47058824e-01 2.00000003e-01 6.35294139e-01 6.70588255e-01
      9.88235295e-01 7.17647076e-01 5.76470613e-01 6.35294139e-01
      4.11764711e-01 5.52941203e-01 4.70588244e-02 2.35294122e-02
      9.41176489e-02 7.88235307e-01 0. 7.05882385e-02 0. 9.41176489e-02
      1.29411772e-01 2.47058824e-01 0. 0. 0. 2.35294122e-02 0.
      1.05882354e-01 1.41176477e-01 0. 0. 0. 0. 2.35294122e-02 0.
      3.52941193e-02 1.17647061e-02 0. 0. 0. 1.17647061e-02 0. 0. 0. 0.
      1.17647061e-02 0. 0. 0. 0. 0. 1.17647061e-02 0. 0. 0.
      2.35294122e-02 0. 0. 0. 0. 4.70588244e-02 0. 0. 0. 0.
      2.35294122e-02 0. 0. 1.17647061e-02 0. 0. 0. 0. 0. 0.</_>
    <_>
      0. 3.61111104e-01 8.05555582e-01 9.16666687e-01 9.44444478e-01
      8.88888896e-01 8.05555582e-01 7.77777791e-01 9.44444478e-01
      9.72222209e-01 9.72222209e-01 9.16666687e-01 7.22222209e-01
      6.38888896e-01 4.72222239e-01 5.55555560e-02 0. 8.33333358e-02
      8.88888896e-01 9.44444478e-01 9.72222209e-01 1. 1. 9.44444478e-01
      8.88888896e-01 8.05555582e-01 7.50000000e-01 7.50000000e-01
      6.66666687e-01 6.66666687e-01 6.94444478e-01 6.38888896e-01
      5.27777791e-01 3.33333343e-01 2.77777780e-02 0. 0. 0. 0. 0. 0. 0.
      0. 0. 1.94444448e-01 4.44444448e-01 5.83333313e-01 6.66666687e-01
      6.66666687e-01 6.94444478e-01 7.50000000e-01 8.33333313e-01
      8.33333313e-01 8.05555582e-01 8.33333313e-01 7.77777791e-01
      7.22222209e-01 6.66666687e-01 5.83333313e-01 2.22222224e-01 0. 0.
      4.16666657e-01 9.16666687e-01 9.72222209e-01 9.72222209e-01
      9.72222209e-01 8.05555582e-01 2.22222224e-01 2.22222224e-01
      2.22222224e-01 2.22222224e-01 2.22222224e-01 2.22222224e-01
      1.94444448e-01 1.94444448e-01 1.66666672e-01 1.11111112e-01 0. 0.
      0. 1.94444448e-01 3.88888896e-01 5.27777791e-01 6.11111104e-01
      6.94444478e-01 6.94444478e-01 6.66666687e-01 6.94444478e-01
      7.22222209e-01 8.05555582e-01 8.61111104e-01 8.05555582e-01
      7.50000000e-01 6.38888896e-01 5.27777791e-01 3.05555552e-01 0. 0.
      0. 1.11111112e-01 1.66666672e-01 1.66666672e-01 1.66666672e-01
      1.66666672e-01 1.94444448e-01 5.00000000e-01 6.94444478e-01
      8.33333313e-01 9.16666687e-01 8.33333313e-01 5.83333313e-01
      4.72222239e-01 3.88888896e-01 2.77777791e-01 2.22222224e-01 0. 0.
      0. 3.61111104e-01 5.00000000e-01 5.83333313e-01 6.38888896e-01
      6.94444478e-01 6.38888896e-01 6.66666687e-01 7.50000000e-01
      8.05555582e-01 7.77777791e-01 7.50000000e-01 7.22222209e-01
      5.83333313e-01 4.44444448e-01 2.50000000e-01 5.55555560e-02 0.
      5.93750000e-01 7.29166687e-01 8.54166687e-01 9.37500000e-01
      9.89583373e-01 1. 9.47916687e-01 8.64583373e-01 8.12500000e-01
      7.50000000e-01 6.04166687e-01 5.31250000e-01 4.89583343e-01
      5.31250000e-01 5.83333373e-01 5.93750000e-01 6.35416687e-01
      6.25000000e-01 6.14583373e-01 6.25000000e-01 6.14583373e-01
      5.93750000e-01 5.41666687e-01 5.31250000e-01 5.62500000e-01
      5.52083373e-01 5.62500000e-01 5.72916687e-01 7.70833373e-01
      9.27083373e-01 9.27083373e-01 9.16666687e-01 9.37500000e-01
      8.33333373e-01 6.04166687e-01 3.33333343e-01 1. 0. 0. 0. 0.
      6.94444450e-03 1.04166670e-02 0. 6.94444450e-03 0. 0.
      1.38888890e-02 0. 2.77777780e-02 6.94444450e-03 0. 1.04166670e-02
      0. 0. 6.59722239e-02 1.80555552e-01 9.72222239e-02 0. 0.
      2.98611104e-01 7.29166642e-02 0. 0. 0. 0. 6.14583313e-01 0. 0. 0.
      3.47222225e-03 4.51388881e-02 2.81250000e-01 0. 1.04166670e-02 0.
      6.94444450e-03 0. 6.59722239e-02 4.16666679e-02 0. 0. 0. 0. 0. 0.
      2.39583328e-01 0. 0. 0. 0. 4.16666679e-02 0. 0. 0. 0.
      6.94444450e-03 0. 0. 0. 0. 0. 6.94444478e-02 0. 0. 0.
      1.04166670e-02 0. 0. 0. 0. 9.75694478e-01 0. 0. 0. 0.
      2.08333340e-02 0. 0. 3.09027791e-01 0. 0. 0. 6.94444450e-03 0. 0.
      6.94444478e-02 0. 0. 0. 0. 0. 1.25000000e-01 0. 0. 0. 0.
      1.38888890e-02 0. 9.02777761e-02 0. 0. 0. 0. 0. 0. 4.72222239e-01
      0. 0. 0. 1.14583336e-01 0. 0. 0. 0. 0. 1.73611119e-01 0. 0. 0. 0.
      0. 1.38888890e-02 0. 0. 0. 0. 0. 0. 0. 0. 0. 0. 0. 0. 0.
      1.38888890e-02 0. 0. 0. 0. 0. 0. 0. 0. 0. 0. 0. 0. 0. 0. 0. 0. 0.
      0. 0. 0. 0. 0. 0. 0. 1.07638888e-01 0. 0. 0. 0. 0. 0. 0.
      6.94444450e-03 0. 0. 0. 0. 0. 0.</_>
    <_>
      0. 0. 0. 0. 0. 0. 1.15384623e-01 2.30769247e-01 3.84615391e-01
      3.46153855e-01 3.07692319e-01 2.30769247e-01 2.30769247e-01
      4.23076928e-01 5.38461566e-01 2.30769247e-01 1.53846160e-01 0. 0.
      0. 0. 0. 8.84615421e-01 1. 3.84615391e-01 2.30769247e-01
      2.30769247e-01 2.69230783e-01 1.92307696e-01 1.53846160e-01
      1.15384623e-01 1.15384623e-01 7.30769277e-01 6.92307711e-01 0. 0.
      0. 0. 7.69230798e-02 1.15384623e-01 7.69230798e-02 0. 0. 0. 0.
      5.00000000e-01 6.53846204e-01 6.92307711e-01 4.23076928e-01
      3.46153855e-01 3.46153855e-01 3.46153855e-01 3.84615391e-01
      3.84615391e-01 5.00000000e-01 6.15384638e-01 5.38461566e-01
      1.53846160e-01 0. 0. 0. 1.15384623e-01 6.53846204e-01
      7.30769277e-01 5.38461566e-01 3.46153855e-01 3.46153855e-01
      3.46153855e-01 3.46153855e-01 3.84615391e-01 4.23076928e-01
      6.15384638e-01 5.38461566e-01 3.46153855e-01 0. 0. 0.
      2.30769247e-01 1. 1. 6.92307711e-01 2.30769247e-01 2.30769247e-01
      2.30769247e-01 2.30769247e-01 1.92307696e-01 2.69230783e-01
      6.53846204e-01 8.46153855e-01 7.69230783e-01 1.15384623e-01 0. 0.
      0. 1.15384623e-01 3.07692319e-01 3.46153855e-01 3.84615391e-01
      3.84615391e-01 4.23076928e-01 4.23076928e-01 5.00000000e-01
      5.38461566e-01 5.76923072e-01 6.92307711e-01 5.38461566e-01
      1.92307696e-01 0. 0. 0. 0. 3.84615391e-01 5.38461566e-01
      5.76923072e-01 5.38461566e-01 3.84615391e-01 3.46153855e-01
      3.84615391e-01 4.23076928e-01 4.23076928e-01 3.84615391e-01
      3.84615391e-01 2.69230783e-01 0. 0. 0. 6.92307711e-01 0. 0. 0. 0.
      7.69230798e-02 7.69230798e-02 7.69230798e-02 0. 0. 1.47058824e-02
      0. 4.41176482e-02 4.41176482e-02 1.47058824e-02 1.47058824e-02
      7.79411793e-01 9.11764681e-01 1. 5.73529422e-01 4.41176474e-01
      3.67647052e-01 3.08823526e-01 3.38235289e-01 3.82352948e-01
      5.58823526e-01 6.91176474e-01 7.64705896e-01 7.05882370e-01
      5.29411793e-01 3.82352948e-01 3.82352948e-01 4.11764711e-01
      3.82352948e-01 3.52941185e-01 4.70588237e-01 5.58823526e-01
      5.73529422e-01 7.05882370e-01 8.67647052e-01 7.05882370e-01
      3.08823526e-01 0. 0. 0. 0. 5.10948896e-02 0. 7.29927002e-03 0. 0.
      7.29927002e-03 3.64963487e-02 7.29927002e-03 0. 0. 0.
      5.83941601e-02 0. 9.48905125e-02 0. 0. 5.10948896e-02 0. 0. 0.
      4.37956192e-02 1.45985400e-02 0. 0. 1.38686135e-01 0. 0. 0. 0. 0.
      1.09489053e-01 0. 0. 0. 1.45985400e-02 5.83941601e-02
      9.48905125e-02 0. 0. 0. 2.91970801e-02 0. 6.56934306e-02
      2.91970801e-02 0. 0. 0. 0. 7.29927002e-03 0. 5.83941601e-02
      1.45985400e-02 0. 0. 0. 1.45985400e-02 0. 0. 0. 0. 0. 0. 0. 0. 0.
      0. 1.45985400e-02 0. 0. 0. 0. 0. 0. 0. 0. 7.29926974e-02 0. 0. 0.
      0. 2.91970801e-02 0. 0. 2.91970801e-02 7.29927002e-03 0. 0.
      4.37956192e-02 0. 0. 4.37956192e-02 0. 1.45985400e-02
      2.91970801e-02 7.29927002e-03 1.45985400e-02 4.37956192e-02 0.
      6.56934306e-02 7.29927002e-03 2.91970801e-02 1.24087587e-01
      4.37956192e-02 1.53284669e-01 1.16788320e-01 2.18978107e-01
      3.06569338e-01 2.91970789e-01 3.57664227e-01 6.13138676e-01
      7.95620441e-01 5.98540127e-01 1. 6.20437980e-01 9.12408769e-01
      4.30656940e-01 7.15328455e-01 2.11678833e-01 1.97080284e-01
      2.11678833e-01 3.28467160e-01 2.91970801e-02 1.45985395e-01
      8.02919716e-02 1.75182477e-01 3.86861324e-01 5.10948896e-02
      5.83941601e-02 1.60583943e-01 7.29926974e-02 5.83941601e-02
      2.18978096e-02 5.10948896e-02 1.31386861e-01 2.91970801e-02
      7.29926974e-02 5.83941601e-02 0. 1.53284669e-01 1.45985400e-02
      3.64963487e-02 5.10948896e-02 7.29926974e-02 7.29927002e-03
      3.64963487e-02 4.37956192e-02 4.37956192e-02 3.64963487e-02 0. 0.
      5.10948896e-02 0. 0. 7.29927002e-03 0. 2.91970801e-02
      3.64963487e-02 0. 1.45985400e-02 0. 4.37956192e-02 0. 0. 0.
      2.18978096e-02 3.64963487e-02 0. 0. 0. 7.29927002e-03
      2.18978096e-02 0. 0. 7.29927002e-03 0. 7.29927002e-03 0.
      1.45985400e-02 0. 0.</_>
    <_>
      0. 0. 6.45161271e-02 4.19354826e-01 7.09677398e-01 6.12903237e-01
      2.58064508e-01 1.61290318e-01 7.09677398e-01 8.38709652e-01
      6.77419305e-01 3.22580636e-01 2.58064508e-01 3.87096763e-01
      3.22580636e-01 3.22580636e-01 3.54838699e-01 3.54838699e-01
      2.90322572e-01 4.51612890e-01 7.41935492e-01 8.70967746e-01
      8.38709652e-01 7.09677398e-01 5.48387051e-01 5.48387051e-01
      8.38709652e-01 7.41935492e-01 6.45161271e-01 4.19354826e-01
      4.19354826e-01 1.93548381e-01 0. 2.90322572e-01 4.83870953e-01
      8.70967746e-01 9.03225780e-01 9.67741907e-01 9.67741907e-01
      9.35483813e-01 7.09677398e-01 6.12903237e-01 5.48387051e-01
      7.74193525e-01 8.70967746e-01 8.70967746e-01 6.45161271e-01
      2.25806445e-01 3.54838699e-01 6.45161271e-01 7.74193525e-01
      7.74193525e-01 7.09677398e-01 5.48387051e-01 4.51612890e-01
      6.12903237e-01 5.48387051e-01 3.87096763e-01 3.22580636e-01
      6.45161271e-02 3.54838699e-01 8.06451559e-01 9.03225780e-01
      9.35483813e-01 6.45161271e-01 2.58064508e-01 1.93548381e-01
      4.19354826e-01 5.16129017e-01 4.83870953e-01 4.83870953e-01
      7.09677398e-01 9.35483813e-01 9.03225780e-01 8.06451559e-01
      2.58064508e-01 0. 0. 3.22580636e-01 6.12903237e-01 7.41935492e-01
      8.06451559e-01 7.09677398e-01 5.48387051e-01 4.83870953e-01
      5.48387051e-01 5.48387051e-01 5.80645144e-01 7.74193525e-01
      8.38709652e-01 7.41935492e-01 6.45161271e-01 4.51612890e-01
      6.45161271e-02 2.25806445e-01 3.87096763e-01 5.80645144e-01
      6.45161271e-01 5.80645144e-01 5.80645144e-01 7.41935492e-01
      7.09677398e-01 6.12903237e-01 5.80645144e-01 6.45161271e-01
      7.09677398e-01 6.77419305e-01 7.74193525e-01 7.74193525e-01
      6.45161271e-01 5.80645144e-01 3.22580636e-01 1.61290318e-01
      1.29032254e-01 4.83870953e-01 7.74193525e-01 8.06451559e-01
      9.35483813e-01 1. 8.38709652e-01 8.70967746e-01 6.77419305e-01
      5.80645144e-01 5.80645144e-01 6.45161271e-01 8.38709652e-01
      7.09677398e-01 5.48387051e-01 2.58064508e-01 0. 0. 0. 0. 0. 0. 0.
      4.76744175e-01 6.86046481e-01 8.13953459e-01 7.90697694e-01
      7.44186044e-01 7.32558131e-01 7.20930219e-01 7.20930219e-01
      6.62790716e-01 6.51162803e-01 5.81395328e-01 7.79069781e-01
      8.83720934e-01 9.88372087e-01 1. 9.65116262e-01 9.41860437e-01
      9.53488350e-01 8.60465109e-01 8.02325606e-01 7.79069781e-01
      8.25581372e-01 8.83720934e-01 8.72093022e-01 9.18604672e-01
      9.06976759e-01 9.18604672e-01 9.18604672e-01 7.67441869e-01
      6.39534891e-01 3.72093022e-01 2.20930234e-01 3.13953489e-01
      3.95348847e-01 3.95348847e-01 2.67441869e-01 3.64583343e-01 0. 0.
      0. 0. 0. 3.12500000e-02 0. 0. 0. 0. 3.12500000e-02 0.
      4.68750000e-02 0. 4.16666679e-02 4.68750000e-02 0. 1.56250000e-02
      2.60416679e-02 7.29166716e-02 5.72916679e-02 5.20833349e-03 0.
      2.08333340e-02 1.56250000e-02 0. 0. 0. 0. 1.25000000e-01 0. 0. 0.
      0. 1.04166670e-02 2.08333340e-02 0. 0. 0. 0. 0. 5.20833349e-03 0.
      0. 0. 0. 0. 0. 0. 2.60416679e-02 0. 0. 0. 0. 5.20833349e-03 0. 0.
      0. 0. 1.04166670e-02 0. 0. 0. 0. 0. 1.04166670e-02 0. 0. 0.
      5.20833349e-03 0. 0. 0. 0. 1.04166672e-01 0. 0. 0. 0.
      1.04166670e-02 0. 0. 3.64583358e-02 0. 5.20833349e-03 0.
      3.64583358e-02 1.04166670e-02 0. 6.77083358e-02 0. 1.56250000e-02
      1.04166670e-02 0. 4.68750000e-02 1.87500000e-01 3.12500000e-02
      1.19791672e-01 3.64583358e-02 7.81250000e-02 3.43750000e-01
      3.17708343e-01 1. 7.23958373e-01 9.79166687e-01 6.09375000e-01
      3.54166687e-01 2.03125000e-01 3.28125000e-01 3.07291687e-01
      3.02083343e-01 7.81250000e-02 7.29166716e-02 2.34375000e-01
      8.33333358e-02 8.33333358e-02 0. 5.20833349e-03 5.20833349e-03
      3.17708343e-01 0. 1.56250000e-02 0. 1.56250000e-02 6.25000000e-02
      8.33333358e-02 0. 0. 0. 1.04166670e-02 0. 3.12500000e-02
      2.08333340e-02 0. 0. 0. 0. 0. 0. 7.81250000e-02 5.20833349e-03 0.
      0. 0. 1.56250000e-02 0. 0. 0. 0. 5.20833349e-03 0. 0. 0. 0. 0.
      2.08333340e-02 0. 0. 0. 0. 0. 0. 0. 0. 7.29166716e-02 0. 0. 0. 0.
      1.04166670e-02 0. 0. 2.60416679e-02 0. 0. 0. 1.04166670e-02 0. 0.</_>
    <_>
      7.40740746e-02 3.70370373e-02 0. 0. 0. 0. 0. 0. 0. 0. 0.
      3.70370373e-02 7.40740746e-02 1.85185194e-01 9.62962985e-01
      8.51851881e-01 2.59259254e-01 3.33333343e-01 6.29629612e-01
      7.77777791e-01 8.51851881e-01 7.77777791e-01 7.77777791e-01
      8.88888896e-01 8.51851881e-01 8.14814806e-01 6.29629612e-01
      3.70370388e-01 1.85185194e-01 1.85185194e-01 1.48148149e-01
      8.51851881e-01 8.88888896e-01 8.88888896e-01 7.03703701e-01
      5.18518507e-01 5.18518507e-01 5.92592597e-01 5.92592597e-01
      7.77777791e-01 7.77777791e-01 7.77777791e-01 5.92592597e-01
      1.85185194e-01 2.22222224e-01 2.59259254e-01 3.70370388e-01
      3.70370388e-01 3.70370388e-01 2.59259254e-01 2.22222224e-01
      3.33333343e-01 3.70370388e-01 4.07407403e-01 3.70370388e-01 1. 1.
      1. 1. 4.81481493e-01 4.07407403e-01 3.70370388e-01 3.70370388e-01
      2.96296299e-01 2.59259254e-01 7.77777791e-01 8.14814806e-01
      8.88888896e-01 8.51851881e-01 5.18518507e-01 5.55555582e-01
      5.18518507e-01 5.55555582e-01 6.29629612e-01 9.25925910e-01
      9.25925910e-01 8.51851881e-01 7.03703701e-01 2.59259254e-01
      2.59259254e-01 2.22222224e-01 2.22222224e-01 2.22222224e-01
      4.44444448e-01 9.25925910e-01 9.62962985e-01 9.25925910e-01
      6.66666687e-01 2.22222224e-01 2.22222224e-01 2.22222224e-01
      2.22222224e-01 1.85185194e-01 1.48148149e-01 3.70370388e-01
      3.70370388e-01 4.81481493e-01 5.18518507e-01 6.29629612e-01
      7.40740776e-01 7.40740776e-01 7.77777791e-01 8.51851881e-01
      7.77777791e-01 7.40740776e-01 5.18518507e-01 3.33333343e-01
      2.96296299e-01 8.14814806e-01 8.51851881e-01 9.25925910e-01
      7.77777791e-01 5.18518507e-01 4.44444448e-01 4.07407403e-01
      4.44444448e-01 5.55555582e-01 5.55555582e-01 5.55555582e-01
      4.07407403e-01 4.44444448e-01 7.03703701e-01 6.66666687e-01 0. 0.
      0. 0. 0. 0. 0. 0. 0. 0. 0. 0. 0. 1.85185187e-02 3.05555552e-01
      8.14814806e-01 1. 8.88888896e-01 7.77777791e-01 1.57407403e-01
      3.70370373e-02 1.11111112e-01 4.44444448e-01 6.48148179e-01
      6.94444478e-01 5.92592597e-01 4.62962955e-01 3.88888896e-01
      3.24074090e-01 4.25925940e-01 5.00000000e-01 4.72222239e-01
      4.72222239e-01 4.53703701e-01 4.35185194e-01 4.53703701e-01
      4.81481493e-01 4.90740746e-01 5.55555582e-01 5.37037015e-01
      4.81481493e-01 2.77777791e-01 3.70370373e-02 7.40740746e-02
      2.40740746e-01 7.12962985e-01 7.03703701e-01 7.40740746e-02 0.
